-0.476163 
-0.882243 
-0.885711 
-0.492763 
1.683268 
-0.537908 
-0.835507 
-0.836117 
-0.512876 
1.466602 
-0.514639 
-0.861278 
-0.865097 
-0.498414 
1.585882 
-0.393522 
-0.832358 
-0.838346 
-0.425618 
1.649518 
-0.866594 
-0.803112 
0.271933 
-2.715323 
-0.854356 
0.775107 
0.297668 
0.074858 
-0.692860 
-1.830753 
-0.947481 
-0.914683 
0.319626 
-2.768669 
-0.918778 
0.701237 
0.394758 
0.179030 
-0.840299 
-1.845524 
-0.943428 
-0.855880 
0.360713 
-2.702247 
-0.937637 
0.739142 
0.322220 
0.081139 
-0.720111 
-1.857345 
-0.927176 
-0.864766 
0.331068 
-2.732378 
-0.921812 
0.733655 
0.357634 
0.132330 
-0.759279 
-1.716827 
0.137481 
-0.834405 
0.323067 
0.258610 
0.278043 
-0.873699 
-0.751314 
-0.864339 
0.211898 
-0.711358 
0.142425 
-0.880177 
0.280637 
0.244460 
0.288255 
-0.918273 
-0.772406 
-0.890630 
0.203676 
-0.730834 
0.135915 
-0.815849 
0.285785 
0.213711 
0.271097 
-0.860157 
-0.741338 
-0.836840 
0.164957 
-0.689126 
0.107932 
-0.839163 
0.289646 
0.229141 
0.272635 
-0.866158 
-0.724864 
-0.832923 
0.178213 
-0.689714 
-0.323975 
-0.338445 
-0.325506 
-0.387300 
-0.193628 
-0.235247 
-0.418503 
-0.118044 
-0.281375 
-0.340743 
-0.230879 
-0.412485 
-0.230465 
-0.249968 
-0.198440 
-0.290516 
-0.356999 
-0.388572 
-0.293988 
-0.205440 
-0.316005 
-0.391321 
-0.310846 
-0.424975 
-0.209441 
-0.249025 
-0.528919 
-0.019940 
-0.294170 
-0.343210 
-0.252637 
-0.436680 
-0.240877 
-0.255510 
-0.221599 
-0.319436 
-0.385174 
-0.386534 
-0.340001 
-0.231995 
-0.330583 
-0.296368 
-0.381708 
-0.398476 
-0.135832 
-0.208833 
-0.285271 
-0.183167 
-0.308773 
-0.353968 
-0.185957 
-0.433070 
-0.199853 
-0.212790 
-0.138762 
-0.293986 
-0.269531 
-0.426156 
-0.236410 
-0.179240 
-0.317879 
-0.335656 
-0.321283 
-0.389895 
-0.190128 
-0.233147 
-0.389753 
-0.129864 
-0.275408 
-0.328517 
-0.230349 
-0.402026 
-0.236534 
-0.241350 
-0.203490 
-0.286444 
-0.327334 
-0.381785 
-0.285212 
-0.210069 
-0.478511 
-0.389880 
-0.434483 
-0.536381 
-0.400453 
-0.386224 
-0.411385 
-0.460265 
-0.351431 
-0.180900 
-0.556685 
-0.415154 
-0.481329 
-0.503549 
-0.419936 
-0.332800 
-0.447878 
-0.519075 
-0.366082 
-0.178700 
-0.387576 
-0.307950 
-0.351288 
-0.633679 
-0.298247 
-0.542254 
-0.324649 
-0.364449 
-0.300612 
-0.207483 
-0.444169 
-0.370852 
-0.408003 
-0.530416 
-0.381203 
-0.392087 
-0.386604 
-0.430310 
-0.346846 
-0.204704 
-0.819914 
0.562695 
-0.863248 
0.571138 
-1.032794 
0.557636 
-1.091234 
0.712386 
-0.886061 
0.962154 
-0.931322 
0.649830 
-0.812019 
0.580488 
-0.854773 
0.562658 
-2.006030 
-2.091327 
-1.980318 
-2.006055 
