1.104935 
-0.863602 
-0.703208 
-0.530661 
-0.649217 
-0.653675 
-1.073378 
-0.960312 
-1.126556 
-0.858431 
0.000000 
0.000000 
0.000000 
0.000000 
0.000000 
0.000000 
0.000000 
0.000000 
0.000000 
0.000000 
-6.521631 
-6.131738 
-6.285576 
1.153514 
1.995910 
-5.858959 
-6.787545 
-6.754720 
-5.669798 
-6.671208 
-3.873368 
-3.723163 
-3.294777 
0.234725 
-0.246916 
-3.967379 
-3.328974 
-4.476162 
-3.375291 
-4.634746 
-3.162809 
-3.846420 
-3.023144 
-0.707185 
1.024921 
-3.441976 
-4.950732 
-3.945895 
-4.203618 
-4.516321 
-3.808421 
-3.551878 
-2.377179 
0.104329 
0.691998 
-3.316227 
-3.314153 
-3.454824 
-3.262778 
-3.336598 
2.252760 
1.425744 
-2.622253 
-2.420272 
-3.633606 
-2.420812 
-0.760301 
-0.424483 
-1.504736 
-5.597305 
2.168770 
0.820636 
-2.727265 
-3.102892 
-3.393523 
-3.457088 
0.341325 
-0.423179 
-2.863571 
-1.658909 
0.992750 
2.091332 
-1.826614 
-1.507200 
-2.996618 
-1.000111 
-0.420993 
-0.853810 
-1.029249 
-2.241535 
0.474639 
-0.441917 
-3.839076 
-3.934507 
-3.507331 
-1.306181 
-0.553268 
-0.165758 
-2.579725 
-2.196611 
-1.005661 
0.556773 
-3.112976 
-0.355194 
-3.663844 
-2.985119 
1.133246 
0.202270 
0.200843 
-3.397025 
-1.305637 
1.469882 
-3.448288 
1.962933 
0.957435 
0.055086 
1.348427 
-3.357338 
-1.139410 
-3.035383 
-1.741892 
-2.551211 
-0.851606 
-0.919372 
-2.009050 
-3.514511 
3.171061 
1.268678 
1.682512 
-0.928169 
-2.545750 
-1.420847 
-4.461734 
-4.070237 
0.614385 
1.626508 
3.053744 
-0.341127 
-0.392770 
-2.396905 
-0.290007 
-1.033214 
-1.543399 
-1.391839 
1.893825 
-1.493541 
3.654867 
-2.798023 
-1.373044 
-1.287538 
0.005626 
3.918686 
-1.217706 
-2.100567 
-2.922764 
-0.215055 
-2.082421 
-0.552351 
0.646951 
-0.448402 
-0.977519 
-0.924816 
0.331843 
-0.867882 
1.307768 
-0.608679 
6.805629 
-1.644985 
0.401913 
-1.209259 
-0.887431 
5.577328 
-0.479725 
-0.629109 
-3.195845 
-0.997732 
-3.209610 
0.768707 
0.119694 
1.056622 
-1.562946 
-0.571461 
-4.053490 
-2.381096 
2.420198 
-2.195877 
-2.210121 
-1.526091 
0.310341 
1.802625 
-0.905867 
1.761949 
-2.039130 
-2.814834 
0.884738 
-0.325370 
1.334381 
-1.182612 
-2.279870 
0.604540 
-2.778083 
-5.067804 
-1.704361 
-0.734289 
-0.687197 
0.805809 
-0.410225 
-0.063519 
-0.395908 
-2.891176 
0.330520 
-2.768395 
-0.852572 
0.080917 
-1.868757 
0.326348 
-0.745416 
-0.687297 
-7.237373 
-0.269302 
1.019425 
1.211015 
-4.357225 
-7.782259 
-2.511153 
0.208781 
-5.525184 
-4.148365 
0.086910 
-2.820835 
-3.608467 
-3.743647 
-6.442254 
0.363750 
-3.489663 
-3.814264 
-0.556258 
-0.248689 
-0.669852 
-0.679267 
