0.222863 
0.005006 
0.139728 
0.552310 
-0.089081 
0.017039 
-0.016492 
0.003664 
0.079627 
-0.024378 
1.333750 
0.557429 
1.103053 
0.073044 
0.102386 
-0.005523 
0.036291 
0.013103 
-0.157918 
0.050486 
-0.002244 
0.056141 
-0.081253 
0.033675 
0.132622 
-0.000147 
0.016165 
0.000519 
0.031810 
0.002355 
-0.001560 
0.009683 
-0.006545 
0.003963 
0.021834 
-0.001430 
0.000394 
0.000097 
0.004183 
-0.001831 
0.039970 
-0.000054 
-0.355130 
-0.000097 
-0.000018 
0.118410 
0.099007 
0.010304 
0.095486 
0.076732 
-0.003341 
-0.020038 
0.014317 
-0.003557 
-0.033371 
-0.002091 
0.009174 
-0.003744 
-0.006495 
0.012469 
0.018474 
-0.000730 
0.010194 
-0.000043 
-0.000021 
0.028406 
-0.000194 
-0.000033 
0.016608 
0.000000 
0.001760 
-0.000009 
0.001931 
-0.000456 
-0.000032 
0.005858 
0.000081 
-0.000251 
0.001706 
0.000457 
0.000006 
-0.030723 
0.000880 
0.009285 
0.015638 
0.000118 
-0.007721 
0.041990 
0.077412 
-0.001085 
-0.001294 
0.001156 
-0.000297 
-0.000098 
-0.002587 
-0.013860 
-0.000056 
-0.001393 
0.003860 
-0.001928 
0.000005 
-0.005396 
-0.000071 
-0.006974 
-0.000000 
0.000010 
-0.000133 
-0.000003 
-0.000003 
-0.000007 
0.000002 
-0.000046 
0.000003 
-0.000000 
0.000015 
-0.000000 
-0.000091 
-0.002975 
-0.000485 
0.000000 
0.000040 
-0.000846 
-0.000003 
-0.001168 
-0.000012 
0.000004 
-0.000002 
-0.000012 
-0.000005 
-0.000002 
0.000000 
-0.000007 
0.000253 
-0.000067 
-0.000159 
-0.000051 
0.000000 
-0.000340 
0.000011 
0.000028 
0.004093 
-0.011355 
-0.008660 
0.000000 
0.004599 
-0.000027 
0.000011 
-0.001000 
-0.000175 
0.000478 
-0.000694 
-0.000498 
-0.008572 
-0.000347 
-0.013314 
-0.000256 
-0.000195 
-0.001421 
-0.000002 
-0.000023 
0.000049 
0.000773 
0.000009 
0.004628 
-0.000015 
0.000007 
0.000002 
0.000016 
0.000009 
-0.000231 
0.000300 
-0.000433 
0.000433 
0.000000 
0.002670 
0.000001 
0.000008 
-0.000145 
-0.003160 
-0.000021 
0.007090 
0.000054 
-0.000001 
0.000001 
0.000000 
0.000026 
0.000017 
0.000685 
-0.003075 
0.000001 
0.000740 
0.000009 
0.000003 
0.000000 
0.000007 
0.000015 
0.000008 
0.000186 
-0.000135 
0.000021 
0.000000 
0.000002 
-0.006614 
-0.003339 
-0.003635 
0.000000 
-0.002426 
-0.000000 
0.000653 
0.007601 
-0.001420 
0.000052 
0.000011 
0.000049 
0.000448 
0.000000 
0.000823 
-0.000015 
-0.000601 
0.000002 
0.000003 
-0.009485 
-0.000595 
-0.003402 
-0.000007 
-0.000834 
-0.000025 
-0.000210 
-0.003138 
0.004521 
0.002200 
0.001666 
-0.000002 
-0.000434 
-0.000165 
-0.000411 
-0.010598 
-0.000653 
0.004611 
-0.000654 
