-0.033829 
-0.087153 
-0.028480 
-0.061199 
-0.021895 
-0.055290 
-0.111029 
-0.053397 
-0.085549 
-0.048610 
0.016710 
-0.018576 
0.022324 
-0.001170 
0.023702 
-0.065283 
-0.123203 
-0.067792 
-0.096698 
-0.057577 
0.000253 
-0.029384 
-0.018541 
-0.020855 
-0.009940 
-0.017417 
-0.006036 
0.041070 
0.000122 
-0.016398 
-0.029812 
-0.048692 
-0.045845 
-0.043556 
-0.036465 
-0.042043 
-0.034117 
0.032976 
-0.035301 
-0.045792 
0.055217 
0.018154 
0.026457 
0.022727 
0.034994 
0.026923 
0.036581 
-0.004159 
0.041553 
0.026973 
-0.021692 
-0.062005 
-0.059924 
-0.058593 
-0.049843 
-0.057218 
-0.045608 
-0.056039 
-0.041782 
-0.056177 
0.011666 
-0.017680 
0.006407 
-0.012076 
0.018843 
0.066251 
0.008577 
0.017000 
0.079404 
-0.006968 
-0.023331 
-0.023091 
-0.019292 
-0.017949 
-0.011723 
-0.001823 
-0.022552 
-0.017440 
0.073685 
-0.042578 
0.046551 
0.028780 
0.045581 
0.033103 
0.059411 
0.108041 
0.045275 
0.053235 
0.048018 
0.051893 
-0.025595 
-0.052253 
-0.033013 
-0.041090 
-0.027493 
0.019180 
-0.036052 
-0.028383 
0.067562 
-0.037090 
0.064817 
-0.046999 
0.000692 
0.111119 
0.040156 
0.053840 
-0.032186 
-0.084224 
0.065716 
-0.042146 
0.081416 
-0.017394 
0.061977 
0.092313 
-0.057601 
0.013593 
0.017489 
-0.061072 
-0.041293 
-0.011359 
-0.000748 
-0.045622 
-0.042561 
0.021407 
0.002698 
0.012796 
-0.055968 
-0.173719 
0.012949 
-0.030835 
0.007676 
-0.016920 
-0.028534 
-0.010169 
0.015479 
-0.046806 
-0.002357 
-0.015018 
0.014109 
-0.036917 
0.102298 
0.030981 
0.068929 
0.175313 
0.080712 
0.115984 
0.017807 
-0.030887 
0.109320 
0.030250 
0.130946 
0.000430 
0.131606 
0.160302 
0.041112 
0.079064 
0.056486 
0.003941 
-0.055336 
-0.068592 
0.032703 
-0.053392 
-0.029177 
0.092006 
0.000613 
0.027121 
-0.074895 
-0.149730 
0.019860 
-0.056510 
0.032063 
-0.045119 
0.021478 
0.068838 
-0.032519 
-0.015857 
-0.020221 
-0.065341 
-0.137436 
-0.072703 
0.063540 
-0.051309 
0.047552 
0.025003 
-0.166517 
-0.634452 
0.015428 
0.054312 
0.011720 
0.059431 
-0.003279 
0.016902 
-0.001819 
0.000027 
0.008511 
-0.043839 
-0.005460 
-0.004952 
-0.023833 
0.019243 
0.157617 
0.015235 
0.112293 
0.096641 
-0.194302 
-0.700766 
0.082892 
0.134539 
0.065590 
0.157139 
0.063954 
-0.035863 
0.024492 
0.008305 
-0.213817 
-0.715488 
-0.003318 
0.040564 
-0.018119 
0.073641 
0.471492 
-0.910413 
-1.047774 
0.243796 
0.233586 
-0.703971 
-0.889406 
0.262036 
0.677815 
-1.378170 
-1.342639 
0.320041 
0.637162 
-1.190448 
-1.256328 
0.329265 
-0.141113 
-0.205433 
-0.122246 
-0.110520 
