0.217345 
-0.037089 
0.118263 
0.713704 
-0.096943 
0.010349 
0.004035 
0.008906 
0.002537 
0.004904 
1.620975 
0.683076 
1.350107 
0.202288 
0.399435 
0.002729 
0.000797 
0.002502 
-0.002938 
0.003510 
-0.004306 
0.073421 
-0.094538 
0.041255 
0.167712 
-0.000252 
0.009135 
0.001034 
0.032759 
-0.004661 
-0.004763 
0.000863 
-0.004898 
0.000255 
0.002002 
-0.002972 
0.003662 
-0.000485 
0.001332 
0.002818 
0.350931 
0.000031 
-0.226955 
0.001259 
-0.000125 
0.236229 
0.089982 
0.021838 
0.085001 
0.073249 
0.000730 
-0.000183 
0.003383 
0.000092 
-0.000293 
-0.003596 
0.002226 
-0.000055 
0.000421 
0.002593 
0.024696 
-0.000980 
0.012586 
-0.000380 
-0.000028 
0.034189 
-0.000241 
-0.000043 
0.015126 
-0.000001 
0.000207 
-0.000166 
0.000147 
-0.001452 
-0.000107 
0.000491 
0.000763 
-0.000550 
0.001946 
0.000766 
0.000009 
-0.013354 
0.000339 
0.095051 
0.050487 
0.000056 
0.005088 
0.027759 
0.031217 
-0.000837 
0.000014 
-0.000045 
0.000059 
0.001014 
-0.003002 
0.000048 
0.000008 
-0.001254 
0.000276 
-0.000192 
0.000005 
-0.004419 
-0.000099 
-0.010622 
-0.000011 
0.000009 
-0.000065 
-0.000001 
-0.000005 
-0.000003 
0.000004 
-0.000015 
0.000002 
-0.000018 
0.000028 
-0.000045 
-0.000122 
-0.003316 
-0.000347 
0.000020 
0.000077 
-0.000086 
-0.000000 
-0.000119 
-0.000069 
0.000004 
0.000001 
-0.000008 
-0.000006 
-0.000001 
0.000000 
-0.000016 
0.000455 
-0.000173 
0.000015 
-0.000176 
0.000002 
-0.000576 
-0.000004 
0.000047 
-0.006700 
-0.005880 
-0.003636 
0.000004 
0.008872 
0.000037 
-0.000008 
-0.009333 
-0.000038 
-0.000019 
0.000012 
0.004854 
-0.000016 
0.008239 
-0.007821 
0.003438 
-0.000456 
-0.000188 
0.000044 
-0.000715 
0.000175 
-0.000074 
-0.000007 
-0.000003 
-0.000103 
0.000005 
-0.000007 
-0.000004 
-0.000010 
-0.000083 
0.000345 
-0.000225 
0.001003 
-0.000015 
0.000763 
-0.000039 
0.000001 
-0.000039 
-0.002083 
-0.000262 
0.006479 
0.000503 
-0.000001 
0.000000 
0.000000 
0.000023 
0.000019 
0.000255 
-0.002267 
0.000013 
0.000010 
0.000143 
0.000003 
0.000001 
0.000012 
0.000008 
0.000077 
0.000063 
-0.000205 
0.000065 
-0.000000 
0.000000 
-0.001318 
-0.000060 
0.000006 
-0.000000 
-0.005313 
-0.000000 
-0.002744 
-0.007415 
-0.000000 
0.000091 
0.000004 
0.000007 
0.000222 
0.000000 
0.000328 
0.000002 
-0.000299 
-0.000003 
-0.000204 
-0.009781 
-0.000234 
-0.002845 
-0.000143 
-0.000651 
-0.000081 
-0.000159 
-0.000008 
-0.006935 
-0.000083 
0.002507 
-0.000040 
-0.000555 
-0.000131 
-0.000395 
-0.006905 
-0.000931 
0.003442 
-0.000857 
