-6.717302 
-3.096291 
-3.465785 
-6.687166 
-6.457299 
-6.668975 
-1.913645 
-1.242321 
-6.831411 
-6.249246 
-6.675543 
-3.713620 
-4.290341 
-6.648133 
-6.501896 
-6.736911 
-2.091886 
-1.357259 
-6.865570 
-6.487471 
2.911739 
-4.795778 
4.390050 
-5.504241 
1.816408 
-5.648337 
0.935362 
-5.521259 
-5.770800 
-4.711973 
2.735064 
-4.863882 
4.256278 
-5.216721 
1.732543 
-5.294693 
1.062407 
-5.835979 
-5.310375 
-4.614574 
2.451489 
-5.372297 
4.071004 
-5.529228 
1.505272 
-5.619178 
0.687621 
-5.254721 
-5.747749 
-5.399041 
2.803945 
-5.325182 
4.248056 
-5.472143 
1.270138 
-5.455025 
0.487232 
-5.193754 
-5.820840 
-5.272031 
4.715994 
2.367752 
-2.948060 
-4.365500 
4.890822 
-4.279608 
0.655618 
-3.265697 
5.110759 
3.848380 
4.582403 
2.525047 
-3.602608 
-2.600410 
4.726874 
-5.470194 
2.397357 
-3.295113 
5.506963 
4.362586 
4.592997 
2.386921 
-3.325896 
-4.122454 
4.733193 
-5.317971 
2.763719 
-2.197309 
4.863416 
4.197295 
3.588150 
1.668404 
-0.645716 
-3.632571 
3.744243 
-3.437207 
-0.348671 
-1.440315 
4.059815 
3.470505 
-3.865949 
-0.637946 
-8.757864 
-5.006137 
1.152488 
-3.024056 
-6.329689 
-2.763766 
-4.999611 
-1.138666 
-11.606286 
-7.245947 
-2.459605 
-2.339273 
-6.806554 
4.652528 
-1.603824 
1.509193 
-2.318194 
5.888472 
-0.592894 
-2.297072 
-0.793216 
-8.377679 
-4.794155 
-5.054298 
0.606269 
-1.637894 
-5.687537 
0.828502 
4.844269 
-9.200313 
-1.562321 
-0.861348 
-9.829025 
3.611181 
-2.033771 
5.357705 
2.220651 
7.509003 
-2.666538 
-0.767593 
-5.954159 
-5.820532 
-0.109744 
-3.766890 
0.317104 
-2.220935 
-5.648270 
0.913979 
-16.481677 
-10.727467 
-2.191272 
-1.571187 
-8.756153 
4.684987 
-1.842466 
3.146624 
-0.649060 
6.520707 
-2.450264 
-1.287219 
-2.298409 
-5.736557 
2.807973 
-1.930654 
0.983332 
1.145892 
-5.713895 
1.698492 
0.716258 
-12.055698 
-0.745702 
-1.363354 
-10.582149 
3.917503 
-1.951194 
4.643424 
-3.781398 
8.154097 
2.243996 
7.788432 
-4.842223 
-3.397075 
7.966632 
9.577355 
-1.783042 
3.494570 
-11.189052 
4.915201 
7.723908 
11.490297 
-6.435975 
5.053397 
11.046844 
12.872915 
2.556419 
9.213675 
-11.441293 
3.230903 
11.340864 
9.226730 
-4.206245 
-3.571998 
8.872522 
8.720198 
-5.121102 
3.687121 
-10.803351 
8.571802 
6.857650 
10.565992 
-4.546171 
12.058109 
9.925851 
-2.407049 
2.662601 
8.556835 
-13.664716 
4.281210 
8.483739 
-18.064673 
-6.267351 
-1.987029 
13.013926 
-17.107215 
-8.344778 
-5.672319 
9.164342 
-17.475395 
-6.588059 
-6.203543 
12.968374 
-18.550836 
-6.599941 
2.029690 
1.179351 
1.303445 
1.246047 
1.224374 
