2.743099 
2.603753 
2.878745 
-2.292012 
4.608554 
2.607730 
2.638511 
2.812229 
-2.010574 
4.914149 
2.845236 
2.396150 
2.918270 
-2.477633 
4.893164 
2.883032 
2.562512 
2.989044 
-2.151493 
5.152634 
-4.346019 
-3.014135 
2.594875 
-3.106167 
-3.476803 
-3.043453 
-4.440019 
-2.920303 
-4.001784 
-4.208100 
-4.379276 
-3.755319 
3.007805 
-4.371666 
-4.210145 
-2.183977 
-4.696058 
-2.607155 
-3.831132 
-4.366988 
-4.905037 
-3.557388 
2.495854 
-3.806472 
-3.112406 
-2.282255 
-4.875165 
-3.578158 
-4.016493 
-4.597430 
-4.677296 
-3.584985 
2.619371 
-3.265383 
-4.304903 
-2.827564 
-4.545863 
-5.003456 
-4.102219 
-4.092334 
-3.835830 
2.698314 
-5.260727 
-3.662500 
-1.850272 
-4.245245 
-2.843325 
-1.248165 
-5.653498 
0.071880 
-3.843544 
2.136935 
-4.043697 
-3.607119 
-1.959836 
-4.251208 
-1.426138 
-1.020463 
-4.764813 
2.286079 
-3.461052 
2.849006 
-2.095452 
-3.374038 
-1.638935 
-2.874635 
-1.805521 
-0.466563 
-5.523441 
1.117821 
-2.994916 
3.968820 
-1.635063 
-4.459383 
0.073471 
-2.720769 
-5.372478 
-0.005768 
-8.078988 
-0.961094 
0.818339 
4.219854 
0.663189 
2.416759 
3.510415 
-4.095855 
1.316760 
1.400535 
7.971276 
1.642106 
4.811142 
-2.202004 
2.190077 
-3.903082 
-0.202699 
-4.447551 
1.988848 
2.331916 
-5.651960 
4.633553 
1.124339 
1.117228 
1.454083 
0.477804 
2.774999 
-4.658772 
-1.488964 
2.685041 
8.729706 
-2.990109 
4.673592 
4.459365 
0.043782 
-4.661758 
0.661993 
-4.797088 
1.290423 
1.831081 
-7.510293 
-1.604852 
0.491479 
2.636999 
1.198425 
1.590944 
1.063061 
-6.074574 
0.321046 
-2.315189 
3.749405 
6.744861 
5.373813 
3.408098 
1.381680 
-3.690524 
-2.408700 
-2.692129 
1.144997 
2.178972 
-6.349410 
5.371150 
4.548794 
1.899439 
0.093177 
1.490933 
0.689891 
-5.211346 
-0.642934 
3.644396 
4.802254 
-1.084245 
4.897831 
4.411287 
0.747513 
-2.899425 
1.281365 
-2.860613 
0.713120 
0.369112 
-6.093349 
5.333953 
8.863797 
12.447764 
-2.573284 
-9.866627 
3.277832 
3.760823 
-8.744510 
2.769600 
1.389831 
8.043792 
5.317670 
11.280432 
-2.389047 
-9.653688 
4.170674 
1.935922 
-5.450351 
1.048987 
0.892532 
10.128693 
3.953675 
10.834647 
2.862997 
-0.030191 
7.015190 
-5.278057 
-5.882316 
3.421925 
0.514214 
10.416903 
7.948692 
11.368004 
-5.228546 
-9.060840 
4.990810 
2.732548 
-6.613514 
3.105014 
0.241210 
9.363462 
0.916397 
-2.741737 
-1.405788 
-1.528194 
0.135284 
-1.302594 
-1.120284 
-2.332885 
-0.777159 
-1.939315 
0.095358 
-1.989694 
0.577839 
-1.579307 
-1.814436 
-1.237684 
-5.123173 
-5.894246 
-6.093095 
-6.136967 
