0.283011 
0.100492 
0.213774 
0.281066 
-0.084576 
-0.020295 
-0.028929 
-0.024625 
0.012549 
-0.021910 
0.287425 
0.126235 
0.238505 
-0.005901 
0.038431 
0.011887 
0.005462 
0.010151 
-0.005430 
-0.000656 
-0.000513 
0.023568 
-0.071533 
0.021932 
0.080176 
-0.000176 
0.036126 
0.000002 
0.028280 
0.022073 
-0.011137 
0.003009 
0.000298 
0.001193 
0.005532 
-0.002101 
-0.001037 
0.001450 
-0.001039 
-0.002017 
0.000143 
-0.000158 
-0.073020 
-0.000278 
-0.000115 
0.018404 
0.032933 
-0.007967 
0.018015 
0.026265 
-0.003823 
-0.000927 
-0.002043 
0.000576 
0.000163 
-0.002942 
0.004059 
0.000056 
0.000255 
0.003224 
0.011244 
-0.000853 
0.004027 
-0.000042 
-0.000022 
0.020110 
-0.000113 
-0.000040 
0.023505 
0.000001 
0.000030 
0.000096 
0.000652 
-0.003660 
-0.000043 
0.001994 
0.000009 
-0.000232 
-0.000161 
0.000621 
0.000001 
-0.002166 
0.000706 
0.000003 
0.002653 
0.000124 
0.004866 
0.005588 
0.018052 
-0.000541 
0.000013 
-0.000186 
0.000332 
-0.000496 
-0.001774 
0.000386 
-0.000016 
-0.000607 
0.002361 
-0.000361 
0.000005 
-0.007489 
0.000002 
-0.000124 
-0.000000 
0.000017 
-0.000018 
0.000000 
-0.000004 
-0.000010 
-0.000000 
-0.000025 
0.000009 
-0.000003 
0.000008 
-0.000000 
-0.000011 
-0.006184 
-0.000258 
0.000000 
-0.000011 
-0.000240 
0.000008 
-0.000409 
-0.000112 
-0.000003 
0.000011 
-0.000045 
-0.000009 
-0.000078 
0.000000 
-0.000048 
0.000205 
-0.000259 
0.000023 
-0.000428 
0.000002 
0.000041 
-0.000001 
0.000284 
-0.000058 
-0.004440 
-0.000650 
0.000019 
-0.000004 
-0.000002 
0.000042 
0.000044 
-0.000026 
0.000008 
-0.000169 
0.000150 
-0.001440 
0.000000 
-0.000004 
0.000006 
0.000007 
-0.000251 
0.000017 
0.000001 
0.000076 
-0.000303 
-0.000003 
0.000008 
-0.000016 
-0.000002 
0.000018 
0.000029 
0.000002 
-0.000317 
0.000083 
-0.000398 
0.000363 
-0.000018 
0.001809 
-0.000025 
0.000001 
-0.000452 
-0.001082 
0.000018 
0.003721 
0.000209 
-0.000002 
0.000003 
0.000000 
0.000081 
0.000016 
0.000686 
-0.004905 
0.000000 
0.000189 
0.000001 
0.000045 
0.000000 
0.000017 
0.000010 
0.000020 
0.000159 
-0.000072 
0.000150 
-0.000002 
0.000008 
-0.002201 
-0.000003 
-0.000002 
0.000000 
-0.000003 
-0.000006 
-0.000091 
-0.000008 
0.000004 
0.000021 
0.000010 
0.000018 
0.000218 
0.000000 
0.000630 
-0.000000 
-0.000484 
0.000010 
0.000017 
-0.008766 
-0.001884 
-0.001404 
-0.000000 
-0.000807 
-0.000017 
-0.000024 
-0.000846 
-0.002949 
-0.000980 
-0.000657 
-0.000003 
-0.001611 
-0.000064 
-0.000570 
-0.009999 
-0.000896 
-0.002032 
-0.001624 
