0.171469 
0.016088 
0.001173 
-0.009670 
-0.009043 
-0.000255 
-0.000000 
0.068720 
0.057177 
0.067895 
0.000000 
0.000000 
0.000000 
0.000000 
0.000000 
0.000000 
0.000000 
0.000000 
0.000000 
0.000000 
0.022886 
0.005404 
0.005141 
-0.048484 
-0.081972 
0.000284 
0.000058 
0.017468 
0.031007 
0.000072 
-0.003002 
0.005434 
0.002837 
-0.002781 
0.001064 
0.002395 
0.000775 
-0.000000 
0.005087 
0.001910 
0.014289 
0.000553 
0.000418 
-0.000003 
0.001347 
0.009265 
0.000072 
0.008175 
0.000390 
-0.003257 
-0.013009 
-0.002674 
-0.011007 
-0.008048 
0.001027 
0.008555 
-0.001186 
-0.018702 
-0.002749 
0.016730 
-0.021196 
-0.003463 
-0.000647 
-0.000990 
-0.000361 
-0.001059 
-0.001362 
-0.001997 
-0.000546 
-0.000013 
0.026554 
0.000876 
0.000093 
0.002012 
-0.001513 
0.000061 
-0.000164 
-0.000143 
0.000106 
-0.000314 
0.000138 
-0.021490 
0.009566 
-0.000000 
-0.000000 
0.007300 
0.000000 
-0.011913 
0.005994 
-0.000000 
0.000996 
0.017842 
-0.011703 
-0.000000 
-0.000000 
-0.004735 
0.000000 
0.001217 
0.023005 
-0.000000 
-0.000029 
0.000000 
-0.000525 
-0.000000 
-0.000185 
-0.000000 
0.000000 
-0.000000 
-0.000337 
-0.000246 
0.000000 
0.000000 
-0.000076 
-0.000000 
0.000000 
-0.000000 
-0.000000 
0.000000 
-0.000790 
0.000000 
-0.000413 
0.000003 
-0.001931 
-0.007255 
-0.004966 
0.000002 
0.000000 
0.000248 
0.000177 
-0.000008 
-0.000434 
-0.000000 
-0.000128 
0.000002 
-0.003388 
0.000035 
0.000000 
-0.000088 
0.001678 
-0.000891 
0.002854 
0.000207 
-0.000063 
-0.000350 
0.000557 
0.000041 
-0.000000 
-0.000271 
0.000740 
-0.000284 
-0.000017 
-0.000000 
-0.005337 
0.000197 
-0.000159 
-0.000017 
0.001730 
-0.006384 
-0.004684 
0.000000 
0.000634 
0.000508 
0.000000 
0.000266 
0.000000 
0.000479 
-0.000000 
0.005517 
0.006216 
-0.000081 
0.000347 
-0.000001 
0.000000 
0.000763 
0.000059 
0.016237 
-0.003788 
-0.000786 
0.004571 
-0.001139 
0.000367 
0.000007 
-0.000561 
-0.000013 
0.000161 
-0.000075 
0.000519 
-0.000264 
-0.000573 
-0.000950 
-0.000000 
0.000088 
0.000000 
-0.000000 
-0.000000 
-0.006605 
0.000000 
-0.000000 
-0.000000 
0.000978 
-0.000919 
-0.000038 
-0.000412 
-0.000205 
-0.000169 
-0.004981 
0.000040 
0.000287 
-0.000027 
-0.000208 
-0.000000 
0.009637 
0.000000 
-0.000000 
-0.000000 
-0.000008 
-0.017613 
-0.000000 
-0.000000 
-0.000000 
-0.000000 
0.000000 
0.000141 
-0.000737 
0.005650 
-0.002693 
0.000026 
-0.000891 
-0.000000 
0.000000 
-0.000648 
0.001249 
-0.000247 
0.000574 
-0.000000 
-0.000004 
0.007682 
-0.021788 
0.006414 
-0.053726 
