2.714042 
2.612492 
2.765943 
-2.802437 
8.439504 
2.821299 
2.615412 
2.892824 
-2.345816 
8.597494 
3.073728 
2.145360 
2.928530 
-3.378169 
9.042196 
2.719053 
2.720739 
2.892311 
-2.520706 
8.973791 
-7.039340 
-3.815601 
3.500900 
-2.907279 
-4.004825 
-2.675475 
-5.663367 
-2.914939 
-5.096702 
-4.808175 
-7.368044 
-4.599223 
3.898843 
-4.525413 
-5.043443 
-2.560128 
-6.126524 
-4.496717 
-5.150598 
-5.299464 
-7.773850 
-3.931362 
3.692285 
-3.841402 
-2.807423 
-1.620726 
-6.770887 
-4.839279 
-5.470060 
-6.179310 
-7.928204 
-3.981995 
3.871552 
-4.229118 
-4.853622 
-2.517202 
-5.451259 
-8.314190 
-4.657005 
-4.612860 
-3.697082 
1.483945 
-9.274327 
-7.002917 
-1.244406 
-5.144733 
-1.280404 
-0.939733 
-6.400548 
4.567693 
-3.397023 
2.000691 
-8.953935 
-8.305122 
-3.109352 
-4.652911 
-3.100790 
-1.132653 
-6.764136 
6.029279 
-2.251685 
0.607606 
-1.448445 
-7.661686 
-2.923262 
-2.181044 
-2.786801 
-0.650167 
-6.639457 
7.049035 
-2.753843 
3.571379 
-1.930075 
-9.075978 
0.844604 
-3.124535 
-8.182266 
-0.553326 
-10.252720 
2.886752 
4.839273 
8.623332 
-0.028689 
7.905216 
-4.029775 
-11.627269 
0.510491 
2.249140 
7.511115 
6.557896 
9.647776 
-5.759210 
7.999869 
-8.488940 
-1.720200 
-10.333407 
2.120236 
-2.711553 
-1.782596 
6.545496 
5.176048 
6.070984 
0.750018 
5.752181 
-6.690054 
-14.801701 
-0.376777 
3.755914 
12.698482 
-2.704125 
4.743033 
-0.049226 
4.303365 
-9.067532 
-4.210416 
-11.417579 
1.361310 
-3.745014 
-1.033895 
5.270500 
4.268034 
6.283723 
4.011635 
7.705284 
-1.272791 
-13.052044 
-4.354301 
-3.091431 
1.533194 
9.261427 
3.423860 
1.351379 
2.820500 
-6.559609 
-3.139938 
-7.084726 
5.361878 
-1.676212 
-7.806896 
7.120267 
11.082446 
3.435096 
-1.005424 
7.939886 
-4.928549 
-15.316592 
-5.869484 
5.257861 
4.921159 
3.110814 
2.232905 
3.211185 
4.659674 
-6.338579 
-3.977582 
-7.366409 
-1.893580 
-6.654483 
-3.310148 
7.964915 
6.597830 
23.086745 
-9.246385 
-10.348940 
2.670319 
4.790820 
-13.596631 
5.375035 
-0.316807 
18.930004 
3.806410 
19.889008 
-6.496386 
-8.000833 
3.658328 
5.326696 
-8.424307 
5.796140 
0.500444 
22.110816 
3.998585 
21.197753 
0.809832 
0.559668 
8.303613 
3.426569 
-12.437316 
5.753679 
-1.546835 
23.770884 
7.824953 
20.355494 
-10.273880 
-11.669776 
0.770026 
3.563981 
-12.816473 
6.353702 
-1.095840 
16.844791 
0.453369 
-1.307804 
-0.884806 
-1.096212 
0.225181 
-1.310302 
-2.188883 
-1.899815 
-1.194956 
-1.048668 
0.370305 
-0.967030 
0.645251 
-2.106344 
-1.802442 
-0.544883 
-5.130310 
-5.549349 
-6.512765 
-5.168433 
