2.711362 
2.652252 
2.786220 
-2.764081 
8.237909 
2.805289 
2.629666 
2.891818 
-2.376016 
8.385800 
3.071663 
2.168398 
2.937602 
-3.300762 
8.823840 
2.705745 
2.766903 
2.909316 
-2.488564 
8.757103 
-6.760880 
-3.764332 
3.536351 
-2.981957 
-3.910295 
-2.715691 
-5.653578 
-2.944668 
-5.135539 
-4.831870 
-7.020490 
-4.494410 
3.822571 
-4.597873 
-4.956158 
-2.506673 
-6.039923 
-4.398008 
-5.093434 
-5.221458 
-7.518777 
-3.897001 
3.649301 
-3.902393 
-2.817040 
-1.705262 
-6.785085 
-4.867600 
-5.340521 
-6.233175 
-7.633042 
-4.062186 
3.836205 
-4.295912 
-4.794505 
-2.611244 
-5.472381 
-8.296408 
-4.665667 
-4.650821 
-3.748370 
1.494408 
-9.095754 
-6.686114 
-1.301890 
-5.043112 
-1.302913 
-0.989910 
-6.392118 
4.475466 
-3.366184 
1.837277 
-8.809537 
-7.860444 
-2.916268 
-4.551439 
-2.914870 
-1.135797 
-6.844979 
6.013121 
-2.288897 
0.739335 
-1.521828 
-7.142724 
-2.761853 
-2.276543 
-2.498988 
-0.660609 
-6.581826 
7.125268 
-2.899466 
3.708562 
-2.238116 
-8.615319 
0.770945 
-3.089896 
-8.029852 
-0.473187 
-10.382302 
2.897725 
4.369647 
8.321509 
-0.505187 
7.498907 
-3.498269 
-10.911375 
0.246061 
2.467774 
7.229648 
6.498777 
9.523217 
-5.459812 
7.943632 
-7.790195 
-1.778161 
-9.958638 
1.709436 
-1.929858 
-2.171837 
6.212352 
5.135843 
5.595578 
0.474052 
5.228701 
-5.628649 
-14.145097 
-0.664727 
3.726549 
12.624255 
-2.612403 
4.138000 
0.535003 
4.240237 
-8.811478 
-4.003354 
-10.922684 
1.445514 
-3.200170 
-1.561026 
4.616646 
3.524181 
6.205321 
3.754953 
7.199700 
-1.025811 
-12.445012 
-3.819313 
-3.150814 
1.404988 
9.270284 
3.326133 
1.608425 
2.683710 
-6.138683 
-3.056287 
-6.481860 
5.164168 
-1.093443 
-7.944215 
6.859928 
10.502372 
3.480792 
-0.664351 
7.551178 
-3.929223 
-14.922706 
-5.602549 
5.355305 
4.410364 
3.148948 
2.246138 
3.018127 
4.610671 
-5.660097 
-3.674750 
-6.787239 
-1.796314 
-6.081514 
-3.392112 
7.667841 
7.006946 
22.254221 
-8.863666 
-10.223243 
2.817346 
4.673136 
-13.095440 
5.409294 
-0.235951 
18.050707 
4.292220 
18.976079 
-6.618644 
-8.221406 
3.472865 
4.994762 
-8.087627 
5.680869 
0.582148 
21.010905 
3.473362 
20.487813 
0.963940 
0.668919 
8.216121 
2.475727 
-12.383863 
5.599066 
-1.354557 
23.463614 
7.829675 
19.760811 
-9.632666 
-11.471329 
0.826796 
3.373646 
-12.725524 
6.523709 
-1.009867 
16.755916 
0.354437 
-1.479931 
-0.558553 
-0.894882 
-0.243741 
-1.467411 
-1.826839 
-1.647874 
-0.757129 
-0.999769 
0.161900 
-1.072373 
1.085604 
-2.216847 
-1.768906 
-0.661402 
-5.189237 
-5.386248 
-6.502690 
-5.273582 
