0.172903 
0.074835 
0.147994 
0.079441 
0.003092 
-0.006773 
-0.011268 
-0.009971 
0.024106 
-0.000613 
0.276775 
0.120112 
0.247039 
0.024107 
0.026127 
0.058571 
0.020938 
0.047966 
0.014985 
-0.023350 
0.008483 
0.001397 
-0.036542 
0.008906 
0.012121 
0.000645 
0.028314 
0.003607 
0.018958 
0.018197 
-0.000388 
0.002747 
0.007405 
0.001805 
0.005323 
-0.003363 
0.000488 
-0.001391 
-0.000969 
0.000201 
0.022562 
-0.003920 
-0.066121 
-0.001337 
-0.003319 
0.006993 
0.037209 
0.002659 
0.027193 
0.029416 
0.008742 
-0.000758 
-0.001734 
0.002419 
-0.001266 
0.010439 
0.006488 
0.001680 
0.010253 
0.005707 
0.005282 
-0.000972 
0.004139 
-0.000152 
-0.000064 
0.005598 
0.000186 
-0.000038 
0.032470 
0.000023 
0.001299 
0.003957 
0.000718 
-0.000680 
0.000132 
0.001450 
0.000988 
-0.000064 
0.000767 
0.000164 
-0.000014 
-0.012482 
0.000903 
0.000664 
0.000963 
0.000020 
0.008488 
0.000907 
0.024783 
-0.000234 
0.000200 
-0.000826 
0.001095 
0.007779 
-0.004200 
0.000677 
-0.000798 
0.000820 
0.002795 
-0.006185 
0.000016 
-0.005763 
-0.000997 
-0.000607 
-0.000007 
0.001609 
-0.000016 
0.000025 
-0.000015 
-0.000009 
0.000007 
-0.000005 
0.000006 
-0.000000 
0.000044 
-0.000000 
-0.002510 
-0.005957 
0.001272 
0.000000 
-0.000332 
-0.000054 
-0.000388 
-0.000676 
-0.000000 
-0.000022 
0.000128 
0.000075 
0.000007 
-0.000224 
-0.000006 
-0.000433 
-0.000045 
-0.000041 
0.000023 
-0.000096 
0.000359 
0.000126 
0.000121 
-0.000000 
-0.000038 
-0.003235 
-0.002126 
0.000018 
0.000042 
-0.000003 
-0.000019 
-0.000008 
0.000039 
0.000019 
-0.000005 
0.000053 
-0.000258 
0.000067 
-0.000100 
0.000011 
-0.001898 
-0.004074 
0.001056 
-0.000071 
0.001011 
-0.000671 
-0.000289 
0.000011 
0.000091 
0.000113 
-0.000008 
0.001776 
0.000085 
0.000358 
0.002387 
0.000276 
-0.001439 
0.000479 
0.001503 
0.000507 
-0.000329 
-0.001098 
-0.003662 
-0.000277 
0.000032 
0.000911 
-0.000000 
0.000014 
-0.000003 
0.000348 
0.000007 
0.000143 
-0.003792 
0.000011 
0.000229 
-0.000039 
0.000329 
0.000000 
0.000017 
0.000056 
-0.000019 
-0.000005 
-0.000305 
0.000030 
-0.000003 
0.000001 
-0.001152 
-0.000033 
-0.000019 
0.000000 
-0.000032 
-0.000001 
-0.003179 
0.000006 
-0.000000 
0.000231 
0.000232 
-0.000103 
0.001032 
0.000000 
-0.001021 
0.000000 
-0.000478 
-0.000299 
-0.000581 
-0.002195 
-0.000545 
-0.002645 
-0.000687 
-0.000577 
-0.000204 
-0.000156 
-0.000762 
-0.002522 
-0.000333 
-0.002029 
-0.000001 
-0.000659 
-0.000554 
-0.000353 
-0.004187 
-0.001306 
-0.003010 
-0.000907 
