2.719818 
2.338916 
2.644658 
-2.556459 
8.890791 
2.736207 
2.459662 
2.741237 
-2.077306 
8.969700 
2.957017 
1.917599 
2.748085 
-3.304299 
9.291289 
2.699253 
2.447299 
2.747637 
-2.404077 
9.344124 
-8.181403 
-3.795028 
3.680005 
-2.096177 
-4.021307 
-2.761798 
-6.032449 
-2.607351 
-5.347147 
-5.116787 
-8.734140 
-4.558214 
4.153569 
-4.215655 
-5.117042 
-2.645395 
-6.229624 
-4.496052 
-5.350237 
-5.396888 
-8.423477 
-3.450130 
3.762299 
-3.420462 
-2.586013 
-1.350261 
-6.536123 
-4.695287 
-6.112880 
-5.918722 
-9.131158 
-3.715028 
4.189148 
-4.002072 
-4.755074 
-2.312442 
-5.674507 
-7.898935 
-4.788577 
-4.627840 
-3.599243 
2.155834 
-9.683383 
-8.510790 
-1.655719 
-5.518142 
-1.872944 
-1.019417 
-6.436004 
4.732255 
-3.261225 
2.436849 
-9.143790 
-9.988118 
-3.848253 
-4.769374 
-4.179072 
-0.932249 
-6.586873 
5.850093 
-1.944324 
0.475679 
-1.279682 
-9.582240 
-3.351132 
-1.884388 
-3.912603 
-0.946594 
-6.506136 
6.656758 
-1.941500 
3.957058 
-1.788589 
-11.128838 
1.176158 
-3.066970 
-9.447707 
-1.096469 
-10.437958 
2.901662 
6.303974 
9.663640 
-0.082535 
8.915541 
-4.986836 
-13.133005 
1.597876 
2.186156 
9.582274 
6.343019 
10.021843 
-5.186417 
7.382667 
-10.837216 
-1.817704 
-12.262466 
2.340908 
-4.908147 
0.539189 
7.424254 
5.918064 
6.896469 
1.871657 
6.772597 
-8.131891 
-15.771219 
0.726541 
1.881895 
13.955490 
-3.169139 
6.304429 
-0.558011 
3.980077 
-11.266222 
-5.407233 
-13.130479 
2.877853 
-5.229192 
1.319114 
7.514346 
7.026873 
6.656572 
3.430080 
8.829343 
-2.594175 
-15.316311 
-6.480126 
-2.285230 
2.275523 
9.117006 
5.435825 
1.889713 
3.026643 
-8.485513 
-4.015295 
-9.593075 
6.313725 
-3.511818 
-6.819236 
7.608123 
12.695423 
4.234864 
-0.798201 
9.470064 
-6.842090 
-17.989970 
-7.388411 
4.742304 
3.918265 
4.466521 
2.912270 
2.965031 
3.977920 
-8.832034 
-5.336842 
-9.300471 
-1.223030 
-8.123548 
-2.439868 
8.824873 
5.300187 
25.559975 
-10.797687 
-12.275439 
1.179349 
5.446097 
-15.768595 
4.667255 
-1.689519 
21.689226 
3.888481 
23.251917 
-6.670826 
-7.093857 
4.499903 
7.004232 
-10.346022 
5.756452 
0.005010 
25.623844 
5.898391 
23.640578 
0.153986 
0.301209 
9.287434 
8.319363 
-13.563958 
6.453602 
-2.271351 
26.062690 
7.945982 
23.456907 
-10.760289 
-11.834871 
1.870459 
4.698201 
-13.727657 
5.278595 
-1.678546 
17.645323 
0.301261 
-0.928149 
-1.558483 
-0.945846 
-0.617252 
-1.281014 
-2.657515 
-1.717812 
-1.573456 
-0.983507 
-0.042966 
-1.316001 
0.404583 
-1.612851 
-0.970909 
-1.239563 
-5.258454 
-5.068234 
-6.230134 
-5.156193 
