0.580300 
-0.002426 
-0.001506 
1.174063 
2.160569 
0.249651 
-0.001214 
-0.002221 
0.225223 
0.249062 
0.102416 
0.000206 
0.000090 
-0.015030 
0.058769 
-0.128057 
-0.001833 
-0.003340 
0.086407 
0.335551 
-0.036458 
0.122342 
-0.159589 
0.058509 
-0.707155 
0.010632 
-0.264955 
0.175140 
-0.001835 
0.093611 
-0.009828 
0.030634 
-0.067729 
0.021764 
-0.041115 
0.017699 
-0.019467 
0.021207 
0.016080 
0.023532 
-0.002859 
0.030134 
0.051817 
-0.006802 
0.022921 
0.009019 
0.032232 
-0.025558 
0.013027 
0.040794 
-0.003610 
0.023185 
0.018112 
-0.016922 
-0.141237 
-0.021968 
-0.064598 
-0.002060 
-0.018816 
0.030196 
-0.000000 
0.198631 
-0.004258 
0.019035 
-0.000000 
0.012369 
0.004018 
0.012488 
-0.198339 
-0.154580 
0.000000 
0.002108 
0.015189 
0.004321 
0.000000 
0.005079 
-0.005457 
0.003224 
-0.008391 
-0.013537 
0.000000 
0.100591 
-0.044917 
0.017531 
-0.000000 
0.000229 
0.028623 
0.044876 
-0.000102 
-0.000235 
-0.000000 
0.051996 
-0.005384 
0.001383 
-0.000000 
0.001801 
0.005413 
0.014612 
0.001357 
-0.000837 
-0.001163 
-0.000286 
0.000000 
-0.004040 
-0.014037 
0.036190 
-0.000020 
-0.000004 
-0.052768 
-0.000274 
-0.000339 
0.042731 
0.004537 
0.000000 
0.011483 
-0.002226 
-0.000000 
-0.000027 
0.000138 
0.000225 
-0.004945 
0.000020 
-0.000000 
0.001249 
-0.000001 
-0.007254 
-0.001158 
-0.000089 
-0.002537 
-0.000009 
0.007009 
-0.000002 
0.005510 
-0.000000 
0.000001 
-0.001309 
0.000000 
-0.000010 
0.000630 
-0.004637 
0.009940 
0.024028 
0.000000 
0.014093 
0.016505 
0.143994 
0.020332 
-0.000181 
0.128541 
0.009721 
0.000101 
0.000000 
0.044248 
-0.000000 
-0.000000 
0.001139 
0.000000 
-0.000002 
-0.002281 
0.000428 
-0.000767 
-0.010774 
0.000000 
-0.000012 
-0.000050 
0.001562 
-0.005297 
0.000036 
-0.053216 
-0.014821 
-0.000692 
-0.000009 
-0.000894 
0.000000 
-0.000004 
-0.000745 
-0.000000 
-0.000322 
0.000001 
-0.000231 
-0.000359 
-0.015099 
0.000014 
0.014144 
-0.000601 
-0.002073 
-0.000170 
0.000012 
-0.003335 
-0.000010 
0.001168 
-0.000900 
0.000290 
-0.001743 
-0.002341 
0.001157 
0.007882 
-0.001545 
0.000061 
0.000166 
-0.001817 
-0.000218 
0.001895 
0.053104 
0.000002 
-0.055986 
0.014674 
-0.000010 
0.011082 
-0.013372 
0.000096 
0.001861 
-0.009147 
0.026334 
0.002431 
0.000855 
0.000452 
0.000443 
-0.000020 
0.000026 
0.001015 
0.017660 
0.009832 
-0.000019 
-0.001749 
0.000538 
-0.005870 
-0.000463 
-0.002611 
0.015532 
0.032381 
-0.000014 
0.000190 
-0.008417 
0.000566 
0.000231 
-0.012126 
0.001492 
-0.015674 
0.004186 
