0.014908 
0.036918 
-0.105512 
0.058274 
-0.094043 
-0.059876 
-0.025729 
-0.278517 
0.025000 
-0.209264 
-0.037553 
-0.070305 
0.018629 
-0.074620 
0.055604 
-0.231326 
-0.225114 
-0.563449 
-0.191053 
-0.437697 
0.100872 
-0.014063 
0.014159 
0.055549 
0.098408 
0.101657 
-0.090047 
-0.061317 
0.128073 
0.090557 
0.144334 
-0.087129 
-0.072908 
-0.058490 
0.103570 
0.090106 
-0.040435 
-0.024803 
0.209345 
0.044086 
-0.146577 
0.124098 
-0.241724 
-0.274782 
-0.233896 
0.008765 
0.180218 
0.277196 
0.185389 
-0.019536 
-0.042230 
-0.311327 
-0.240543 
-0.277965 
-0.088942 
-0.048070 
-0.283480 
-0.063917 
0.138457 
-0.203967 
0.026586 
0.100998 
-0.009448 
-0.643814 
-0.004345 
-0.162039 
0.055893 
0.026617 
-0.052967 
0.028913 
0.209031 
0.146733 
-0.115468 
-0.378634 
0.194444 
-0.311550 
0.208657 
0.262455 
-0.131886 
0.023763 
-0.032545 
-0.035058 
0.359875 
-0.535454 
0.014157 
0.239152 
0.023955 
-0.418860 
0.210220 
-0.107074 
0.331289 
0.096146 
-0.563647 
-0.214601 
0.566767 
-0.076651 
0.236549 
0.463685 
-0.395608 
0.124564 
0.081962 
-0.023400 
0.218715 
-0.317292 
0.025711 
-0.413217 
-0.004618 
-0.099478 
0.187446 
-0.589494 
-0.283887 
-0.051097 
-0.209597 
0.139860 
-0.017670 
0.004569 
-0.218455 
0.050786 
-0.515794 
0.203700 
0.433401 
0.440487 
0.133552 
-0.876906 
0.376528 
-0.982081 
-0.616035 
-0.191122 
0.453570 
-0.851266 
-0.754889 
0.321133 
0.459716 
-0.135245 
0.010336 
-0.040934 
-0.308008 
0.260344 
-0.395351 
0.222548 
0.033198 
-0.671286 
0.184017 
0.519915 
0.015286 
-0.192613 
0.728678 
0.566750 
0.097234 
-0.462941 
0.437242 
-0.163217 
-0.779365 
0.525956 
0.606615 
0.448463 
0.639287 
0.172182 
-0.298749 
0.053065 
0.632127 
0.345364 
0.088640 
-1.141486 
0.706425 
-1.094936 
-0.814796 
-0.324380 
0.547683 
-0.903548 
-0.530037 
0.410953 
0.355320 
-0.279105 
-0.246221 
-0.007155 
-0.297133 
0.153534 
-0.512029 
0.360290 
0.138137 
-0.512764 
-0.498458 
0.278314 
0.092217 
0.144858 
-0.560986 
-0.156691 
-0.303759 
-0.593351 
0.297847 
-0.912084 
-0.929098 
0.273836 
0.316000 
0.191841 
-0.851988 
-0.236144 
-0.548980 
-0.824067 
-0.087924 
-0.471541 
-0.465989 
0.274766 
-0.129928 
0.039346 
-0.451063 
0.459146 
-0.056626 
-0.443220 
0.346739 
-1.037183 
-1.040539 
0.126930 
0.443225 
-0.592682 
-0.965362 
-1.349761 
-1.061163 
-0.880852 
-0.080562 
0.225382 
-1.988771 
-0.305209 
-0.261124 
0.365997 
-2.692884 
-0.627421 
-0.056835 
-0.236366 
-2.433210 
-0.042612 
-0.345878 
0.513496 
-3.334592 
-0.841124 
-0.015670 
-0.053042 
-0.057861 
0.080495 
