1.331971 
0.489567 
1.066185 
0.475286 
0.016851 
1.124284 
0.403142 
0.897999 
0.492872 
0.039823 
0.003201 
0.007551 
-0.082890 
0.006011 
0.020824 
0.014290 
0.029995 
0.000638 
0.024626 
0.022149 
0.001209 
0.005074 
-0.041696 
0.004300 
0.014405 
0.007239 
0.014892 
0.000174 
0.012689 
0.010781 
0.002588 
0.006231 
-0.069613 
0.005202 
0.017612 
0.012485 
0.025003 
0.000511 
0.020660 
0.018485 
0.000674 
0.024317 
-0.068761 
0.017951 
0.064342 
0.003561 
0.025471 
-0.001679 
0.023540 
0.016249 
0.006008 
0.000291 
-0.128725 
0.000549 
0.001406 
0.057239 
0.019524 
0.004949 
0.032935 
0.014422 
0.018651 
-0.030157 
0.012551 
0.002363 
0.011723 
0.020136 
-0.008431 
0.034965 
0.099430 
-0.001774 
0.008549 
0.000189 
0.005094 
0.000028 
0.000002 
0.009240 
0.000003 
0.000004 
0.006323 
-0.000000 
0.003236 
-0.008388 
0.002066 
0.007077 
0.007047 
0.003720 
-0.006023 
0.023252 
0.022709 
-0.001870 
0.008902 
-0.000131 
0.005140 
0.000034 
0.000010 
0.011798 
0.000023 
0.000027 
0.007587 
-0.000001 
0.009875 
-0.000010 
0.005675 
0.000018 
0.000000 
0.012897 
0.000001 
0.000001 
0.004978 
-0.000000 
0.018944 
-0.029769 
0.012653 
0.006241 
0.005210 
0.020511 
0.003550 
0.014839 
0.098446 
-0.000542 
0.002647 
-0.014931 
0.002478 
0.000208 
0.004590 
0.001535 
-0.002995 
0.013373 
0.046021 
-0.000628 
0.019304 
-0.004960 
0.012110 
0.000154 
0.000231 
0.025914 
0.001678 
0.000612 
0.034607 
0.000018 
0.007424 
-0.010419 
0.005717 
0.000287 
0.000391 
0.005881 
0.002688 
0.001240 
0.044656 
-0.000039 
0.002362 
-0.013425 
0.002141 
0.000247 
0.004626 
0.001496 
-0.003707 
0.013905 
0.040650 
-0.000786 
0.000000 
-0.000516 
-0.000017 
-0.001630 
0.000000 
0.000000 
-0.000031 
-0.000001 
-0.000000 
0.000000 
-0.000000 
0.000000 
-0.000000 
-0.000000 
0.000000 
-0.000000 
-0.000021 
-0.000280 
-0.000115 
-0.000000 
0.004122 
-0.002242 
-0.001346 
0.000138 
0.004568 
-0.000025 
0.000011 
-0.000997 
0.000036 
0.000238 
-0.000384 
-0.000951 
-0.007793 
-0.000414 
-0.010783 
-0.000307 
-0.000030 
-0.000310 
-0.003158 
-0.000009 
0.000001 
-0.000856 
-0.000131 
0.000634 
0.000000 
0.000003 
-0.000065 
-0.000000 
-0.000002 
-0.000000 
-0.000000 
-0.000001 
-0.000003 
0.000000 
0.000003 
-0.000000 
-0.000046 
-0.000865 
-0.000236 
-0.000000 
0.001679 
-0.016823 
-0.008725 
-0.003514 
0.001801 
0.000012 
-0.000122 
-0.000339 
-0.000227 
-0.000034 
-0.000393 
-0.000035 
-0.007886 
-0.000163 
-0.002727 
-0.000113 
-0.000278 
-0.004881 
-0.003621 
-0.000014 
0.001854 
-0.016832 
-0.009234 
-0.003515 
0.001974 
0.000010 
-0.000131 
-0.000462 
-0.000228 
0.000142 
-0.000030 
-0.000660 
-0.001079 
-0.000193 
-0.005209 
-0.000162 
-0.000282 
-0.004884 
-0.001166 
-0.000008 
0.000001 
-0.000999 
-0.000037 
-0.002425 
0.000001 
0.000000 
-0.000062 
-0.000002 
-0.000000 
0.000000 
-0.000000 
0.000000 
-0.000000 
-0.000000 
0.000001 
-0.000000 
-0.000042 
-0.000558 
-0.000232 
-0.000000 
-0.000025 
-0.010293 
-0.008150 
0.000000 
0.000008 
0.000000 
0.000009 
0.000062 
-0.000252 
0.000009 
-0.000489 
0.000754 
-0.006052 
0.000015 
-0.000025 
-0.000000 
-0.000175 
-0.001273 
-0.000000 
-0.000009 
0.003607 
-0.016827 
-0.008983 
-0.003515 
0.003976 
-0.000002 
-0.000127 
-0.000901 
-0.000190 
0.000384 
-0.000371 
-0.000828 
-0.004780 
-0.000347 
-0.011424 
-0.000273 
-0.000283 
-0.004884 
-0.000695 
-0.000015 
0.000025 
-0.006690 
-0.003386 
-0.000179 
0.000000 
0.000008 
0.000001 
0.000001 
-0.000099 
-0.000002 
-0.000001 
-0.000023 
-0.000019 
0.000000 
0.000000 
-0.000000 
-0.000069 
-0.002051 
0.000003 
-0.000003 
-0.000113 
0.000015 
0.000561 
0.000000 
0.000010 
-0.000000 
0.000012 
0.000082 
-0.000001 
-0.000004 
-0.000649 
0.000994 
-0.008233 
0.000008 
0.000129 
-0.000001 
0.000015 
0.000006 
-0.000268 
-0.000000 
-0.000000 
0.000003 
-0.000008 
-0.000147 
0.000219 
0.000000 
0.000650 
0.000000 
0.000013 
0.000453 
0.006115 
0.000049 
-0.000992 
-0.003287 
-0.003179 
0.000031 
-0.001578 
0.000706 
0.001515 
0.007625 
0.000044 
0.000004 
-0.001572 
-0.003285 
-0.003179 
0.000000 
-0.001578 
0.000006 
0.003226 
0.007625 
0.000050 
0.000101 
-0.006600 
-0.003287 
-0.003179 
0.000003 
-0.001577 
0.000057 
-0.003157 
0.007624 
0.006411 
0.000114 
-0.006605 
-0.000708 
-0.000787 
0.000042 
-0.000523 
0.000857 
-0.007621 
0.001634 
0.000000 
0.000050 
-0.006602 
-0.003285 
-0.003176 
0.000000 
-0.001576 
0.000000 
-0.002541 
0.007620 
0.000023 
0.000003 
0.000009 
-0.003286 
-0.003180 
0.000000 
-0.001582 
0.000002 
0.004433 
0.007621 
0.000000 
0.000003 
0.000005 
-0.000947 
-0.000646 
0.000000 
0.000111 
0.000000 
-0.000113 
0.002326 
0.006411 
0.000114 
-0.006341 
-0.000013 
0.000018 
0.000042 
0.000064 
0.000857 
-0.007597 
0.000064 
0.006411 
0.000114 
-0.006603 
-0.003304 
-0.003562 
0.000042 
-0.002308 
0.000857 
-0.003270 
0.007542 
0.000000 
0.000003 
0.000000 
0.000044 
0.000404 
0.000000 
0.000745 
0.000000 
-0.000062 
0.000001 
0.006407 
0.000115 
-0.006601 
-0.002872 
-0.002879 
0.000042 
-0.001551 
0.000856 
-0.007135 
0.006719 
0.000000 
0.000001 
0.000000 
-0.000018 
0.000038 
0.000000 
0.000074 
0.000000 
0.002258 
0.000000 
0.006411 
0.000117 
-0.006600 
-0.003157 
-0.003038 
0.000042 
-0.001482 
0.000857 
-0.003156 
0.007313 
0.000001 
0.000002 
0.000000 
-0.002716 
-0.002708 
0.000000 
-0.001412 
0.000000 
-0.000091 
0.006370 
0.006411 
0.000117 
-0.006600 
-0.003266 
-0.003161 
0.000042 
-0.001562 
0.000857 
-0.003158 
0.007559 
0.000046 
0.000003 
-0.000068 
-0.003288 
-0.003179 
0.000000 
-0.001578 
0.000005 
0.004410 
0.007625 
0.006185 
0.000075 
-0.006429 
-0.003288 
-0.003179 
0.000038 
-0.001578 
0.000790 
-0.002212 
0.007625 
0.006118 
0.000115 
-0.006602 
-0.000037 
0.000070 
0.000040 
0.000133 
0.000827 
-0.003153 
0.000000 
0.000000 
0.000004 
0.000001 
-0.003220 
-0.003106 
-0.000000 
-0.001527 
0.000000 
0.004460 
0.007451 
-0.000000 
-0.001721 
-0.000000 
-0.000786 
-0.000002 
-0.000199 
-0.000046 
-0.000005 
-0.000291 
0.012324 
0.004428 
0.003856 
-0.000001 
0.014327 
0.004508 
0.004144 
-0.000008 
0.009984 
0.004047 
0.002982 
-0.000000 
-0.000002 
-0.000000 
-0.000001 
-0.000008 
0.000652 
0.000313 
0.000081 
-0.000000 
-0.000060 
-0.000000 
-0.000025 
-0.000061 
0.006606 
0.004358 
0.001193 
-0.000007 
0.000965 
0.000386 
0.000303 
-0.005364 
-0.000834 
-0.012576 
-0.001540 
