-5.608180 
-4.790269 
-5.283252 
-5.274673 
-0.458755 
0.151149 
-1.355871 
-0.527664 
6.969999 
-10.293165 
15.560999 
0.481702 
-10.000635 
3.525582 
-0.413624 
11.728314 
11.245610 
6.904112 
11.450524 
9.979520 
15.317461 
-3.835096 
-7.372460 
-1.096763 
-6.619202 
7.138904 
10.674125 
3.198498 
9.258086 
9.884597 
16.264215 
-0.341018 
-8.778595 
1.747116 
-2.410795 
9.802515 
12.508380 
5.023005 
11.179591 
11.230791 
0.076916 
7.898273 
-4.540468 
6.097431 
9.656508 
6.858230 
-1.327491 
6.089978 
0.909290 
-1.747427 
10.586616 
-8.287145 
0.077748 
-6.475497 
-16.263658 
-5.923998 
10.285981 
-4.705005 
-4.192842 
11.261484 
-2.751322 
-1.207025 
-0.750712 
12.345230 
0.836718 
-2.871639 
2.688474 
0.459585 
3.492109 
1.641500 
4.150089 
-1.126509 
3.633756 
-1.046361 
8.760573 
4.247619 
-4.615950 
8.631196 
-1.696290 
-9.011678 
-6.453557 
8.048257 
-8.214302 
-3.124299 
-4.698316 
-6.944613 
-5.376203 
-5.526242 
-11.838671 
0.345121 
2.741067 
0.382019 
2.542357 
0.701945 
7.539348 
2.562574 
-1.542847 
7.275641 
-0.071542 
-7.363410 
6.669413 
-2.541558 
5.532135 
-3.683236 
9.917755 
6.874028 
-6.468691 
10.049420 
-1.518391 
-11.754251 
0.317370 
-2.220403 
0.065578 
2.759249 
8.264813 
0.619212 
-0.883603 
6.836006 
0.508431 
-7.136169 
-3.716938 
-1.170939 
-1.189425 
11.650456 
-0.929856 
-2.644178 
3.569563 
-1.799583 
4.680934 
2.551588 
1.155142 
-2.200199 
1.559771 
0.272846 
8.726930 
1.066088 
-2.474342 
7.946319 
0.073236 
-6.616844 
-0.303083 
-2.812516 
0.491990 
5.869877 
5.430393 
0.223384 
1.270711 
4.964676 
2.301654 
-5.217525 
-4.407248 
-0.876579 
-1.378359 
10.461600 
-1.800979 
-3.789502 
3.356744 
-1.582540 
3.882726 
3.108857 
1.140270 
-4.183180 
-3.571971 
-7.034466 
8.468208 
-5.679678 
-4.737283 
1.178927 
3.735042 
8.506306 
-6.325984 
1.845884 
-28.141505 
1.651279 
2.642507 
-0.114294 
-2.547221 
-4.861139 
-1.441421 
-4.513911 
3.489617 
8.020060 
8.153672 
4.542101 
-8.070703 
6.940445 
9.528191 
3.603956 
-6.558078 
-6.081334 
2.256108 
-5.063694 
-0.200745 
-2.723379 
5.676738 
-3.437749 
9.834006 
7.422354 
-4.814843 
6.607008 
-1.301266 
-1.879923 
-2.794092 
-3.422624 
9.303116 
-7.603470 
-4.344794 
-1.140757 
7.041214 
5.020491 
-15.857988 
2.805638 
-22.563120 
1.144759 
-0.172717 
-1.467627 
-2.966483 
-1.602744 
1.988120 
-7.422606 
-6.499544 
-0.007411 
-0.150041 
6.714768 
1.343998 
7.605973 
-0.935149 
-5.964321 
1.267966 
2.619881 
-2.983063 
2.731836 
-0.916779 
16.470128 
-7.995384 
21.246897 
0.307142 
1.724247 
8.551624 
-4.601035 
-3.220744 
0.189791 
1.317649 
-1.275320 
7.190277 
-0.249489 
-0.305776 
-2.909060 
2.508228 
1.991519 
-14.151647 
3.239777 
-10.818176 
1.219333 
-1.646812 
1.045210 
0.796789 
0.334661 
-1.152849 
-4.996908 
1.128185 
-3.689921 
-2.817787 
-7.010649 
8.722557 
-6.870184 
-4.283230 
1.496064 
4.014992 
6.107983 
-7.513591 
0.907124 
-23.817466 
1.470589 
1.525641 
-0.171217 
-2.759929 
-4.345852 
-0.729289 
-5.318484 
4.284182 
-4.463972 
-1.438319 
24.398034 
-2.421433 
14.499348 
-0.989791 
4.130362 
-3.037419 
1.881001 
-0.666723 
-2.309314 
6.594839 
9.256500 
-18.861692 
10.439636 
-2.788575 
-2.430470 
4.861314 
3.862933 
-2.751548 
0.308266 
0.596897 
-0.693129 
7.488950 
-0.982332 
-0.890124 
-1.794981 
2.496291 
2.679786 
-13.822292 
3.672423 
-12.124428 
0.806864 
-1.167428 
0.648664 
-0.075457 
0.244638 
-0.944227 
-5.029062 
3.640073 
-9.228504 
-8.387597 
-0.330782 
-3.831792 
5.872667 
-8.325307 
-2.962335 
-0.248192 
3.438920 
13.428494 
-5.389881 
4.925554 
17.553176 
-31.188366 
19.331445 
-9.001380 
-8.593792 
3.882533 
0.798601 
-1.330471 
-0.378942 
-3.009381 
28.628465 
-11.694470 
-0.665049 
2.849879 
-1.718352 
-6.957000 
-5.862814 
1.189580 
-1.637305 
3.724449 
-0.260562 
2.448677 
-1.381219 
0.003930 
0.221779 
6.291118 
18.197119 
-4.068698 
6.048786 
-2.980881 
3.399608 
7.751360 
-3.673772 
1.084234 
-4.044126 
-0.609735 
7.341530 
-5.229146 
-6.571571 
5.669664 
2.927799 
0.268165 
-1.600023 
3.880788 
0.120695 
4.889056 
1.073233 
-2.339221 
-9.995076 
2.599431 
2.212025 
0.295119 
-1.151236 
5.414794 
1.099569 
1.679884 
1.452730 
-12.267162 
-5.454957 
3.427558 
0.925343 
-8.623212 
-12.231072 
1.157770 
-15.834106 
-1.743610 
-0.855374 
0.386573 
1.221195 
-3.047329 
-9.501045 
2.102030 
1.648036 
-3.500677 
0.725040 
2.670603 
-2.677668 
-19.521415 
-0.909828 
6.785306 
0.901064 
-4.990577 
-14.948320 
1.604403 
-30.489734 
-4.716737 
-2.599831 
0.908352 
-6.671890 
-1.713133 
1.924448 
-1.540823 
-3.837870 
3.024053 
-0.223019 
1.072474 
1.571899 
-2.583770 
2.811578 
3.187763 
4.521276 
8.888350 
0.706566 
1.430694 
-8.543257 
1.184454 
5.242757 
1.216620 
0.472582 
0.252389 
-9.399393 
0.431091 
1.017816 
-1.121396 
1.353985 
0.775419 
-2.045355 
-0.103370 
0.025992 
-5.112989 
-5.221310 
2.853989 
0.014307 
-3.459692 
0.629497 
0.049602 
-2.326595 
-9.119866 
30.022758 
9.746424 
-3.240701 
11.130980 
-6.469734 
3.010841 
-1.669012 
-6.485837 
8.033647 
1.017516 
1.881059 
-6.375756 
-3.872062 
0.557177 
0.645712 
-1.972319 
1.191351 
1.595407 
-2.224068 
-9.953905 
18.316212 
9.014364 
8.887060 
-7.751965 
-7.494890 
5.455640 
-5.780874 
-9.872162 
-13.268667 
0.197647 
-4.434159 
-4.038780 
-1.556820 
-3.055776 
-0.471853 
-7.134541 
-0.919120 
0.936820 
-7.013646 
14.392786 
-0.721967 
-1.119351 
11.919254 
10.843711 
5.429413 
5.966325 
-3.395027 
0.037105 
2.306382 
-0.470503 
-3.698346 
-1.335991 
-1.758076 
-6.268648 
-0.609151 
-9.956463 
-1.679095 
1.757018 
-12.028255 
-4.706936 
-13.439984 
0.157033 
1.099821 
0.578065 
0.091959 
4.295729 
2.494500 
3.726701 
1.412943 
-3.910253 
-10.226640 
5.102315 
1.868710 
-0.507551 
-2.133561 
3.619432 
-0.882957 
4.316886 
0.501880 
-2.283453 
3.235658 
-1.830873 
-3.532332 
-19.837564 
-5.063770 
-11.923506 
-11.114842 
-9.052607 
-35.324020 
-10.287251 
4.388320 
1.856268 
3.717021 
6.901275 
-8.207347 
1.457637 
-1.877728 
3.605315 
3.130576 
-16.386031 
-7.027087 
-0.752250 
0.560231 
-7.144204 
0.394916 
-3.079473 
-4.329546 
8.091065 
0.446816 
1.416227 
4.440473 
-10.058137 
-1.037215 
-11.496869 
-3.947331 
-6.885009 
-3.039738 
-7.137649 
1.229676 
-3.545280 
-11.499095 
-7.328844 
0.451174 
-11.073817 
-1.844663 
8.186595 
-6.621202 
-16.543005 
-0.889575 
-7.024741 
-11.214174 
23.539769 
3.241710 
11.578848 
1.820835 
-16.636704 
-7.322692 
36.675637 
-3.262397 
3.613277 
4.638854 
1.520169 
3.667756 
