3.579205 
3.326343 
3.351092 
3.186758 
6.474845 
-3.569064 
-4.243985 
-5.059366 
-3.870697 
-3.237878 
2.291951 
2.707995 
-3.057206 
1.105331 
2.618825 
-0.377540 
-2.672469 
-2.329255 
2.918864 
0.917058 
2.576731 
2.444789 
-2.326899 
1.738360 
2.251443 
-1.511347 
-2.399455 
-2.053972 
2.241825 
1.100676 
2.162617 
1.658833 
-2.228683 
1.290953 
2.081276 
-2.863022 
-2.059890 
-2.032007 
2.645651 
0.546012 
2.990385 
2.719024 
-2.011767 
1.200716 
2.509130 
-0.575260 
-2.421651 
-2.006416 
2.525444 
0.473299 
4.147923 
4.077929 
-3.536224 
0.347171 
4.206793 
1.845567 
-3.703539 
-3.846916 
3.625275 
1.269913 
-0.184785 
-0.013054 
-0.200102 
-0.647503 
-0.324746 
-0.442333 
-0.074677 
0.349850 
-0.176938 
-0.186600 
-0.194332 
0.011140 
-0.742347 
-0.053392 
-0.231230 
0.311856 
0.339887 
0.403271 
-0.284844 
0.757953 
1.360311 
-0.990742 
1.464113 
1.174405 
0.460117 
-0.715218 
-1.299513 
-1.440609 
1.540168 
-0.913332 
-0.261669 
-0.111460 
0.395860 
0.362721 
0.484035 
0.270610 
0.485811 
0.368453 
0.106474 
0.148714 
-0.944731 
0.085973 
-0.652477 
-0.731734 
-0.222315 
0.020987 
0.637757 
0.579282 
-0.816182 
0.221706 
-1.121810 
3.050765 
-1.385032 
-1.391619 
-2.066163 
2.190630 
1.504674 
1.467123 
-1.316643 
1.676216 
1.604488 
-1.013026 
1.803570 
1.412169 
0.734395 
-0.896334 
-0.903871 
-1.690022 
1.540359 
-1.033880 
1.318685 
-0.200960 
1.503782 
1.413437 
1.183157 
-1.087815 
-0.965543 
-0.863201 
0.675994 
-0.726080 
-0.643904 
0.249864 
-0.200697 
0.066702 
0.260268 
0.137975 
-0.079411 
0.434832 
-0.383691 
-0.255530 
-0.329751 
-0.780413 
0.158696 
-0.187731 
0.623261 
-0.228664 
0.343087 
-0.311735 
0.317059 
0.096102 
1.568386 
1.080159 
-0.944851 
-0.995270 
1.136930 
-1.026761 
-1.987495 
1.808973 
-1.412974 
-1.530109 
-1.160593 
-1.617874 
0.952262 
1.330340 
1.547774 
-0.902894 
0.585636 
-1.185675 
1.130489 
1.413436 
-1.214198 
-0.657670 
1.479611 
1.452701 
-1.216106 
1.283628 
1.019536 
-1.250435 
0.814478 
1.088565 
1.467702 
1.547667 
-0.614301 
-1.341435 
-0.726468 
1.237692 
-0.840339 
1.118199 
-1.179828 
-0.726071 
1.971561 
1.463082 
-1.747920 
-1.248110 
1.147889 
-1.791367 
-1.796159 
1.744085 
-1.597946 
-1.693854 
-1.659384 
-1.511904 
1.546968 
1.123117 
1.660207 
-1.494855 
1.257513 
-1.628981 
1.466189 
1.804871 
1.533416 
1.095663 
-1.036001 
-1.411127 
1.532896 
-1.387206 
-2.175625 
1.541863 
-0.817663 
-1.515678 
-1.412071 
-1.360715 
1.936861 
1.210698 
1.426794 
-1.734514 
0.703693 
-1.306906 
1.191821 
1.553238 
1.785223 
1.548330 
-1.301505 
-2.129042 
1.782730 
-1.564757 
-1.602288 
1.657906 
-1.435902 
-1.787168 
-1.587227 
-1.250909 
1.707439 
1.834400 
1.401800 
-1.637104 
1.490852 
-1.196496 
1.538166 
1.838909 
-0.311832 
-0.216650 
0.755736 
0.892794 
-0.698927 
0.461884 
0.904682 
-0.375489 
0.891484 
0.743853 
0.434361 
0.488757 
-0.880487 
-0.509507 
-0.628292 
0.386448 
-0.258314 
0.829954 
-0.526217 
-0.874133 
-0.130098 
-0.389996 
0.303163 
0.525212 
-0.461114 
0.857236 
0.821114 
-0.518618 
0.532558 
0.848339 
0.225636 
0.363509 
-0.387307 
-0.373585 
-0.741756 
1.107207 
-0.009585 
0.872189 
-0.456905 
-0.441934 
-0.737032 
-0.429816 
1.126863 
0.802130 
-0.564377 
0.343404 
0.874319 
-0.764282 
1.358415 
0.718313 
0.608011 
1.295659 
-1.131007 
-0.549307 
-0.386595 
0.757384 
-0.629927 
0.507210 
-0.290219 
-0.359698 
0.904281 
1.356649 
-1.431632 
-0.976429 
1.229770 
-1.311803 
-1.235329 
1.544867 
-1.454115 
-1.486830 
-1.337491 
-1.344496 
1.777519 
1.697045 
0.890142 
-1.314667 
0.294570 
-1.393123 
1.000408 
0.776035 
-0.686641 
-1.080578 
0.059618 
0.412643 
-0.177692 
0.720177 
0.775372 
-0.705893 
0.227691 
0.726659 
0.932903 
0.273204 
-0.501421 
-0.227794 
-0.771912 
0.281298 
-0.074338 
0.623859 
-0.309677 
-0.950955 
0.989828 
1.137480 
0.783001 
-0.827662 
1.071782 
-0.731503 
0.436511 
0.723117 
1.783973 
-0.526271 
0.565528 
0.574894 
0.779807 
-0.741931 
1.058881 
-0.904705 
0.400820 
0.624273 
1.054224 
-0.575488 
-0.695382 
-0.789218 
-0.399147 
1.460550 
-1.031372 
1.077742 
-0.984301 
-0.956762 
-0.843151 
0.985316 
-1.039487 
-0.560394 
-0.653360 
0.821818 
-0.702338 
0.157590 
-0.493120 
-0.438433 
-0.452894 
0.805548 
0.710639 
1.279287 
1.483748 
-1.641895 
1.106044 
-0.865123 
1.203394 
1.083577 
1.727877 
-1.372130 
-1.081877 
-1.258753 
-0.788219 
0.809716 
-1.395388 
1.425053 
-0.473328 
-1.125447 
-0.677883 
0.961683 
-0.448802 
-1.409783 
-0.454426 
1.388206 
-0.839328 
1.430278 
-0.780887 
-0.999389 
-1.524235 
0.922514 
1.247457 
1.197439 
0.646274 
-1.151425 
1.465058 
-1.377581 
1.311098 
0.777056 
1.362831 
-1.339493 
-0.434428 
-0.496533 
-0.525929 
0.650734 
-0.499399 
0.828361 
-0.920315 
-0.526492 
-0.484875 
0.206283 
-0.293518 
-0.480409 
-1.158217 
1.589124 
-1.171676 
1.366935 
-0.948626 
-0.390960 
-1.436149 
0.514774 
-1.345833 
-0.560609 
-0.834278 
0.916392 
-0.831413 
0.983527 
-0.774973 
-0.959931 
-0.875010 
1.511222 
-0.251860 
-0.644485 
-0.579289 
0.621043 
-0.393046 
0.130246 
-0.918958 
-0.237612 
-0.671071 
1.097176 
0.968502 
1.092779 
1.105510 
-1.016432 
0.943663 
-0.843893 
0.994195 
0.706067 
1.546182 
-0.892452 
0.704585 
1.029884 
0.720726 
-1.253953 
1.141474 
-1.179776 
0.864430 
0.430014 
1.460681 
-0.850034 
0.627167 
1.161890 
1.330572 
-1.108893 
1.605511 
-1.317858 
1.473509 
1.219487 
1.230929 
-1.045643 
-0.280592 
-1.084275 
-1.020110 
0.948868 
-0.310377 
0.606521 
-0.614391 
-0.609815 
-1.381597 
0.325880 
-0.383373 
0.512742 
0.417087 
-0.622489 
-0.139068 
-0.412053 
0.607832 
0.359924 
0.121938 
-0.107700 
-0.924820 
-0.755764 
-1.088771 
0.637144 
-1.014940 
1.387578 
-0.526556 
-0.843604 
-0.508706 
1.118039 
0.809939 
1.131044 
1.055747 
-0.723443 
0.724893 
-0.789523 
0.629469 
0.774857 
0.927183 
-0.808442 
1.036418 
0.900627 
0.617322 
-1.222767 
1.591153 
-1.391852 
0.648287 
1.077658 
1.057601 
-1.202138 
0.667747 
-0.747265 
0.865414 
-0.834122 
1.368844 
-1.908519 
1.348162 
-1.110086 
0.990542 
-1.201915 
1.389633 
-1.733981 
-1.608224 
2.338225 
-1.789115 
2.423675 
1.649535 
-1.521555 
1.438653 
-1.682803 
-1.875796 
1.846046 
-1.947455 
2.085152 
1.734083 
-1.601092 
1.318720 
-2.001787 
1.349732 
-0.588388 
0.741374 
-1.272405 
1.404468 
-2.351724 
2.198642 
-1.820052 
-1.665899 
2.149072 
-1.545828 
2.478042 
7.165829 
-5.323084 
7.397418 
-5.182459 
