-0.000000 
-0.000000 
-0.000000 
-0.000000 
-0.000000 
-0.000000 
-0.000000 
-0.000000 
-0.000000 
-0.000000 
0.000000 
-0.000000 
-0.000000 
0.000000 
0.000000 
-0.000000 
-0.000000 
-0.000000 
-0.000000 
-0.000000 
0.000000 
-0.000000 
-0.000000 
0.000000 
0.000000 
-0.000000 
-0.000000 
-0.000000 
-0.000000 
-0.000000 
0.000000 
-0.000000 
0.000000 
0.000000 
0.000000 
-0.000000 
-0.000000 
-0.000000 
-0.000000 
-0.000000 
0.000000 
-0.000000 
-0.000000 
0.000000 
0.000000 
-0.000000 
-0.000000 
-0.000000 
-0.000000 
-0.000000 
0.000000 
-0.000000 
0.000000 
0.000000 
0.000000 
-0.000000 
-0.000000 
-0.000000 
-0.000000 
-0.000000 
0.000000 
0.000000 
-0.000000 
0.000000 
0.000000 
-0.000000 
0.000000 
0.000000 
-0.000000 
0.000000 
0.000000 
0.000000 
-0.000000 
0.000000 
0.000000 
-0.000000 
0.000000 
0.000000 
-0.000000 
0.000000 
0.000000 
0.000000 
-0.000000 
0.000000 
0.000000 
-0.000000 
0.000000 
0.000000 
-0.000000 
0.000000 
0.000000 
0.000000 
-0.000000 
0.000000 
0.000000 
-0.000000 
0.000000 
0.000000 
-0.000000 
0.000000 
0.000000 
0.000000 
-0.000000 
0.000000 
0.000000 
-0.000000 
0.000000 
0.000000 
-0.000000 
0.000000 
0.000000 
0.000000 
-0.000000 
0.000000 
0.000000 
-0.000000 
0.000000 
0.000000 
-0.000000 
0.000000 
0.000000 
0.000000 
-0.000000 
0.000000 
0.000000 
-0.000000 
0.000000 
0.000000 
-0.000000 
0.000000 
0.000000 
0.000000 
-0.000000 
0.000000 
0.000000 
-0.000000 
0.000000 
0.000000 
-0.000000 
0.000000 
0.000000 
0.000000 
-0.000000 
0.000000 
0.000000 
-0.000000 
0.000000 
0.000000 
-0.000000 
0.000000 
0.000000 
0.000000 
-0.000000 
0.000000 
0.000000 
-0.000000 
0.000000 
0.000000 
-0.000000 
0.000000 
0.000000 
0.000000 
-0.000000 
-0.000000 
0.000000 
-0.000000 
-0.000001 
-0.000001 
-0.000000 
-0.000000 
-0.000000 
0.000000 
0.000000 
-0.000000 
-0.000000 
-0.000000 
-0.000000 
-0.000000 
0.000000 
-0.000000 
0.000000 
0.000000 
-0.000000 
-0.000000 
0.000000 
-0.000000 
-0.000001 
-0.000001 
-0.000000 
-0.000000 
-0.000000 
0.000000 
0.000000 
-0.000000 
-0.000000 
-0.000000 
-0.000000 
-0.000000 
0.000000 
-0.000000 
0.000000 
0.000000 
-0.000000 
-0.000000 
0.000000 
-0.000000 
-0.000001 
-0.000000 
-0.000000 
-0.000000 
-0.000000 
0.000000 
0.000000 
-0.000000 
-0.000000 
-0.000000 
-0.000000 
-0.000000 
0.000000 
-0.000000 
0.000000 
0.000000 
-0.000000 
-0.000000 
0.000000 
-0.000000 
-0.000000 
-0.000000 
-0.000000 
-0.000000 
-0.000000 
0.000000 
0.000000 
-0.000000 
-0.000000 
-0.000000 
-0.000000 
-0.000000 
0.000000 
-0.000000 
0.000000 
0.000000 
-0.000000 
-0.000000 
0.000000 
-0.000000 
-0.000001 
-0.000001 
-0.000000 
-0.000000 
-0.000000 
0.000000 
0.000000 
-0.000000 
-0.000000 
-0.000000 
-0.000000 
-0.000000 
0.000000 
-0.000000 
0.000000 
0.000000 
-0.000000 
-0.000000 
0.000000 
-0.000000 
-0.000001 
-0.000000 
-0.000000 
-0.000000 
-0.000000 
0.000000 
0.000000 
-0.000000 
-0.000000 
-0.000000 
-0.000000 
-0.000000 
0.000000 
-0.000000 
0.000000 
0.000000 
-0.000000 
-0.000000 
0.000000 
-0.000000 
-0.000001 
-0.000001 
-0.000000 
-0.000000 
-0.000000 
0.000000 
0.000000 
-0.000000 
-0.000000 
-0.000000 
-0.000000 
-0.000000 
0.000000 
-0.000000 
0.000000 
0.000000 
-0.000000 
-0.000000 
0.000000 
-0.000000 
-0.000001 
-0.000000 
-0.000000 
-0.000000 
-0.000000 
0.000000 
0.000000 
-0.000000 
-0.000000 
-0.000000 
-0.000000 
-0.000000 
0.000000 
-0.000000 
0.000000 
0.000000 
-0.000000 
-0.000000 
0.000000 
-0.000000 
-0.000001 
-0.000000 
-0.000000 
-0.000000 
-0.000000 
0.000000 
0.000000 
-0.000000 
-0.000000 
-0.000000 
-0.000000 
-0.000000 
0.000000 
-0.000000 
0.000000 
0.000000 
-0.000000 
-0.000000 
0.000000 
-0.000000 
-0.000001 
-0.000001 
-0.000000 
-0.000000 
-0.000000 
0.000000 
0.000000 
-0.000000 
-0.000000 
-0.000000 
-0.000000 
-0.000000 
0.000000 
-0.000000 
-0.000000 
-0.000000 
-0.000000 
-0.000000 
-0.000000 
-0.000000 
0.000000 
-0.000025 
-0.000001 
0.000000 
-0.000000 
-0.000000 
-0.000000 
-0.000000 
-0.000000 
-0.000000 
0.000000 
-0.000023 
-0.000001 
0.000000 
-0.000000 
-0.000000 
-0.000000 
-0.000000 
-0.000000 
-0.000000 
0.000000 
-0.000025 
-0.000001 
0.000000 
-0.000000 
-0.000000 
-0.000000 
-0.000000 
-0.000000 
-0.000000 
0.000000 
-0.000000 
-0.000000 
0.000000 
-0.000000 
-0.000000 
-0.000000 
-0.000000 
-0.000000 
-0.000000 
0.000000 
-0.000025 
-0.000001 
0.000000 
-0.000000 
-0.000000 
-0.000000 
-0.000000 
-0.000000 
-0.000000 
0.000000 
-0.000000 
-0.000000 
0.000000 
-0.000000 
-0.000000 
-0.000000 
-0.000000 
-0.000000 
-0.000000 
0.000000 
-0.000003 
-0.000000 
0.000000 
-0.000000 
-0.000000 
-0.000000 
-0.000000 
-0.000000 
-0.000000 
0.000000 
-0.000017 
-0.000001 
0.000000 
-0.000000 
-0.000000 
-0.000000 
-0.000000 
-0.000000 
-0.000000 
0.000000 
-0.000025 
-0.000001 
0.000000 
-0.000000 
-0.000000 
-0.000000 
-0.000000 
-0.000000 
-0.000000 
0.000000 
-0.000000 
-0.000000 
0.000000 
-0.000000 
-0.000000 
-0.000000 
-0.000000 
-0.000000 
-0.000000 
0.000000 
-0.000002 
-0.000000 
0.000000 
-0.000000 
-0.000000 
-0.000000 
-0.000000 
-0.000000 
-0.000000 
0.000000 
-0.000025 
-0.000001 
0.000000 
-0.000000 
-0.000000 
-0.000000 
-0.000000 
-0.000000 
-0.000000 
0.000000 
-0.000024 
-0.000001 
0.000000 
-0.000000 
-0.000000 
-0.000000 
-0.000000 
-0.000000 
-0.000000 
0.000000 
-0.000025 
-0.000001 
0.000000 
-0.000000 
-0.000000 
-0.000000 
-0.000000 
-0.000000 
-0.000000 
0.000000 
-0.000025 
-0.000001 
0.000000 
-0.000000 
-0.000000 
-0.000000 
-0.000000 
-0.000000 
-0.000000 
0.000000 
-0.000025 
-0.000001 
0.000000 
-0.000000 
-0.000000 
-0.000000 
-0.000000 
-0.000000 
-0.000000 
0.000000 
-0.000011 
-0.000001 
0.000000 
-0.000000 
-0.000000 
-0.000000 
-0.000000 
-0.000000 
-0.000000 
0.000000 
-0.000025 
-0.000001 
0.000000 
-0.000000 
-0.000000 
-0.000000 
-0.000000 
-0.000000 
-0.000000 
0.000000 
-0.000000 
-0.000000 
0.000000 
-0.000000 
-0.000000 
-0.000000 
-0.000000 
-0.000000 
-0.000000 
0.000000 
-0.000025 
-0.000001 
0.000000 
-0.006506 
-0.000415 
-0.000000 
-0.000507 
-0.000000 
-0.000000 
-0.000000 
-0.000000 
-0.000000 
-0.000000 
-0.000000 
-0.000000 
-0.006506 
-0.000415 
-0.000000 
-0.000507 
-0.006506 
-0.000415 
-0.000000 
-0.000507 
-0.006506 
-0.000415 
-0.000000 
-0.000507 
-0.000000 
-0.000000 
-0.000000 
-0.000000 
-0.003005 
-0.000204 
-0.000000 
-0.000256 
-0.000077 
-0.000005 
-0.000000 
-0.000007 
-0.000000 
-0.000000 
-0.000000 
-0.000000 
-0.120507 
-0.171818 
-0.000000 
-0.002904 
