-6.042809 
-5.012108 
-5.666329 
-5.584673 
-2.083172 
0.933614 
-0.359495 
0.333470 
8.171960 
-11.567091 
21.782208 
0.409508 
-9.148133 
2.372482 
0.164786 
15.956343 
11.160544 
9.225287 
13.084869 
9.548083 
21.042478 
-4.221479 
-7.154656 
-2.438609 
-6.653479 
10.138786 
9.464688 
5.310117 
11.665616 
8.242615 
22.586669 
-0.585430 
-8.062411 
0.409639 
-2.089499 
13.569201 
11.950871 
7.292498 
13.114290 
10.253043 
2.180649 
8.371116 
-2.919740 
5.356313 
10.774826 
12.794856 
-1.874909 
8.247939 
-1.650978 
-2.492205 
10.109777 
-21.186002 
-1.489426 
-11.937269 
-35.334243 
-6.886803 
4.994947 
-4.111181 
-3.469910 
5.035678 
-2.815870 
-0.445500 
-0.696916 
16.447952 
2.926968 
-2.745002 
2.517277 
3.195791 
2.976862 
-0.134038 
4.326296 
-1.540602 
4.968888 
-1.003699 
0.322474 
4.552601 
-14.723518 
7.661211 
-2.412193 
-14.344553 
-6.444556 
10.333824 
-10.846706 
-2.300191 
-6.353004 
-6.753269 
-5.190066 
-6.401193 
-14.152085 
-4.699621 
2.260590 
3.100181 
3.559831 
0.396974 
3.015490 
1.816970 
-8.139472 
4.768405 
0.603923 
-13.422180 
9.659027 
-2.842230 
8.491612 
-3.025543 
-6.135383 
10.107249 
-26.019634 
7.441145 
-1.841537 
-13.553049 
-0.904348 
-2.269192 
-0.462167 
4.262640 
9.189290 
-0.332056 
-0.343661 
8.810870 
0.167498 
-11.977263 
-2.955376 
-0.818743 
-0.248786 
15.422722 
-1.305166 
-1.088695 
5.183189 
-2.758348 
6.498255 
3.809122 
0.258560 
-2.558500 
3.547378 
-2.008192 
12.662707 
0.674439 
-4.346256 
10.470644 
-0.445684 
-9.125149 
0.744420 
-3.214361 
0.659597 
9.262946 
5.063290 
2.007070 
2.280968 
5.649723 
3.285327 
-5.660555 
-4.323451 
-0.357428 
-0.332976 
12.119779 
-2.166653 
-2.654388 
4.305577 
-1.925559 
5.338849 
3.808872 
-1.280900 
-9.882951 
-6.538920 
-9.597531 
8.097977 
-22.658083 
-5.447365 
-0.260671 
11.867486 
22.073584 
-1.044510 
-2.908411 
-43.452637 
3.344748 
5.475778 
0.262280 
0.255380 
-9.866020 
-6.959131 
-7.859119 
3.414378 
7.696641 
9.592533 
2.970891 
-10.468380 
14.294162 
12.026031 
6.867022 
-7.873122 
-8.124574 
5.708328 
-7.351981 
-1.760875 
-0.525211 
11.369387 
-1.874454 
11.794928 
8.368862 
-7.900685 
9.306868 
-4.570829 
-2.230529 
-4.244135 
-4.199795 
10.575826 
-10.309420 
-3.067942 
-4.547093 
15.003101 
14.150649 
-23.341567 
4.123281 
-22.355261 
5.216118 
1.837373 
-3.085563 
-3.085253 
-2.929252 
2.515600 
-25.492590 
-8.864652 
0.589324 
1.054014 
3.465865 
1.099452 
11.317313 
-2.348901 
-5.253147 
0.970149 
3.043588 
-1.430583 
3.630136 
-2.773853 
16.744987 
-6.426992 
25.773388 
-0.488683 
5.927536 
9.118410 
-8.608999 
-5.795713 
0.521725 
1.964259 
-2.288084 
7.535612 
1.394173 
1.307373 
-2.802578 
0.846157 
0.281847 
-16.338614 
5.987939 
-9.988696 
2.498739 
-1.068532 
2.698507 
-0.565125 
3.495741 
0.205675 
-6.440329 
-1.789550 
-8.877319 
-7.300878 
-10.770359 
8.869775 
-24.636813 
-5.425638 
-1.107566 
13.188798 
19.089197 
-5.572930 
-4.367308 
-29.400993 
4.425126 
3.811324 
-2.288172 
-2.598674 
-7.871314 
-5.242904 
-17.727020 
5.071827 
-6.464034 
-3.607170 
43.712526 
2.886743 
11.831980 
-4.556723 
2.144853 
-2.007589 
3.404900 
0.595081 
-1.965934 
8.503583 
9.841475 
-31.635498 
14.906171 
-2.980992 
-4.710310 
16.956028 
6.511637 
-4.513029 
0.569135 
-0.347353 
-1.707680 
7.627667 
0.400702 
-0.550310 
-1.762314 
0.570358 
2.216921 
-20.001495 
4.490069 
-13.730200 
2.140809 
-4.401264 
2.314618 
-2.888428 
2.775539 
-1.339743 
-7.308195 
9.288030 
-14.220643 
-15.766435 
3.037369 
-0.392373 
10.256366 
-13.242073 
-14.906990 
7.677576 
7.978075 
17.267483 
-5.912262 
3.962279 
23.046237 
-13.004497 
28.109187 
-12.206631 
-12.714002 
3.204428 
0.284236 
-4.031713 
0.348268 
-9.188324 
44.122472 
-12.808354 
-0.093536 
4.930489 
-3.919460 
-8.199939 
-5.982133 
1.106437 
-2.166303 
4.719395 
-12.810938 
0.418080 
-10.255841 
0.335565 
-1.874368 
8.584489 
40.109595 
-13.381698 
13.068212 
-4.002405 
3.493356 
4.989256 
-3.222130 
-0.375643 
-8.458616 
-5.660977 
13.253982 
-4.061424 
-6.638799 
10.285213 
2.328139 
-0.122641 
-2.527926 
4.231833 
-1.859022 
5.099553 
-1.547700 
-1.149036 
-10.485813 
5.909865 
-2.558038 
0.937439 
0.274795 
5.698610 
-0.826683 
2.543373 
-1.216421 
-13.094089 
-4.765845 
3.337002 
0.353603 
-6.932873 
-19.149504 
-0.422949 
-13.084269 
-1.916760 
-3.395180 
0.207940 
2.266481 
-3.782934 
-22.729200 
4.223423 
1.000009 
-2.470463 
1.208912 
3.397420 
-5.685207 
-41.527296 
0.962792 
10.170574 
0.367273 
-4.771967 
-25.839624 
2.469525 
-53.540723 
-5.995826 
-6.016687 
-4.866730 
-7.853343 
-0.912058 
1.766086 
-5.344582 
-8.046951 
3.341891 
-3.760777 
1.491613 
-0.449354 
-9.410401 
-0.640521 
-1.690757 
2.955490 
8.423912 
-1.245870 
1.309436 
-18.299903 
3.510559 
4.988152 
1.037965 
0.240509 
0.771899 
-8.959105 
1.473073 
0.369778 
-0.312731 
1.837936 
0.216361 
-1.157911 
-0.282207 
-0.494871 
-7.584411 
-9.125639 
1.473201 
-0.614475 
-3.502084 
1.157704 
-0.155974 
2.818399 
-9.119866 
31.927173 
8.443376 
-5.323267 
4.594478 
-6.469734 
1.495073 
-1.669013 
-8.526600 
-0.255534 
0.751411 
3.744045 
-8.280591 
-3.756519 
0.256374 
-1.382662 
-2.273783 
1.401014 
2.566471 
-4.303452 
-9.953905 
20.516297 
11.270387 
15.096642 
-6.880504 
-7.494890 
9.373628 
-5.780874 
-7.602772 
-36.733422 
-0.129649 
-8.067303 
-4.775499 
0.359141 
-4.096607 
-0.954839 
-7.424762 
-0.056679 
2.055733 
-5.438725 
9.612774 
-1.998896 
-2.962510 
16.070111 
10.921477 
4.705137 
9.197224 
-5.626003 
6.356055 
2.301788 
-1.368900 
-7.935945 
0.108281 
-1.288843 
-6.557585 
-0.684578 
-10.971092 
0.566617 
2.766849 
-12.431117 
-1.724145 
-14.471627 
1.729232 
0.216327 
0.990368 
2.751749 
4.622871 
3.289731 
2.517322 
-1.233865 
-2.779867 
-13.982060 
6.377539 
1.726909 
-1.238906 
-1.986380 
3.951188 
-2.730376 
3.824667 
-2.038988 
-0.373286 
0.032205 
-2.356610 
-0.104190 
-29.138887 
-4.061513 
-13.879712 
-11.595082 
-10.578014 
-59.138598 
-10.889150 
2.250063 
0.223794 
3.414342 
8.054418 
-6.102512 
2.436709 
-1.735353 
4.552368 
5.830321 
-31.908771 
-9.145010 
-1.843030 
4.686135 
-13.029163 
-0.577407 
-1.118104 
-14.353745 
17.114695 
0.416309 
2.796224 
4.078887 
-19.434163 
-0.397424 
-15.296774 
-3.844357 
-12.286604 
-1.922499 
-10.638465 
2.061291 
-21.707075 
-12.852221 
-23.316536 
-11.894912 
-25.811848 
-2.207862 
4.713996 
-5.423016 
-30.156014 
-1.373950 
-9.130628 
-31.097032 
43.941103 
2.313035 
16.597385 
0.807542 
-26.545624 
-6.980630 
42.229491 
-6.058546 
2.680975 
6.828002 
1.799304 
1.960705 
