-6.075578 
-5.035194 
-5.693904 
-5.583508 
-2.196178 
0.977096 
-0.280390 
0.390994 
8.264415 
-11.519353 
22.209522 
0.532318 
-9.003553 
2.417641 
0.231606 
16.236702 
11.105469 
9.430544 
13.154247 
9.531143 
21.327294 
-4.036999 
-7.045430 
-2.366958 
-6.556524 
10.321478 
9.340461 
5.536784 
11.814250 
8.136115 
22.999041 
-0.440104 
-7.927568 
0.451203 
-2.010590 
13.815278 
11.871426 
7.508790 
13.214044 
10.202394 
2.424455 
8.413045 
-2.822447 
5.350564 
10.769558 
13.516533 
-1.860757 
8.245311 
-1.752398 
-2.447472 
9.982681 
-21.826940 
-1.535246 
-12.543537 
-35.966941 
-6.788324 
4.831710 
-3.933174 
-3.337595 
4.797055 
-2.826978 
-0.475051 
-0.566714 
16.664161 
3.067149 
-2.690217 
2.563751 
3.443621 
2.959175 
-0.128605 
4.388789 
-1.840807 
5.063512 
-1.163667 
-1.010487 
4.586359 
-15.919773 
7.379805 
-2.628683 
-15.379041 
-6.451855 
10.535195 
-11.186372 
-2.145438 
-6.371876 
-6.899752 
-5.227335 
-6.352403 
-14.172639 
-4.880060 
2.179402 
3.206218 
3.618782 
0.519230 
1.399190 
1.689761 
-8.942480 
3.608631 
0.799369 
-13.892856 
9.764223 
-2.791411 
8.496813 
-3.208268 
-8.487769 
10.259247 
-28.253121 
6.216803 
-1.906971 
-12.626759 
-1.060617 
-2.318237 
-0.523140 
4.603924 
9.172450 
-0.396970 
-0.229121 
8.947242 
0.248008 
-12.391816 
-2.767185 
-0.789451 
-0.017192 
15.499617 
-1.294715 
-0.840065 
5.325067 
-2.811913 
6.655852 
3.949688 
0.071004 
-2.697511 
3.636738 
-2.172235 
12.812434 
0.660909 
-4.394178 
10.597502 
-0.452422 
-9.618285 
0.726007 
-3.123549 
0.797284 
9.576222 
4.846395 
2.274278 
2.299404 
5.776900 
3.277935 
-5.444778 
-4.187430 
-0.308645 
-0.099976 
12.030977 
-2.143434 
-2.494184 
4.382440 
-1.872817 
5.481673 
3.864863 
-1.914383 
-9.955539 
-6.257657 
-9.511475 
6.632305 
-23.582373 
-5.715006 
-0.251610 
12.428283 
21.783088 
-0.935764 
-3.469305 
-43.569361 
2.859264 
5.434345 
0.109713 
0.684778 
-10.507117 
-7.146624 
-8.523500 
3.227111 
7.637696 
9.950431 
2.674033 
-10.397010 
14.609199 
12.322735 
6.999830 
-7.815912 
-8.116788 
5.873056 
-7.552702 
-1.730423 
-0.045734 
11.709236 
-1.637065 
11.789982 
8.396103 
-8.199314 
9.410053 
-4.996078 
-2.404078 
-4.451646 
-4.266969 
11.522785 
-10.497730 
-2.952978 
-4.323886 
15.043206 
13.363856 
-21.695599 
3.904246 
-21.824630 
5.479283 
1.988418 
-3.314907 
-2.901384 
-3.044296 
2.583676 
-27.823540 
-9.200823 
0.631967 
1.022563 
3.228415 
1.020080 
11.606937 
-2.253987 
-5.310239 
0.911342 
3.093046 
-1.382036 
3.814493 
-2.765444 
16.736853 
-6.321054 
26.247114 
-0.713520 
6.326273 
9.040666 
-8.772840 
-5.921743 
0.502905 
1.621233 
-2.465969 
7.460800 
1.487620 
1.595168 
-2.592104 
0.714000 
0.427203 
-16.722088 
6.305051 
-9.971706 
2.537999 
-0.875871 
2.808213 
-1.041291 
3.755184 
0.161698 
-6.540399 
-2.449457 
-9.336039 
-7.628743 
-11.131447 
8.216129 
-25.368856 
-5.656188 
-1.016563 
13.461767 
18.547158 
-5.350591 
-4.867436 
-29.294068 
4.341257 
3.741394 
-2.469896 
-2.220500 
-8.186135 
-5.445140 
-19.181152 
5.222519 
-6.561302 
-3.470248 
43.895760 
3.026100 
10.790768 
-4.879898 
2.022156 
-1.963297 
3.770271 
0.813606 
-1.888009 
8.592234 
10.058659 
-31.703325 
14.494875 
-2.990383 
-5.118403 
16.917496 
6.581591 
-4.652880 
0.574211 
-0.521795 
-1.885513 
7.761404 
0.500232 
-0.319870 
-1.744005 
0.482550 
2.604112 
-20.187779 
4.555500 
-13.833454 
2.422602 
-4.627733 
2.513537 
-3.245010 
3.100894 
-1.245270 
-7.432514 
9.427672 
-14.231272 
-16.718627 
2.933740 
-0.151556 
10.539186 
-13.441003 
-15.674606 
7.971587 
7.873587 
17.507683 
-6.067023 
4.044784 
21.437469 
-11.250709 
28.211690 
-12.302462 
-13.161803 
3.129609 
0.142677 
-4.001688 
0.092997 
-9.587502 
44.039108 
-12.917760 
-0.087634 
4.725632 
-3.932848 
-8.475687 
-5.766145 
1.183933 
-2.058495 
4.886898 
-13.251432 
0.190618 
-10.900487 
0.267993 
-1.972754 
9.039363 
41.618281 
-14.032293 
13.254549 
-4.196112 
3.515128 
4.657020 
-3.332211 
-0.418412 
-9.406556 
-5.999967 
13.375598 
-4.030119 
-6.709736 
10.503913 
2.355164 
-0.144050 
-2.668675 
4.142490 
-2.003689 
4.882935 
-1.649753 
-1.328062 
-10.460217 
5.992436 
-2.811754 
0.941971 
-0.163221 
5.623906 
-1.085313 
2.789250 
-1.295071 
-13.709597 
-4.664569 
3.408586 
0.352396 
-7.079379 
-20.570460 
-0.622702 
-12.926518 
-1.963379 
-3.408125 
0.283404 
2.536258 
-3.818107 
-23.948005 
4.116342 
0.989075 
-2.441608 
1.279769 
3.458645 
-5.608021 
-42.702705 
1.179746 
10.333524 
0.367657 
-5.043691 
-26.111893 
2.563466 
-56.614130 
-6.194834 
-6.286707 
-5.399088 
-8.034296 
-0.561681 
1.842835 
-5.671335 
-8.077947 
3.236429 
-4.433855 
1.516086 
-0.548310 
-9.205124 
-0.781565 
-2.399888 
2.554493 
8.730766 
-1.658278 
1.377759 
-19.464037 
3.761927 
5.048620 
1.113428 
0.242162 
0.831254 
-8.519958 
1.463144 
0.358841 
-0.087447 
1.908789 
0.382812 
-0.765198 
-0.206744 
-0.853527 
-7.674967 
-9.313242 
1.464587 
-0.625412 
-3.193587 
1.228558 
-0.002741 
3.208441 
-9.119866 
32.057221 
9.149415 
-5.135536 
4.201006 
-6.469734 
1.252732 
-1.669013 
-8.978265 
-1.964350 
0.825371 
4.076136 
-8.501124 
-4.418335 
0.080221 
-1.780773 
-2.367672 
1.457331 
2.592840 
-4.566555 
-9.953905 
20.727116 
12.263748 
15.351951 
-6.751403 
-7.494890 
9.596275 
-5.780874 
-7.367163 
-38.879322 
-0.054179 
-8.372971 
-4.764171 
0.455928 
-4.078750 
-0.964617 
-7.426703 
0.014409 
2.098565 
-5.397535 
9.696086 
-2.190180 
-3.343511 
16.004329 
10.830910 
4.755809 
9.387037 
-5.291002 
6.585026 
2.349940 
-1.298765 
-8.337946 
0.212507 
-1.210100 
-6.480457 
-0.632935 
-11.077083 
0.657745 
2.726604 
-12.352954 
-2.290438 
-14.700055 
1.385273 
0.123780 
0.876600 
2.775917 
4.533985 
3.097692 
2.336063 
-1.335693 
-2.599018 
-14.079627 
6.403997 
1.716536 
-1.279628 
-1.975396 
3.851470 
-2.679946 
3.766832 
-2.130954 
-0.531874 
-0.328797 
-2.360806 
-0.239085 
-29.619615 
-4.668057 
-13.340303 
-11.786070 
-10.664511 
-60.517650 
-10.888954 
2.159629 
-0.287989 
3.411831 
7.844564 
-6.109383 
2.556020 
-1.733291 
4.451798 
5.973308 
-33.850860 
-8.422461 
-2.973241 
5.215579 
-13.216257 
-0.610144 
-1.020160 
-15.457571 
17.681619 
0.408556 
3.038240 
3.858770 
-20.745514 
-0.477653 
-15.540402 
-3.704418 
-12.753627 
-1.897818 
-10.733085 
2.098584 
-23.896623 
-12.300221 
-24.426379 
-12.772025 
-27.310770 
-2.303394 
3.585121 
-5.231280 
-31.561164 
-1.285100 
-9.714938 
-31.335331 
44.996136 
2.361889 
16.925367 
0.870999 
-27.143169 
-6.615689 
43.071854 
-6.165704 
2.620491 
6.841638 
1.977162 
1.923547 
