0.704224 
-0.004933 
-0.006343 
1.411580 
2.775005 
0.844969 
-0.004978 
-0.006555 
1.430444 
2.625692 
-0.023375 
0.081299 
-0.090510 
0.043393 
-0.370830 
0.022984 
-0.135734 
0.093488 
0.018295 
0.068747 
-0.000023 
0.000090 
-0.000076 
0.000012 
-0.000353 
-0.000007 
-0.000144 
0.000054 
-0.000007 
0.000086 
-0.000031 
0.000129 
-0.000094 
-0.000005 
-0.000495 
-0.000032 
-0.000215 
0.000051 
-0.000028 
0.000129 
-0.022620 
0.083405 
-0.078136 
0.032968 
-0.381695 
0.012823 
-0.139496 
0.085051 
0.008491 
0.072512 
-0.025459 
0.102436 
-0.073524 
0.019635 
-0.457163 
-0.003112 
-0.169065 
0.081365 
-0.007142 
0.092998 
-0.000000 
0.014407 
-0.000979 
0.001622 
-0.000000 
0.000172 
0.001759 
0.004256 
-0.002190 
-0.001850 
-0.000000 
0.242635 
-0.022842 
0.028362 
-0.000000 
0.017302 
0.016923 
0.039115 
-0.185673 
-0.152157 
-0.000000 
0.066882 
-0.006189 
0.007781 
-0.000000 
0.000928 
0.009125 
0.019678 
-0.011015 
-0.009356 
-0.000000 
0.070892 
-0.003469 
0.009251 
-0.000000 
0.008251 
-0.000109 
0.007194 
-0.087451 
-0.071270 
-0.000000 
0.034242 
-0.002084 
0.005659 
-0.000000 
0.002720 
-0.000470 
0.009908 
-0.028519 
-0.023271 
-0.000000 
0.062373 
-0.002840 
0.008310 
-0.000000 
0.007625 
-0.000722 
0.006218 
-0.080246 
-0.065388 
-0.000000 
0.012484 
-0.000601 
0.002283 
-0.000000 
0.001053 
-0.000454 
0.004210 
-0.010277 
-0.008460 
-0.000000 
0.094975 
-0.009186 
0.011559 
-0.000000 
0.008670 
0.004125 
0.012788 
-0.095506 
-0.077306 
-0.000000 
0.055933 
-0.002193 
0.007645 
-0.000000 
0.007090 
-0.000979 
0.005080 
-0.074697 
-0.060920 
-0.000000 
0.265472 
-0.025376 
0.031197 
-0.000000 
0.018104 
0.019413 
0.045318 
-0.192898 
-0.158349 
0.003066 
0.012988 
-0.000000 
0.011289 
0.002417 
0.174493 
0.013857 
-0.000239 
0.020020 
-0.005382 
0.006079 
0.042720 
0.053401 
-0.000000 
0.011480 
-0.003141 
-0.000000 
-0.000362 
-0.001511 
-0.004215 
-0.005431 
0.000493 
-0.000000 
0.009259 
0.001540 
0.151667 
-0.000043 
-0.000103 
-0.009797 
-0.000439 
0.005581 
0.012059 
0.045156 
-0.000000 
0.003221 
-0.004183 
-0.000000 
-0.000328 
-0.001188 
-0.002336 
0.003194 
0.012748 
-0.000000 
0.004660 
-0.000700 
0.154866 
0.012100 
-0.000175 
0.018751 
-0.005347 
0.003706 
0.042720 
0.042704 
-0.000000 
0.011480 
-0.001792 
-0.000000 
-0.000342 
-0.000490 
-0.004215 
-0.001899 
0.000153 
-0.000000 
0.000563 
0.000083 
0.015164 
-0.000336 
-0.000027 
-0.041351 
-0.000006 
0.001866 
0.039431 
0.007445 
-0.000000 
0.010595 
-0.000516 
-0.000000 
-0.000041 
0.000089 
-0.004189 
0.003066 
0.012988 
-0.000000 
0.011289 
0.002417 
0.174493 
0.013857 
-0.000239 
0.020020 
-0.005382 
0.006079 
0.042720 
0.053401 
-0.000000 
0.011480 
-0.003141 
-0.000000 
-0.000362 
-0.001511 
-0.004215 
-0.000096 
0.000159 
0.000000 
0.000005 
0.000002 
0.000292 
0.000149 
0.000000 
-0.039527 
-0.000010 
0.000164 
0.038601 
0.000766 
-0.000000 
0.010380 
0.000015 
-0.000000 
-0.000001 
-0.000001 
-0.001370 
-0.003306 
0.001592 
-0.000000 
0.010945 
0.006346 
0.116908 
0.001743 
-0.000131 
0.008581 
0.000401 
0.005035 
0.000006 
0.036958 
-0.000000 
0.000002 
-0.003109 
0.000000 
-0.000092 
-0.001392 
-0.000019 
0.003819 
0.013346 
-0.000000 
0.003982 
0.003172 
0.118341 
0.011369 
-0.000077 
0.022970 
-0.000241 
0.001927 
0.042712 
0.033596 
-0.000000 
0.011478 
-0.000152 
0.000000 
-0.000221 
-0.000477 
-0.004209 
0.003094 
0.012976 
-0.000000 
0.011280 
0.002409 
0.173922 
0.013861 
-0.000239 
0.042335 
-0.005383 
0.005902 
0.020217 
0.052913 
-0.000000 
0.005435 
-0.003134 
-0.000000 
-0.000361 
-0.001510 
-0.003339 
0.003157 
0.012937 
-0.000000 
0.011267 
0.002405 
0.173215 
0.013843 
-0.000238 
0.053636 
-0.005388 
0.005843 
0.009896 
0.051878 
-0.000000 
0.002658 
-0.003126 
-0.000000 
-0.000359 
-0.001509 
-0.002403 
-0.000137 
-0.000000 
-0.006635 
0.025450 
-0.000001 
-0.046975 
0.014016 
-0.000001 
0.000986 
-0.000499 
-0.000003 
-0.014355 
-0.000590 
0.002882 
-0.000506 
-0.032739 
0.007977 
-0.001097 
-0.000007 
0.000000 
0.000000 
-0.000000 
-0.000000 
0.000000 
-0.000000 
0.000000 
0.000000 
-0.000000 
0.000000 
0.000000 
-0.000939 
-0.014355 
-0.006940 
0.093210 
-0.000510 
-0.056048 
0.022634 
-0.001100 
0.007332 
-0.013216 
-0.000000 
0.000000 
-0.000016 
-0.000375 
0.000000 
0.000004 
-0.000001 
0.000000 
0.000332 
0.000024 
-0.000671 
0.000001 
0.000014 
0.036514 
-0.000005 
0.000539 
0.002679 
-0.000001 
0.004928 
-0.007563 
-0.000033 
-0.000000 
-0.005891 
0.018493 
-0.000000 
-0.017862 
0.005130 
-0.000000 
0.001328 
-0.000434 
-0.000627 
0.000000 
0.000086 
0.067236 
-0.000000 
0.000844 
0.008331 
-0.000000 
0.007764 
-0.013250 
-0.000263 
-0.005494 
-0.003718 
0.013216 
-0.000008 
-0.029158 
0.007894 
0.000027 
0.000000 
0.000007 
-0.000020 
-0.000000 
-0.002332 
0.007261 
-0.000000 
-0.002751 
0.000734 
-0.000000 
0.000009 
0.000009 
0.001070 
0.000882 
-0.008869 
0.024607 
0.000105 
0.001794 
0.007075 
-0.001096 
0.000036 
0.000173 
0.000027 
-0.003929 
0.000016 
-0.000004 
-0.000157 
-0.001543 
0.000003 
-0.000011 
0.000000 
0.000000 
0.000133 
-0.000095 
0.000057 
0.026378 
-0.000245 
0.000700 
0.005812 
-0.000178 
0.002888 
-0.005028 
0.000000 
-0.000000 
-0.000000 
-0.000000 
-0.000000 
-0.000000 
0.000000 
-0.000000 
0.000000 
0.000000 
0.000010 
-0.001418 
0.000006 
-0.000002 
-0.000072 
-0.000557 
0.000001 
-0.000007 
0.000000 
0.000000 
-0.000105 
0.000000 
-0.000199 
-0.017127 
0.000000 
-0.000727 
0.000451 
0.000000 
0.007305 
-0.000176 
-0.000000 
-0.000000 
-0.000000 
0.000000 
0.000000 
-0.000000 
0.000000 
-0.000000 
0.000000 
-0.000000 
-0.000631 
-0.000000 
0.000085 
0.067294 
-0.000000 
0.000876 
0.008307 
-0.000000 
0.007790 
-0.013200 
0.000170 
-0.000000 
0.000012 
-0.001241 
-0.000000 
-0.000008 
0.001237 
-0.000000 
0.000415 
0.000016 
-0.001010 
-0.000054 
-0.007134 
0.092891 
-0.000185 
-0.051153 
0.022822 
-0.000107 
0.007794 
-0.013190 
-0.000011 
0.025655 
0.000026 
-0.000265 
-0.003155 
0.012130 
0.036909 
-0.000008 
-0.002990 
0.026693 
0.036960 
-0.000254 
-0.001554 
-0.005508 
0.020995 
0.000186 
-0.003155 
0.025313 
0.036909 
-0.000114 
-0.003194 
0.023703 
0.036728 
-0.000495 
-0.000653 
0.011803 
-0.002158 
-0.000265 
-0.003155 
0.026653 
0.036909 
-0.000253 
-0.002182 
0.025315 
0.040325 
-0.000265 
0.000046 
0.025313 
0.003061 
-0.000265 
0.000817 
-0.005504 
-0.005014 
-0.021790 
