-0.074500 
0.009904 
-0.235586 
-0.103338 
-0.036419 
-0.065648 
0.011778 
-0.243163 
-0.104730 
-0.035302 
-0.000427 
0.001081 
0.000361 
-0.009340 
-0.018201 
-0.002096 
-0.000204 
-0.003928 
0.004692 
-0.000760 
-0.000235 
0.000369 
0.000193 
-0.000189 
0.000097 
0.000163 
0.000017 
0.005063 
0.000346 
0.000130 
-0.003370 
-0.007564 
-0.004316 
0.000009 
-0.000216 
0.002829 
-0.005719 
0.000595 
-0.003385 
-0.002010 
-0.000426 
-0.005669 
-0.000261 
-0.000425 
0.000089 
-0.000899 
-0.004337 
-0.002265 
-0.000932 
-0.001099 
-0.000330 
-0.001837 
0.000279 
-0.000273 
0.000065 
0.000235 
-0.002191 
-0.000231 
0.001641 
0.000187 
0.015111 
0.004768 
-0.000122 
-0.000187 
-0.000061 
-0.000208 
0.001714 
0.001338 
-0.000153 
-0.000002 
0.012193 
0.011496 
-0.003635 
0.000374 
-0.007108 
-0.005089 
-0.003701 
-0.000480 
-0.008346 
-0.003885 
0.006317 
0.013440 
-0.005128 
0.000361 
0.000209 
-0.006071 
-0.000698 
-0.000014 
-0.006755 
0.000301 
-0.000116 
-0.001218 
0.001487 
0.000505 
0.000293 
0.000407 
-0.000972 
0.000406 
0.002921 
0.000420 
-0.000184 
-0.000015 
-0.000099 
-0.000148 
-0.000257 
-0.000153 
-0.000492 
-0.000401 
-0.000038 
0.000017 
0.004758 
0.001793 
-0.000292 
0.000249 
0.000145 
-0.005482 
-0.000483 
-0.000833 
-0.001611 
0.000208 
0.000118 
0.012987 
-0.004899 
-0.006202 
-0.008199 
-0.006216 
-0.001096 
0.000831 
-0.009684 
-0.004478 
-0.004065 
-0.003105 
-0.000066 
0.004558 
-0.000033 
-0.000112 
0.002932 
-0.002885 
0.006637 
-0.000001 
0.001678 
0.003258 
-0.001053 
0.000357 
-0.001511 
-0.001975 
-0.006985 
-0.001655 
-0.003201 
-0.000786 
0.010443 
0.001333 
-0.000062 
0.000130 
0.000076 
-0.000106 
-0.000253 
0.000088 
-0.006461 
0.000109 
-0.000183 
0.000235 
0.012485 
0.000285 
-0.000012 
-0.000043 
0.000000 
-0.000347 
-0.000620 
-0.000039 
0.000791 
0.000279 
0.000013 
0.000266 
-0.000372 
0.000415 
-0.000271 
0.000057 
-0.000145 
0.000433 
-0.001393 
-0.001340 
0.001443 
-0.001829 
-0.000249 
-0.001884 
-0.000000 
-0.000158 
-0.000045 
0.000093 
-0.000945 
0.000000 
0.000980 
-0.001349 
-0.000914 
-0.001571 
-0.001151 
0.008268 
0.000324 
-0.000340 
-0.000928 
-0.001086 
0.000019 
-0.000180 
0.000206 
-0.001492 
0.000000 
-0.000088 
0.000031 
0.000062 
-0.000253 
-0.000000 
0.004682 
-0.001083 
-0.000033 
-0.001216 
-0.000875 
0.006416 
0.000862 
0.000943 
0.000142 
0.000117 
0.000023 
0.000055 
0.000292 
0.000109 
0.000000 
0.000759 
-0.002255 
-0.000019 
0.000079 
0.000197 
-0.000370 
0.000172 
0.000013 
0.003752 
0.000353 
-0.000177 
-0.000255 
-0.000261 
-0.002420 
0.000087 
0.000007 
0.000043 
0.000073 
0.000082 
-0.000000 
-0.000030 
-0.000041 
-0.000014 
-0.001407 
-0.000000 
0.004887 
0.000130 
0.000010 
-0.003405 
-0.001312 
-0.000133 
0.000661 
-0.000196 
-0.003223 
-0.000963 
0.000028 
-0.000284 
0.000321 
-0.003753 
0.000000 
-0.000135 
-0.000473 
0.000093 
-0.001665 
-0.000000 
0.004899 
-0.001480 
-0.000050 
-0.000894 
-0.000535 
0.008648 
0.002249 
0.004093 
0.001625 
0.000057 
0.000838 
0.000031 
-0.000285 
0.000054 
0.000000 
-0.000091 
0.000140 
-0.000009 
0.000543 
-0.000000 
0.000078 
0.000087 
0.000007 
0.000671 
0.000120 
-0.000089 
-0.003639 
-0.000128 
0.000179 
-0.000034 
0.000701 
0.000546 
0.000754 
-0.000059 
0.000000 
0.000124 
0.000731 
-0.000019 
0.000340 
0.000012 
0.000626 
-0.000034 
-0.000015 
0.000371 
0.000088 
-0.000197 
-0.000316 
-0.000681 
-0.004990 
-0.001232 
0.000020 
0.003485 
0.000476 
-0.005363 
0.000000 
0.000483 
0.001323 
0.000155 
0.003727 
0.000797 
-0.001021 
-0.002019 
-0.001093 
0.002847 
-0.000799 
0.012319 
0.003724 
-0.003793 
-0.009817 
0.000200 
0.000001 
0.000099 
0.000006 
0.000186 
-0.000000 
-0.000002 
-0.000149 
-0.000032 
-0.005388 
-0.000000 
0.008407 
0.000296 
0.000023 
-0.011995 
-0.000178 
-0.000304 
0.006471 
-0.000447 
0.000121 
-0.000214 
0.000718 
-0.000006 
0.000055 
0.008206 
0.000148 
-0.000201 
-0.001924 
-0.004089 
0.000165 
-0.001551 
-0.000158 
-0.000008 
0.000074 
0.012410 
-0.006995 
-0.000005 
-0.000001 
-0.001714 
-0.000021 
-0.000002 
0.000125 
-0.003161 
-0.000004 
0.001982 
-0.000017 
0.000015 
-0.001043 
-0.000005 
0.000060 
0.001427 
-0.000058 
-0.000003 
0.000027 
0.001168 
-0.001648 
-0.000004 
-0.000000 
-0.000154 
-0.000194 
-0.000009 
-0.000000 
-0.000101 
-0.000029 
-0.003129 
-0.000153 
0.000146 
-0.000244 
-0.000049 
0.000148 
-0.000104 
-0.000143 
-0.000008 
0.000067 
0.008218 
0.005634 
-0.000005 
-0.000001 
-0.000258 
0.000367 
-0.001734 
-0.003847 
-0.000013 
0.000161 
0.012805 
-0.010267 
0.000774 
-0.003206 
-0.007201 
-0.000393 
0.002781 
0.000255 
0.000451 
0.000118 
-0.000948 
-0.003427 
0.000172 
-0.000489 
-0.000147 
0.000584 
-0.004892 
-0.000662 
0.000008 
-0.000132 
-0.001618 
0.002456 
0.000116 
0.001075 
0.001226 
0.000015 
-0.000012 
-0.000013 
-0.000000 
0.000006 
0.000057 
0.000174 
0.000000 
0.000000 
-0.000014 
0.000173 
0.002675 
0.004053 
-0.000009 
0.000078 
0.000322 
-0.004466 
-0.000917 
-0.005060 
-0.010109 
-0.000814 
0.008344 
0.000439 
0.001820 
-0.000193 
-0.003157 
-0.011992 
0.000518 
-0.001345 
-0.000208 
-0.001534 
-0.000146 
0.000584 
-0.000818 
0.000298 
0.001605 
0.002478 
-0.000105 
-0.000247 
0.000161 
0.000129 
-0.000130 
-0.000124 
-0.000007 
0.000058 
0.001819 
-0.002838 
-0.000005 
-0.000001 
-0.000278 
0.000019 
-0.000926 
-0.000018 
-0.000001 
0.000009 
0.020487 
0.003064 
-0.000005 
-0.000000 
-0.000016 
-0.000640 
0.001624 
-0.007545 
0.000898 
-0.000933 
-0.001854 
-0.001003 
0.001829 
0.000633 
0.001161 
-0.001099 
-0.000733 
0.000437 
0.000769 
-0.001831 
0.012673 
0.003810 
0.000034 
-0.001275 
-0.000688 
0.000282 
-0.000896 
-0.000255 
-0.000008 
0.000122 
0.004430 
-0.002139 
-0.000001 
0.000000 
-0.001301 
-0.000059 
-0.000167 
-0.002754 
0.000034 
-0.000340 
0.001618 
-0.000081 
0.000505 
0.000164 
0.000111 
0.000147 
0.003052 
-0.000128 
-0.000002 
0.000062 
0.001282 
-0.003894 
-0.000000 
0.000001 
-0.001267 
0.002963 
-0.001827 
0.000010 
-0.001697 
0.000167 
-0.000568 
-0.003858 
-0.004892 
-0.000474 
0.000286 
0.000539 
-0.000093 
0.002064 
-0.001530 
-0.000019 
-0.002579 
-0.000025 
0.000050 
0.000077 
-0.002585 
-0.000179 
0.000243 
0.001283 
-0.002062 
0.001702 
-0.001425 
-0.000081 
-0.001864 
0.000078 
-0.000031 
0.000597 
-0.000711 
-0.000228 
0.000041 
-0.005198 
-0.001659 
-0.000001 
-0.000044 
-0.002681 
-0.001331 
-0.166654 
0.000849 
-0.151971 
-0.142234 
