4.517443 
6.356678 
6.246583 
5.367679 
5.880255 
-6.668133 
-7.736601 
-7.941448 
-6.531129 
-7.076039 
13.407091 
10.155721 
10.598725 
-7.613263 
-7.025439 
12.827433 
11.078183 
11.660099 
11.780086 
10.211190 
12.650519 
14.384936 
13.402279 
-7.491515 
-7.849771 
12.312847 
11.306834 
15.069480 
12.614807 
12.114571 
9.519506 
12.057756 
11.329308 
-9.396803 
-7.349479 
11.765915 
13.984879 
10.277711 
11.374762 
12.200227 
9.580772 
9.155536 
9.447786 
-9.656407 
-7.569014 
11.854176 
8.949623 
12.182672 
12.163070 
12.390527 
12.577439 
12.982972 
8.812698 
-8.351061 
-6.753445 
11.986636 
5.778068 
10.124079 
10.087986 
11.667527 
-4.218848 
-2.755052 
3.190504 
4.482560 
4.133665 
6.531644 
-3.074726 
-3.820917 
5.219631 
1.513793 
-3.543500 
-3.182711 
3.976346 
4.174013 
3.308081 
2.713350 
-4.085921 
-2.290267 
4.246921 
4.658380 
-0.793378 
-2.431458 
2.245711 
3.273484 
1.362745 
2.547872 
-2.245691 
-1.449660 
3.535136 
1.410784 
-0.690286 
-0.668639 
-1.986159 
-3.219502 
-0.391474 
-2.084005 
-0.081827 
0.161263 
-1.468269 
-4.874569 
0.924548 
-1.126034 
-2.160381 
-2.228204 
-3.494770 
-2.543197 
-0.299093 
3.421238 
-1.651953 
-3.111880 
-2.429797 
-1.765284 
3.128612 
3.010271 
1.731667 
3.271959 
-2.308193 
-0.810438 
4.840939 
2.975605 
-2.154028 
-1.367969 
2.202022 
2.546600 
2.920173 
1.874094 
-1.642281 
-1.499850 
3.342066 
2.636884 
-1.911909 
-4.442344 
5.507667 
6.114703 
7.966886 
6.239662 
-4.776391 
-4.758246 
5.509931 
3.237863 
-3.769353 
-2.907152 
5.180814 
3.397208 
3.621831 
4.646823 
-4.357090 
-3.560697 
5.843050 
4.067948 
-4.885811 
-4.024989 
6.529630 
5.371539 
4.107773 
4.705584 
-2.315454 
-4.668900 
4.235694 
4.089194 
-8.757176 
-2.480553 
6.606634 
-8.828739 
4.643537 
-8.631421 
11.535180 
-7.770760 
-4.463917 
6.369183 
-9.322520 
8.295451 
4.763463 
-6.305268 
-5.279698 
-8.850426 
-6.067053 
4.886489 
5.669341 
3.560298 
-7.618226 
-4.846010 
7.666801 
-7.912869 
5.684686 
-10.374885 
8.975925 
-2.924347 
-0.472124 
3.505005 
-7.111407 
7.449085 
4.881949 
-10.866741 
-9.461167 
-7.660696 
-4.237654 
6.464400 
4.154489 
7.416544 
2.168957 
1.729968 
-0.983930 
1.406542 
-1.835648 
0.481677 
13.818963 
1.652699 
1.289869 
-1.672544 
0.834330 
13.304464 
-0.330792 
2.703809 
1.041624 
1.366064 
3.653727 
-2.433696 
-2.009978 
-2.045516 
2.617099 
2.064981 
-1.794085 
0.729252 
-2.985486 
3.476934 
19.269096 
2.450672 
1.958796 
-3.731390 
1.122366 
8.171427 
-3.391593 
0.712064 
1.661666 
1.219112 
2.058538 
-2.120733 
-3.021725 
-3.376709 
1.522808 
1.336688 
-1.873344 
1.130490 
-2.528301 
2.541044 
23.166400 
1.924771 
-1.738891 
-4.913829 
4.024692 
7.802029 
-3.230827 
1.131582 
1.182494 
2.778021 
2.715057 
0.192202 
-2.627268 
-2.343341 
0.001396 
3.581914 
-1.676485 
3.588656 
-1.307891 
-0.644805 
26.151392 
2.585692 
1.549555 
-1.497259 
3.491351 
21.648067 
-2.696185 
2.781251 
-1.428298 
1.822374 
2.570873 
-3.022913 
-1.904415 
-1.773093 
-7.417107 
-5.831438 
4.583519 
-11.015576 
7.828912 
-8.281258 
13.558651 
-9.646548 
-4.653027 
4.886245 
-8.243724 
10.374910 
6.116156 
-8.513941 
-6.343521 
-8.155925 
-6.264050 
9.036181 
3.824375 
6.028136 
-9.453721 
-6.944581 
9.725950 
-7.845500 
4.255220 
-9.631431 
15.654403 
-10.777497 
-4.091072 
5.611050 
-6.067653 
9.439075 
4.515452 
-7.794085 
-7.830905 
-7.956613 
-7.617272 
8.504260 
7.095267 
7.013877 
1.749954 
4.049788 
-1.258060 
1.268620 
-2.183451 
1.324088 
24.595940 
3.244139 
0.567797 
-2.371218 
2.136430 
5.134177 
-3.067877 
2.193762 
0.163266 
2.764457 
1.421120 
-3.021203 
-2.286526 
-2.151724 
0.943540 
1.844907 
-1.691018 
0.421255 
-0.892990 
-0.074613 
25.889352 
1.788946 
-2.497745 
-2.035486 
2.201183 
3.325351 
-0.980589 
1.687763 
1.146834 
1.711619 
3.943190 
-0.436160 
-0.195087 
-2.571366 
4.011261 
-0.948437 
-3.246194 
3.053307 
1.812455 
-2.849485 
-2.065009 
2.708166 
3.789523 
1.536351 
1.396790 
3.154571 
-3.338749 
1.036700 
2.535341 
0.887054 
-3.104808 
-1.968692 
-0.033538 
3.569417 
-5.347268 
-0.472348 
1.429078 
-4.817898 
-3.178643 
4.425358 
7.960009 
-5.298878 
-4.668999 
-4.213368 
3.850488 
3.460389 
-0.980691 
2.416329 
1.322602 
-2.052292 
-5.065633 
4.122860 
-1.355483 
2.518811 
-3.791249 
-6.349914 
5.214520 
-2.720973 
-3.549080 
4.854579 
3.956651 
-3.383823 
-3.645765 
-6.951631 
2.363441 
3.619187 
-1.048621 
0.779254 
4.669839 
-2.123568 
-1.384455 
0.031306 
0.728573 
-0.682345 
0.026556 
-1.198552 
0.865977 
-0.273087 
-1.149086 
0.009733 
0.879904 
-1.815202 
-0.059790 
-0.345394 
2.101713 
0.691493 
0.561550 
1.790032 
0.365243 
-1.256830 
-0.606506 
2.481530 
0.449762 
1.823599 
1.641703 
1.872018 
0.436470 
1.948361 
0.565265 
-2.287862 
-0.329951 
2.240971 
-3.262278 
-0.691997 
-3.848009 
-5.016819 
0.619620 
-4.917128 
-2.698413 
4.350627 
5.420938 
-4.585587 
-2.966319 
-5.652459 
2.328599 
3.573627 
-1.156113 
2.071100 
0.985597 
-0.303859 
-1.291699 
-1.048594 
-1.135087 
3.579459 
0.342663 
0.266765 
1.047101 
-0.118389 
-1.575297 
-0.642457 
1.175418 
-0.785421 
-0.010580 
-1.068374 
-3.884895 
-6.646465 
4.073733 
-5.510464 
-2.320429 
3.262184 
6.099698 
-4.287010 
-1.592787 
-4.666865 
4.482059 
3.176294 
-4.392730 
2.410835 
1.288416 
-1.182180 
-1.979124 
1.902790 
-0.621870 
2.369684 
0.462259 
-0.590578 
-1.018345 
0.520180 
4.105833 
-0.970751 
-0.293626 
-1.289804 
1.164329 
3.638449 
2.041692 
2.477083 
-2.301165 
4.863753 
2.099081 
-0.598658 
-1.829532 
3.437788 
3.969951 
1.288275 
0.167438 
3.420835 
-1.348871 
3.082299 
1.560997 
0.599148 
-0.252161 
2.012105 
4.858978 
0.703253 
-4.320525 
-4.011753 
6.371525 
-5.035786 
-4.248534 
5.089584 
6.260024 
-1.063496 
-5.553946 
-5.836946 
-5.875753 
-2.903966 
4.366169 
-5.996035 
-2.952277 
5.397237 
5.385826 
-3.391785 
-5.021888 
-4.148495 
-4.286447 
-4.012997 
7.123070 
-3.767756 
-5.044530 
2.579715 
3.587625 
-5.961520 
-3.715405 
-5.121341 
5.708192 
-1.255417 
6.569686 
1.295668 
6.027423 
-2.459697 
3.105419 
4.521433 
-9.994098 
6.685111 
-10.467847 
-8.792644 
-0.779713 
-5.832795 
3.117273 
5.977963 
7.317240 
-4.701540 
4.091457 
6.832624 
-8.809398 
5.619604 
-11.831200 
-10.248313 
-9.446641 
6.603883 
-10.562599 
-10.673415 
4.117296 
-6.514219 
2.845105 
6.211894 
7.569577 
-6.058219 
3.405672 
3.744438 
6.453484 
-4.792810 
6.552262 
1.711675 
1.461594 
-3.203062 
1.852100 
0.975428 
