0.456680 
0.157926 
0.352350 
0.243075 
-0.066881 
0.468967 
0.167318 
0.364422 
0.266867 
-0.061201 
-0.001162 
0.004274 
-0.031665 
0.004889 
0.016198 
0.001909 
0.017870 
-0.001791 
0.010042 
0.012782 
-0.001247 
0.003130 
-0.019163 
0.003655 
0.011951 
0.000892 
0.010785 
-0.000759 
0.006295 
0.007514 
-0.001186 
0.003572 
-0.026234 
0.004171 
0.013683 
0.001620 
0.014766 
-0.001407 
0.008328 
0.010530 
-0.003239 
0.015978 
-0.056205 
0.013523 
0.051151 
0.000040 
0.029871 
-0.001081 
0.019979 
0.019020 
-0.002667 
0.000268 
-0.020782 
0.000996 
0.002449 
0.010142 
0.004302 
-0.001237 
0.005054 
0.003377 
0.011244 
-0.003106 
0.005707 
-0.001003 
0.001638 
0.022540 
0.004749 
0.005073 
0.043726 
-0.000273 
0.005912 
-0.000445 
0.001993 
-0.000034 
-0.000001 
0.011051 
0.000004 
-0.000000 
0.007180 
0.000000 
0.002213 
-0.000676 
0.000911 
-0.003490 
-0.000132 
0.004062 
0.000482 
0.002285 
0.007336 
-0.000117 
0.007750 
-0.000622 
0.002730 
-0.000057 
-0.000002 
0.014183 
0.000032 
-0.000001 
0.013558 
0.000000 
0.005549 
-0.000347 
0.001518 
-0.000011 
-0.000001 
0.009851 
0.000000 
-0.000000 
0.003636 
0.000000 
0.011287 
-0.003211 
0.005712 
-0.003852 
0.000439 
0.022610 
0.006697 
0.001592 
0.044108 
-0.000108 
0.001466 
-0.001091 
0.001603 
-0.000140 
0.000804 
0.003857 
0.002032 
0.002142 
0.016602 
-0.000155 
0.011230 
-0.002076 
0.005238 
-0.000878 
0.000002 
0.022306 
0.003619 
0.000043 
0.034395 
0.000007 
0.005281 
-0.001722 
0.003621 
-0.000224 
-0.000002 
0.011944 
0.003564 
0.000091 
0.029316 
-0.000000 
0.001852 
-0.001061 
0.001740 
-0.000230 
0.000602 
0.004569 
0.001810 
0.002040 
0.016973 
-0.000162 
0.000000 
-0.000581 
-0.000000 
-0.000027 
-0.000000 
0.000000 
-0.000003 
-0.000000 
-0.000000 
-0.000000 
-0.000000 
0.000000 
-0.000000 
-0.000000 
0.000001 
-0.000000 
-0.000001 
-0.000571 
-0.000045 
0.000000 
-0.000005 
-0.000210 
0.000370 
-0.000034 
-0.000132 
-0.000007 
0.000073 
0.000030 
-0.000012 
-0.000394 
-0.000084 
-0.000295 
-0.000849 
-0.000280 
0.001830 
-0.000447 
0.000022 
-0.000011 
-0.001098 
0.000303 
0.000001 
-0.003828 
-0.000041 
-0.000263 
-0.000000 
0.000002 
-0.000017 
-0.000001 
-0.000001 
-0.000000 
-0.000000 
-0.000001 
-0.000000 
-0.000000 
0.000005 
-0.000000 
-0.000009 
-0.003520 
-0.000203 
0.000000 
-0.000021 
-0.012472 
-0.000644 
-0.000487 
-0.000035 
0.000016 
0.000053 
-0.000001 
-0.000035 
-0.000393 
-0.000086 
-0.000287 
-0.000872 
-0.000112 
0.001705 
-0.000108 
-0.000001 
-0.006846 
-0.001306 
0.000073 
0.000020 
-0.012490 
-0.000993 
-0.000505 
-0.000128 
0.000010 
0.000003 
0.000049 
-0.000025 
-0.000146 
-0.000007 
-0.000163 
-0.000147 
-0.000218 
0.000628 
-0.000440 
-0.000007 
-0.006864 
-0.000529 
0.000298 
0.000000 
-0.002022 
-0.000004 
-0.000225 
-0.000000 
0.000000 
-0.000011 
-0.000001 
-0.000000 
-0.000000 
-0.000000 
0.000000 
-0.000000 
-0.000000 
0.000003 
-0.000000 
-0.000005 
-0.001860 
-0.000134 
0.000000 
-0.000093 
-0.003065 
-0.000451 
-0.000000 
-0.000001 
-0.000001 
0.000046 
0.000027 
-0.000018 
-0.000076 
-0.000123 
0.000094 
-0.001040 
0.000002 
-0.000000 
-0.000000 
0.000013 
-0.000074 
-0.000000 
0.000000 
-0.000035 
-0.012476 
-0.000792 
-0.000506 
-0.000131 
0.000010 
0.000022 
0.000054 
-0.000026 
-0.000084 
-0.000106 
0.000004 
-0.000890 
-0.000224 
0.000201 
-0.000446 
-0.000003 
-0.006849 
-0.000275 
0.000301 
-0.000022 
-0.004164 
-0.000304 
-0.000047 
-0.000000 
0.000011 
0.000009 
0.000000 
-0.000007 
-0.000058 
0.000000 
-0.000037 
0.000001 
0.000000 
0.000000 
-0.000000 
0.000008 
-0.002137 
0.000004 
0.000000 
-0.000099 
0.000076 
0.000406 
-0.000000 
0.000000 
0.000000 
0.000053 
0.000007 
-0.000003 
-0.000086 
-0.000149 
0.000106 
-0.001237 
-0.000021 
0.000092 
-0.000000 
0.000024 
0.000067 
-0.000080 
0.000000 
0.000000 
0.000010 
0.000010 
0.000018 
0.000205 
0.000000 
0.000600 
0.000000 
-0.000004 
0.000011 
0.002782 
0.000159 
-0.000431 
0.000019 
0.000234 
0.000066 
0.000663 
0.000582 
-0.003191 
0.000168 
0.000001 
0.000011 
-0.000147 
0.000019 
0.000234 
0.000000 
0.000663 
0.000000 
0.000536 
0.000168 
0.000022 
0.000038 
-0.002147 
0.000018 
0.000233 
0.000001 
0.000663 
0.000012 
-0.005531 
0.000163 
0.003912 
0.000228 
-0.002214 
0.000000 
0.000005 
0.000092 
-0.000002 
0.000839 
-0.006304 
0.000027 
0.000000 
0.000028 
-0.002148 
0.000018 
0.000234 
0.000000 
0.000663 
0.000000 
-0.005069 
0.000167 
0.000002 
0.000011 
0.000026 
0.000018 
0.000224 
0.000000 
0.000636 
0.000001 
0.000705 
0.000168 
0.000000 
0.000010 
0.000009 
0.000021 
0.000232 
0.000000 
0.000652 
0.000000 
-0.000069 
0.000158 
0.003912 
0.000228 
-0.002158 
0.000002 
0.000019 
0.000092 
0.000029 
0.000839 
-0.006362 
0.000133 
0.003912 
0.000229 
-0.002166 
0.000005 
0.000064 
0.000092 
0.000195 
0.000839 
-0.005467 
0.000002 
0.000000 
0.000010 
0.000000 
0.000020 
0.000198 
0.000000 
0.000615 
0.000000 
-0.000083 
-0.000000 
0.003910 
0.000229 
-0.002195 
0.000005 
0.000094 
0.000092 
0.000219 
0.000839 
-0.006202 
0.000144 
0.000000 
0.000004 
0.000001 
0.000000 
0.000010 
0.000000 
0.000044 
0.000000 
0.000414 
0.000000 
0.003912 
0.000238 
-0.002147 
0.000018 
0.000228 
0.000092 
0.000660 
0.000839 
-0.005540 
0.000097 
0.000001 
0.000008 
0.000001 
0.000016 
0.000157 
0.000000 
0.000457 
0.000000 
-0.000066 
0.000097 
0.003912 
0.000239 
-0.002147 
0.000018 
0.000223 
0.000092 
0.000664 
0.000839 
-0.005553 
0.000048 
0.000003 
0.000011 
0.000017 
0.000019 
0.000234 
0.000000 
0.000663 
0.000001 
0.000738 
0.000167 
0.002359 
0.000145 
-0.002137 
0.000018 
0.000234 
0.000058 
0.000663 
0.000547 
-0.004410 
0.000168 
0.003826 
0.000232 
-0.002153 
-0.000001 
0.000019 
0.000090 
0.000077 
0.000826 
-0.005551 
0.000000 
-0.000000 
0.000011 
0.000066 
0.000018 
0.000224 
-0.000000 
0.000663 
-0.000000 
0.000751 
0.000084 
0.000000 
-0.001026 
-0.000002 
-0.000002 
-0.000001 
-0.000311 
-0.000018 
-0.000001 
-0.000087 
-0.000079 
-0.000024 
-0.000273 
-0.000002 
0.000049 
0.000066 
-0.000175 
-0.000006 
-0.000391 
-0.000046 
-0.000252 
0.000000 
-0.000007 
-0.000003 
-0.000000 
-0.000005 
-0.000444 
-0.000070 
-0.000221 
0.000001 
-0.000855 
-0.000002 
-0.000001 
-0.000018 
-0.004631 
-0.000203 
-0.000634 
-0.000005 
-0.000026 
-0.000002 
-0.000020 
-0.013509 
-0.002602 
-0.011351 
-0.002250 
