0.557033 
-4.091534 
-4.086701 
2.483774 
5.713980 
6.264675 
-1.291764 
-1.383020 
4.277853 
0.921142 
-5.819122 
4.393572 
-6.049911 
7.113117 
1.531713 
7.084678 
0.743009 
5.459913 
7.251865 
4.492578 
4.174767 
-5.083866 
3.603289 
-3.930391 
7.539982 
-3.477320 
7.716801 
-4.544041 
-3.429387 
-4.868277 
4.667923 
-5.220382 
3.560316 
-4.196228 
7.474831 
-3.959943 
7.092777 
-4.028690 
-4.223155 
-5.213143 
-4.376982 
4.406584 
-4.902812 
3.148336 
-2.125155 
3.955677 
-1.839902 
3.435410 
3.728775 
4.748824 
-4.662997 
5.248298 
-3.584211 
0.148052 
-6.610670 
-0.605011 
-6.585876 
1.906286 
-0.549903 
5.610600 
5.688631 
-0.378647 
-4.006853 
-2.920025 
5.286326 
-8.211923 
3.821756 
-4.776056 
8.874056 
7.460280 
8.305802 
1.121051 
4.421706 
3.330381 
7.868369 
1.252738 
-0.910522 
3.829621 
-2.836930 
-2.385705 
7.621423 
2.156462 
-8.172393 
-5.058215 
8.809093 
-12.136882 
6.888850 
-8.487127 
9.997893 
10.342877 
7.081257 
-2.692226 
6.254751 
0.726308 
7.385836 
3.675631 
-4.798732 
3.778800 
-1.818931 
-1.702797 
4.404551 
-9.223269 
-3.399466 
-9.431590 
3.800472 
-3.782279 
-1.114049 
-5.410910 
11.677355 
8.358428 
7.292208 
-3.345700 
6.302009 
0.912284 
7.165471 
4.244867 
-5.510748 
4.128518 
-1.477035 
-1.462814 
4.406524 
-6.944238 
-2.526735 
-9.377052 
4.291543 
-4.054594 
-0.395733 
-5.254228 
11.851043 
8.513926 
7.701238 
-0.682044 
4.896433 
2.257824 
7.266746 
2.992463 
-3.530984 
3.575903 
-2.397423 
-1.714118 
6.993784 
-3.667272 
6.034294 
0.645122 
6.446964 
3.827905 
-4.747279 
3.546621 
-1.299947 
-1.730916 
7.236750 
1.438720 
4.130553 
4.185364 
7.278310 
0.805606 
-1.408504 
3.885724 
-2.687375 
-2.504187 
1.467159 
-0.204748 
-1.910988 
1.190985 
-0.223530 
-1.329519 
0.059709 
-1.553388 
2.310124 
-0.617749 
2.671831 
-0.125942 
-0.698313 
-3.614794 
-0.732556 
-0.855319 
-2.676774 
-1.572813 
-1.172278 
-2.012417 
-5.715515 
-8.110140 
-0.777341 
3.936043 
-0.568160 
9.968830 
-1.904567 
13.246059 
-17.918699 
-5.582447 
-8.385526 
-3.627322 
9.789632 
-0.914803 
1.124335 
-2.197435 
-2.700829 
11.268273 
-0.666186 
0.908604 
0.624988 
6.220298 
-2.053932 
10.985713 
-8.648285 
-2.580933 
0.861915 
-7.630944 
2.762829 
-0.213113 
4.268339 
4.614113 
-0.867198 
-6.149920 
3.876207 
-7.543833 
-1.873561 
-7.740473 
-4.512768 
-7.341937 
-6.454033 
4.292942 
-6.271086 
8.978496 
-12.025492 
0.964336 
-8.663135 
-2.878647 
0.672486 
-10.595971 
-5.800075 
4.652716 
0.161222 
-4.425747 
3.382787 
-13.359363 
-2.904775 
-5.618666 
-2.865332 
-4.623426 
1.314648 
-0.314103 
-1.853266 
1.422037 
-1.065635 
-1.922845 
0.641580 
-1.048821 
1.723724 
-0.222795 
2.737395 
0.145377 
-0.405171 
-3.625486 
-0.463210 
-0.800380 
-2.487990 
-1.886355 
-0.672803 
-2.289267 
-5.862825 
9.836864 
-3.991283 
14.313067 
-9.805543 
-6.054326 
-5.763692 
-9.304384 
2.471105 
-5.182530 
4.920473 
5.375203 
-2.402636 
-5.888001 
4.773788 
-8.490045 
-2.462250 
-10.104780 
-5.302509 
-6.781631 
0.132634 
-7.948904 
-2.009701 
-0.846548 
3.260811 
1.832682 
-1.288190 
8.467159 
-0.585614 
-2.638738 
-2.313104 
-17.773616 
-1.434539 
-1.990187 
-11.416689 
1.304903 
-2.916589 
7.357067 
1.446409 
2.050478 
-1.163905 
5.464046 
-4.657002 
12.880234 
-8.361474 
1.456169 
-3.452630 
-6.431584 
-0.546964 
-3.876388 
0.213654 
4.043625 
-1.122161 
-5.791485 
3.490888 
-4.527646 
-2.361512 
-7.835534 
-4.820779 
-6.305900 
1.761589 
-3.278368 
-2.524281 
-2.376343 
1.524822 
-1.334615 
0.395634 
2.343271 
1.226059 
0.728194 
-0.413279 
-13.810837 
-1.182300 
-1.870712 
-12.753835 
1.995181 
-2.834044 
1.659265 
0.625676 
10.257403 
0.678633 
-4.782688 
-2.686621 
-2.814486 
1.533026 
-0.299587 
0.118821 
2.829209 
-0.807554 
0.162787 
-0.319636 
-17.431994 
-1.954269 
-2.471946 
-14.378256 
2.128342 
-3.156811 
2.385006 
1.331804 
10.197008 
-3.475597 
9.815664 
-3.700939 
-1.523355 
8.370161 
-2.692675 
-3.043137 
3.842824 
1.115928 
1.938295 
1.401203 
-4.667359 
1.286554 
-2.129315 
-3.859508 
-0.897589 
2.941282 
-2.688165 
10.376885 
8.347530 
-3.619330 
1.490194 
-0.276150 
0.221005 
1.620142 
-0.813928 
-3.083401 
0.762076 
0.574978 
-1.056907 
0.981182 
-5.445938 
8.809910 
-4.759358 
-3.518695 
-2.004145 
5.896759 
-2.950817 
8.916969 
3.314945 
1.747591 
8.695964 
-1.447358 
-7.354289 
4.672259 
-4.145580 
-5.081987 
5.240022 
-3.795041 
-13.154130 
-1.078218 
-12.040306 
12.999622 
10.945978 
-7.976896 
9.858648 
-4.211970 
-1.334152 
0.206889 
1.596384 
0.433884 
10.795161 
-1.040178 
-1.191520 
3.513579 
-2.509746 
-3.559586 
4.549770 
0.508524 
-0.336792 
-6.576055 
5.194204 
-2.425571 
0.580963 
11.320273 
-2.129130 
-5.016621 
-9.263046 
0.640629 
-6.270698 
5.923092 
15.711487 
8.206547 
-6.080326 
19.906786 
-7.281913 
6.522455 
13.533389 
16.008628 
13.868070 
1.193772 
6.414469 
-1.334796 
-3.223827 
4.244271 
-3.393881 
0.948882 
6.826000 
-0.198671 
2.123999 
7.301879 
-2.548892 
-1.121508 
-0.808778 
-2.663664 
-4.163300 
5.554648 
-4.948103 
1.107870 
5.264694 
1.663281 
-14.714497 
-1.092648 
-0.486036 
-10.314044 
1.096433 
-1.225100 
20.965249 
-3.554911 
17.010847 
-0.106047 
-10.949807 
9.325689 
1.955613 
-8.835662 
1.385716 
0.917040 
-3.624331 
3.214140 
-3.791558 
-2.096700 
3.525883 
-0.645563 
0.692162 
3.329665 
1.565069 
-2.051063 
2.736050 
-0.246395 
-2.875848 
-1.043285 
-7.304434 
-2.277132 
-0.313647 
-0.951962 
-4.209557 
2.563081 
11.731370 
0.115441 
18.244243 
-6.555186 
8.143433 
-0.973391 
-1.343411 
14.833545 
-4.293751 
-4.714959 
15.386389 
-3.779876 
-2.579822 
-0.221783 
0.410052 
0.204293 
-1.009969 
0.935012 
-0.554507 
1.251005 
1.103548 
0.980476 
0.547335 
-5.126222 
9.993009 
-0.252289 
0.735343 
10.611586 
4.012103 
-3.326565 
11.692728 
3.284784 
-4.711744 
-4.308196 
5.552966 
-1.031504 
0.848653 
4.555072 
3.867428 
1.283142 
3.126050 
-2.887531 
-1.377206 
-6.420504 
5.447431 
-2.112605 
0.466281 
6.605455 
0.483406 
-3.943340 
28.222905 
1.595065 
-3.244156 
-14.596811 
6.782892 
-28.828898 
-4.726260 
0.263942 
-4.232183 
1.179754 
12.056067 
-7.057634 
7.363437 
-3.833473 
-4.293787 
-1.882559 
-16.764155 
6.271977 
9.114358 
-0.389798 
-3.840459 
1.624269 
12.649284 
1.373350 
-15.890383 
5.534526 
9.219684 
-4.086626 
7.918350 
-4.732603 
-5.013875 
-1.383478 
0.318057 
0.190053 
14.423425 
-4.039495 
7.646011 
-1.761902 
-3.800686 
-4.874101 
7.945359 
-4.303377 
-3.975156 
-5.557776 
-8.646083 
-13.581352 
3.951809 
