1.726574 
0.613199 
1.382394 
0.812279 
0.302115 
1.370635 
0.456130 
1.083007 
0.815615 
0.200095 
0.032283 
0.012150 
-0.052172 
0.007112 
0.028152 
0.021929 
0.018559 
0.002005 
0.018577 
0.012743 
0.014756 
0.008772 
-0.028393 
0.005149 
0.020385 
0.009928 
0.009521 
0.000965 
0.010215 
0.006151 
0.026924 
0.010595 
-0.044118 
0.006223 
0.024591 
0.018214 
0.015707 
0.001685 
0.015759 
0.010751 
0.016513 
0.038568 
-0.066556 
0.021342 
0.087562 
0.011762 
0.012347 
0.001337 
0.023425 
0.003706 
0.055296 
0.000866 
-0.052251 
0.000778 
0.002129 
0.035937 
0.023303 
0.003569 
0.018827 
0.018924 
0.024443 
-0.014323 
0.012885 
0.024935 
0.011117 
0.034114 
0.005047 
0.006121 
0.048463 
0.000667 
0.010810 
-0.000434 
0.005477 
0.000247 
0.000042 
0.014959 
0.000013 
0.000023 
0.003557 
-0.000001 
0.004401 
-0.003845 
0.002303 
0.076176 
0.038365 
0.006084 
0.001809 
0.020937 
0.009798 
-0.000305 
0.010972 
-0.000479 
0.005578 
0.000456 
0.000223 
0.015188 
0.000037 
0.000122 
0.005241 
-0.000004 
0.012989 
-0.000498 
0.006546 
0.000138 
0.000011 
0.017921 
0.000006 
0.000006 
0.003100 
-0.000000 
0.024923 
-0.014210 
0.013125 
0.066105 
0.034887 
0.034777 
0.005274 
0.019108 
0.048012 
-0.000583 
0.003510 
-0.006314 
0.002036 
0.002338 
0.000605 
0.005061 
0.002013 
0.000438 
0.020789 
0.000218 
0.024629 
-0.003177 
0.012727 
0.002431 
0.001565 
0.034321 
0.001530 
0.000846 
0.022578 
-0.000003 
0.009208 
-0.005666 
0.005037 
0.003691 
0.001851 
0.013092 
0.002373 
0.001020 
0.024940 
-0.000007 
0.003055 
-0.005528 
0.001759 
0.002787 
0.000574 
0.004389 
0.001725 
0.000434 
0.017858 
0.000274 
-0.000002 
-0.000410 
-0.000026 
-0.002786 
0.000001 
0.000000 
-0.000017 
-0.000002 
-0.000000 
-0.000000 
0.000000 
0.000001 
0.000000 
0.000001 
-0.000000 
0.000001 
-0.000032 
-0.000198 
-0.000092 
-0.000000 
-0.006454 
-0.001154 
-0.000708 
-0.000193 
0.008683 
0.000038 
-0.000015 
-0.009335 
0.000013 
-0.000106 
0.000360 
0.004598 
0.001444 
0.008027 
-0.007013 
0.003175 
-0.000093 
-0.000075 
-0.002051 
-0.000904 
-0.000001 
-0.000887 
-0.000083 
-0.004446 
0.000000 
0.000001 
-0.000027 
-0.000003 
-0.000001 
-0.000000 
0.000000 
-0.000000 
-0.000000 
0.000000 
0.000001 
0.000000 
-0.000053 
-0.000395 
-0.000148 
-0.000000 
-0.001967 
-0.010460 
-0.003743 
-0.010742 
0.003031 
0.000031 
-0.000075 
-0.003258 
-0.000073 
-0.000071 
0.000359 
0.001444 
0.001441 
0.002737 
-0.001748 
0.001132 
-0.000575 
-0.004119 
-0.002374 
-0.000317 
-0.003089 
-0.010460 
-0.003743 
-0.010742 
0.003811 
0.000035 
-0.000068 
-0.004200 
-0.000092 
-0.000051 
0.000063 
0.002125 
0.000171 
0.003591 
-0.003564 
0.001284 
-0.000575 
-0.004119 
-0.000764 
-0.000519 
-0.000002 
-0.000734 
-0.000045 
-0.004619 
0.000001 
0.000000 
-0.000028 
-0.000004 
-0.000000 
-0.000000 
0.000000 
0.000001 
0.000000 
0.000001 
-0.000000 
0.000001 
-0.000052 
-0.000352 
-0.000155 
-0.000001 
-0.000007 
-0.005243 
-0.003290 
0.000000 
0.000019 
0.000000 
0.000001 
-0.000020 
-0.000085 
0.000001 
-0.000002 
0.000015 
-0.000035 
0.000016 
-0.000020 
0.000007 
-0.000417 
-0.000292 
0.000002 
-0.000007 
-0.005710 
-0.010460 
-0.003741 
-0.010741 
0.007228 
0.000049 
-0.000070 
-0.007796 
-0.000074 
-0.000052 
0.000021 
0.004023 
0.000070 
0.006762 
-0.006731 
0.002610 
-0.000575 
-0.004119 
-0.000467 
-0.000793 
0.000007 
-0.003746 
-0.001102 
-0.000072 
-0.000000 
0.000006 
0.000000 
0.000000 
-0.000028 
-0.000000 
-0.000000 
0.000002 
-0.000001 
0.000000 
0.000000 
0.000000 
-0.000139 
-0.002315 
0.000004 
-0.000002 
0.000135 
-0.000008 
-0.000005 
0.000000 
0.000037 
0.000000 
-0.000000 
-0.000046 
-0.000001 
0.000002 
0.000108 
-0.000029 
0.000638 
-0.000017 
-0.000094 
0.000014 
-0.000000 
0.000001 
-0.000064 
-0.000003 
0.000000 
0.000080 
-0.000002 
0.000003 
0.000249 
0.000000 
-0.000074 
0.000000 
-0.000220 
-0.000556 
0.006097 
0.000232 
-0.000393 
-0.000052 
0.000241 
0.000025 
-0.004889 
0.000266 
-0.002928 
-0.007339 
0.000084 
0.000091 
-0.000732 
-0.000051 
0.000241 
0.000000 
-0.004889 
0.000006 
-0.001892 
-0.007339 
0.000911 
0.000730 
-0.001313 
-0.000052 
0.000241 
0.000003 
-0.004888 
0.000038 
-0.005511 
-0.007339 
0.006489 
0.000645 
-0.001312 
-0.000011 
-0.000092 
0.000031 
-0.001039 
0.000320 
-0.005132 
-0.001414 
0.000000 
0.000729 
-0.001314 
-0.000052 
0.000242 
0.000000 
-0.004883 
-0.000000 
-0.005453 
-0.007330 
0.000013 
0.000091 
0.000003 
-0.000052 
0.000238 
0.000000 
-0.004889 
0.000001 
-0.000383 
-0.007335 
0.000000 
0.000090 
0.000003 
-0.000008 
0.000236 
0.000000 
-0.001196 
0.000000 
-0.000380 
-0.002182 
0.006489 
0.000646 
-0.001231 
0.000001 
0.000007 
0.000031 
0.000068 
0.000320 
-0.005116 
0.000037 
0.006489 
0.000646 
-0.001312 
-0.000057 
0.000013 
0.000031 
-0.005190 
0.000320 
-0.005119 
-0.007294 
0.000000 
0.000088 
0.000000 
0.000009 
0.000327 
0.000000 
0.000394 
0.000000 
-0.000407 
0.000000 
0.006486 
0.000671 
-0.001313 
-0.000045 
0.000105 
0.000031 
-0.004444 
0.000320 
-0.005206 
-0.006418 
0.000000 
0.000045 
0.000000 
0.000001 
0.000035 
0.000000 
0.000083 
0.000000 
-0.000200 
-0.000000 
0.006489 
0.000736 
-0.001312 
-0.000045 
0.000239 
0.000031 
-0.004275 
0.000320 
-0.005483 
-0.006514 
0.000000 
0.000067 
-0.000001 
-0.000042 
0.000187 
0.000000 
-0.004301 
0.000000 
-0.000275 
-0.006369 
0.006489 
0.000736 
-0.001311 
-0.000050 
0.000236 
0.000031 
-0.004769 
0.000320 
-0.005514 
-0.007225 
0.000078 
0.000091 
-0.000071 
-0.000052 
0.000241 
0.000000 
-0.004889 
0.000004 
-0.000525 
-0.007339 
0.006230 
0.000459 
-0.001299 
-0.000052 
0.000241 
0.000028 
-0.004889 
0.000299 
-0.005164 
-0.007339 
0.006066 
0.000724 
-0.001313 
-0.000002 
0.000070 
0.000029 
0.000151 
0.000300 
-0.005474 
0.000000 
0.000000 
0.000091 
-0.000001 
-0.000051 
0.000278 
-0.000000 
-0.004817 
0.000000 
-0.000383 
-0.007307 
0.000000 
-0.001034 
-0.000000 
-0.000334 
-0.000062 
-0.000212 
-0.000061 
-0.000008 
-0.000054 
-0.005239 
-0.000207 
0.002412 
-0.000035 
0.002535 
-0.000092 
0.003261 
-0.000019 
0.003027 
-0.000032 
0.003226 
0.000000 
-0.000002 
-0.000000 
-0.000001 
-0.000019 
0.000511 
-0.000081 
0.000827 
0.000000 
-0.000036 
-0.000000 
-0.000009 
-0.000030 
-0.005897 
-0.000115 
0.000734 
-0.000018 
0.000753 
0.000015 
0.000845 
-0.004484 
-0.004341 
-0.003838 
-0.006710 
