0.412300 
0.166853 
0.355176 
0.120147 
0.001585 
0.412829 
0.170098 
0.356909 
0.127616 
0.011060 
0.005893 
-0.000362 
-0.015882 
0.001587 
0.001670 
0.001833 
0.011571 
0.001003 
0.008461 
0.008500 
0.002640 
-0.000158 
-0.006537 
0.000783 
0.000840 
0.000889 
0.005259 
0.000410 
0.003878 
0.003842 
0.005006 
-0.000328 
-0.013148 
0.001339 
0.001391 
0.001649 
0.009814 
0.000825 
0.007227 
0.007214 
0.010348 
0.001388 
-0.030769 
0.005045 
0.007001 
0.002396 
0.021049 
0.002361 
0.015244 
0.014943 
0.000277 
-0.000129 
0.002185 
0.000159 
-0.000027 
0.001689 
0.000444 
0.000036 
0.001340 
0.000295 
0.004621 
-0.007205 
0.005165 
0.000942 
0.000093 
0.005533 
0.006777 
0.002111 
0.048832 
-0.002424 
0.003261 
-0.001605 
0.002678 
0.001154 
-0.000043 
0.003609 
0.000793 
0.000014 
0.017636 
-0.000074 
0.000709 
-0.000397 
0.000702 
0.003551 
-0.003080 
0.000759 
0.001233 
0.000061 
0.005712 
-0.004238 
0.003115 
-0.002116 
0.002858 
0.001559 
-0.000113 
0.003555 
0.001086 
0.000031 
0.020658 
-0.000183 
0.002737 
-0.001265 
0.002083 
0.000650 
0.000001 
0.002948 
0.000654 
0.000010 
0.012886 
-0.000012 
0.006474 
-0.011318 
0.006539 
0.004855 
0.000041 
0.007436 
0.008903 
0.000968 
0.059983 
-0.001178 
0.001573 
-0.001851 
0.002117 
0.000373 
0.000663 
0.002008 
0.002763 
0.002043 
0.020258 
-0.001527 
0.005383 
-0.004921 
0.004687 
0.000302 
0.000035 
0.006009 
0.003895 
0.000067 
0.038720 
-0.000063 
0.003235 
-0.006314 
0.003629 
0.000895 
0.000124 
0.003912 
0.004817 
0.000487 
0.035245 
-0.000421 
0.001252 
-0.001112 
0.001749 
0.000413 
0.000305 
0.001616 
0.002295 
0.001981 
0.016227 
-0.001929 
-0.000008 
-0.000641 
-0.000201 
-0.000505 
0.000000 
0.000086 
-0.000001 
-0.000003 
0.000000 
0.000003 
0.000000 
-0.000001 
-0.000000 
0.000006 
-0.000008 
0.000006 
-0.000485 
-0.000721 
-0.000209 
-0.000003 
0.000790 
-0.000373 
-0.000249 
-0.000016 
0.000126 
0.000051 
0.000071 
0.001873 
0.000115 
0.000220 
0.002387 
0.000025 
-0.001619 
0.000503 
0.001473 
0.000421 
0.000117 
-0.000005 
-0.003956 
-0.000287 
-0.000017 
-0.002275 
-0.000644 
-0.000741 
0.000000 
0.000437 
-0.000004 
-0.000007 
0.000001 
0.000008 
0.000001 
-0.000003 
-0.000001 
0.000013 
-0.000019 
0.000015 
-0.001141 
-0.002678 
0.000493 
-0.000008 
0.001172 
-0.009723 
-0.003800 
-0.001254 
0.000057 
0.001672 
0.000087 
0.002057 
0.000054 
-0.000055 
0.002354 
-0.000115 
-0.001730 
0.000185 
0.002092 
0.000158 
-0.004378 
-0.011002 
-0.001164 
-0.000178 
-0.000754 
-0.009761 
-0.003833 
-0.001254 
0.000092 
0.001695 
0.000068 
0.000088 
0.000097 
0.000147 
0.000482 
-0.000167 
-0.000865 
0.000462 
-0.000453 
0.000398 
-0.004485 
-0.011190 
0.002058 
-0.000343 
-0.000011 
-0.000902 
-0.000261 
-0.000574 
0.000000 
0.000150 
-0.000002 
-0.000004 
0.000000 
0.000005 
0.000000 
-0.000001 
-0.000000 
0.000008 
-0.000012 
0.000009 
-0.000606 
-0.001011 
-0.000146 
-0.000005 
-0.000389 
-0.001335 
-0.001078 
-0.000001 
-0.000001 
0.000006 
0.000111 
-0.000047 
0.000010 
-0.000185 
-0.000025 
-0.000198 
-0.000877 
0.000000 
0.000003 
0.000000 
-0.000342 
-0.001273 
0.000581 
-0.000060 
-0.000826 
-0.009834 
-0.003888 
-0.001254 
0.000065 
0.001695 
0.000038 
-0.000142 
0.000073 
0.000170 
0.000160 
-0.000174 
-0.000400 
0.000451 
-0.000693 
0.000393 
-0.004666 
-0.011509 
0.002628 
-0.000336 
-0.000299 
-0.003791 
-0.001415 
-0.000133 
-0.000001 
0.000729 
0.000081 
-0.000033 
0.000007 
-0.000153 
-0.000017 
-0.000206 
-0.000468 
0.000000 
0.000000 
0.000000 
-0.001337 
-0.004016 
0.001427 
-0.000041 
0.000273 
0.000160 
0.000204 
-0.000000 
0.000004 
-0.000000 
0.000115 
0.000720 
0.000013 
-0.000160 
0.000782 
-0.000140 
-0.001161 
0.000007 
0.000842 
0.000004 
0.000656 
0.001153 
-0.001382 
-0.000001 
0.000000 
-0.000040 
0.000166 
-0.000117 
0.000587 
0.000000 
-0.000535 
0.000000 
0.000211 
-0.000163 
0.000016 
0.000308 
0.000006 
-0.000026 
0.001026 
0.000120 
-0.001065 
0.000047 
-0.002054 
-0.000251 
0.000029 
0.000115 
-0.000347 
-0.000020 
0.001025 
0.000033 
-0.001065 
0.000007 
-0.001929 
-0.000251 
0.000064 
0.000761 
-0.000592 
-0.000122 
0.001026 
0.000041 
-0.001063 
0.000010 
-0.007674 
-0.000251 
0.000258 
0.001368 
-0.000939 
-0.000020 
0.000004 
0.000404 
-0.000862 
0.000137 
-0.008181 
-0.000233 
0.000001 
0.000503 
-0.000610 
-0.000121 
0.001026 
0.000000 
-0.001018 
0.000000 
-0.006660 
-0.000245 
0.000000 
-0.000028 
0.000257 
-0.000115 
0.001025 
0.000000 
-0.001064 
0.000000 
0.000275 
-0.000251 
0.000000 
-0.000003 
0.000142 
0.000008 
0.000529 
0.000000 
-0.000635 
0.000000 
0.000035 
-0.000177 
0.000258 
0.001239 
-0.000784 
0.000002 
0.000114 
0.000404 
-0.000852 
0.000137 
-0.008129 
-0.000217 
0.000258 
0.001325 
-0.001047 
-0.000036 
-0.000015 
0.000404 
-0.000189 
0.000137 
-0.008053 
-0.000034 
0.000000 
-0.000000 
0.000001 
0.000058 
0.000673 
0.000000 
-0.000106 
-0.000000 
0.000006 
-0.000001 
0.000258 
0.001158 
-0.000676 
-0.000048 
0.000948 
0.000404 
-0.001055 
0.000137 
-0.007924 
-0.000260 
0.000000 
-0.000005 
0.000010 
-0.000043 
0.000099 
0.000000 
-0.000015 
-0.000000 
0.000127 
0.000001 
0.000258 
0.001104 
-0.000613 
-0.000118 
0.001025 
0.000404 
-0.000979 
0.000137 
-0.007754 
-0.000260 
-0.000000 
0.000000 
0.000173 
0.000020 
0.000374 
0.000000 
-0.000741 
0.000000 
-0.000001 
-0.000194 
0.000258 
0.001104 
-0.000605 
-0.000121 
0.001020 
0.000404 
-0.001016 
0.000137 
-0.007754 
-0.000265 
0.000018 
0.000076 
0.000073 
-0.000111 
0.001026 
0.000072 
-0.001065 
0.000026 
-0.000791 
-0.000251 
0.000059 
0.000273 
-0.000449 
-0.000104 
0.001026 
0.000084 
-0.001065 
0.000025 
-0.003952 
-0.000251 
0.000157 
0.000918 
-0.000767 
-0.000154 
0.000360 
0.000251 
-0.000064 
0.000088 
-0.007353 
-0.000005 
-0.000000 
-0.000264 
0.000456 
-0.000121 
0.001009 
0.000000 
-0.000718 
-0.000000 
0.000406 
-0.000203 
-0.000338 
-0.000054 
-0.000089 
-0.000082 
-0.000371 
-0.000202 
-0.000093 
-0.000194 
-0.000004 
-0.000048 
-0.000501 
0.000051 
-0.000001 
-0.000198 
-0.000498 
-0.000167 
-0.000026 
-0.000058 
-0.000405 
0.000123 
-0.000210 
-0.000003 
-0.000061 
-0.000048 
-0.000030 
-0.000187 
-0.000365 
-0.000034 
-0.000007 
0.000000 
-0.000003 
-0.000001 
-0.000425 
-0.001776 
-0.000776 
-0.001559 
-0.000027 
0.000017 
-0.000001 
0.000081 
-0.008109 
-0.001742 
-0.007399 
-0.001076 
