0.75887936
-0.29291987
-0.1002676
1.0243653
-0.67335796
-0.55571264
0.009019283
0.8622737
0.4127199
-0.8112682
-0.45564488
0.8665879
-0.7274482
0.27911326
-0.76366067
-0.49052554
0.13384801
0.19702499
-0.73574394
0.66774774
0.16025479
0.010187766
0.40227765
-0.5397985
-0.5802838
0.3724993
0.26671186
0.42422694
0.27369452
0.46851355
0.28105554
0.18642008
-0.45792475
0.20401174
-0.22079283
-0.38244757
0.26486823
0.75433844
0.34222993
0.7014405
0.5311801
0.5181181
-0.3057341
0.2795711
0.22834118
-0.025032341
-0.55389345
0.15261832
0.7075794
0.516141
0.49258882
0.5944217
-0.57240105
0.10542059
-0.068015575
-0.16714525
0.29532778
-0.37155727
0.3578409
0.18169564
-0.34399834
-0.29655436
-0.18481255
0.102329485
0.6527519
-0.03496723
0.62915593
0.27184647
0.07760939
-0.5095934
0.55180985
-0.3994896
-0.1820027
0.3996866
-0.23025273
-0.02699312
0.2317577
-0.37568545
0.3098131
-0.40726373
1.426897
-0.51569355
0.078314364
0.8643967
-0.96462107
0.27757883
1.2313559
0.4263632
-0.37906122
-0.09612396
0.19879702
-0.01160413
0.4783851
0.15782583
-0.053157207
-0.4311456
0.1843331
-0.22793671
-0.07885012
-0.03748703
-0.5664649
-0.51340544
-0.44678608
0.13703366
0.6333225
0.2415059
-0.78377473
-0.29953593
0.87106097
0.53649294
0.1250087
0.10122728
0.48149824
0.28860354
0.26120645
0.15702945
0.071941674
0.13320708
0.025632083
0.14910972
-0.29759827
0.0736807
0.27769935
-0.30185717
0.082549706
0.39330542
0.47609156
0.355448
-0.111355394
0.5193887
0.5372612
0.30843294
0.08972764
-0.33128908
-0.5110084
0.4273855
0.6038352
-0.20654592
-0.67739093
0.12005252
-0.290101
0.08557433
-0.25012666
-0.05070379
0.6476877
-0.4842776
-0.33281124
-0.18424371
0.0570733
-0.32706946
0.095120326
-0.5337338
0.08103645
0.30662316
0.14172418
0.27912012
0.49718148
-0.49025872
-0.09963195
-0.196477
-0.8605414
0.035488967
-0.9673208
-0.14515015
-0.73211175
0.70142674
0.92487246
0.12625661
1.0349907
0.66166025
-0.9780787
0.3544465
0.22319043
0.36547434
0.95027673
0.2684586
-0.32838944
-0.5787156
0.25706
-0.3296829
-0.38702017
-0.0470694
-0.11051667
0.31757325
-0.44184965
0.06746763
0.14515144
0.2549982
0.20007336
-0.14957166
0.2202186
0.3980773
-0.095065236
-0.09995437
-0.1705915
0.38161635
0.37892336
0.35552555
0.06543112
0.39521986
-0.43707344
-0.051795274
-0.14552751
0.095665395
0.04711023
0.20232302
0.42081946
-0.009708762
0.35775328
-0.32198536
0.37378693
-0.03080687
0.1960122
-0.1038889
0.431607
0.33818573
-0.24913685
-0.22187746
-0.020293742
0.36469597
-0.061346162
-0.21705362
-0.061105885
-0.23732835
0.19019414
0.35141817
0.47186962
0.08458212
0.45238918
0.3715912
0.45099658
-0.03512782
-0.2779698
0.037650406
0.34458598
0.26033863
0.15626073
-0.012908299
-0.3938729
0.20032448
0.5089625
-0.122393705
0.052018564
-0.42896244
0.46820974
-0.0909679
-0.40532002
0.5790044
-0.4843822
-0.013629057
0.31507862
-0.05325657
0.26799446
-0.20284753
-0.32608965
-0.66832525
-0.20062366
0.57314897
-0.0028995275
-0.37926382
-0.31988022
-0.22293083
0.22773013
0.13480741
0.04054426
0.32371464
-0.08726503
-0.2821356
-0.24225958
0.008997964
0.027301582
0.24215339
0.23840857
0.25179875
0.3123325
-0.17958862
-0.31246832
0.39978653
-0.28339088
0.2995714
-0.24294202
0.514327
-0.061317537
-0.29237473
-0.42258534
0.14474276
0.7138172
0.18003388
-0.3255029
0.55595136
-0.13977079
-0.4291083
-0.26335388
-0.4176457
0.5276869
0.118775435
-0.054923117
-0.28218263
-0.30462676
-0.31678095
-0.20540288
-0.3607704
-0.29251918
-0.4369378
0.20155579
-0.35457394
-0.37824297
-0.1459539
-0.17546356
0.38502097
0.38621894
0.30859014
-0.072788596
0.07486846
-0.30586445
-0.27536324
-0.36151132
0.28641275
0.0015332401
-0.2706923
0.013197777
-0.28183421
0.5597012
0.26109558
0.17432745
0.34320068
-0.41475984
-0.014346182
-0.2564521
-0.18938783
0.34042728
-0.4024197
-0.35017794
-0.36593366
-0.47827587
0.22509855
-0.14472356
0.26507244
0.2104047
-0.32064968
-0.41774303
0.15217948
0.4291857
0.12066269
0.19191355
-0.36742523
0.13123947
0.037564725
0.05048114
-0.19470122
-0.34527132
0.12833321
0.2391221
-0.14345932
-0.43256643
0.16929126
-0.16017339
-0.31765047
-0.025114238
0.34156388
0.21433502
0.23994465
0.12579116
0.43896514
-0.57349515
0.052637078
0.5028175
0.13100399
-0.072161734
0.80067104
0.1332462
0.34740904
0.5164461
0.2100891
0.5357368
0.05480995
0.034495287
0.6416365
0.12756139
-0.21422487
0.4321359
-0.1033479
-0.065745376
0.41571495
-0.016990954
0.5163796
0.7230222
-0.2198949
-0.15695828
0.4981045
-0.16992033
0.27563196
0.25181258
0.25476885
0.2590043
0.20285821
0.4241683
0.41238397
0.27747655
-0.2211908
0.10672649
-0.22566645
-0.48351085
0.81109935
-0.36284775
0.48315132
0.46095714
-0.10531032
-0.26875418
0.43610024
0.30504346
0.20594554
0.59020966
0.19884147
0.3462752
0.37294307
0.17483713
0.60886997
-0.2255787
-0.18393609
-0.5267736
0.47246474
0.3114535
-0.58591753
1.0737603
-0.32368213
-0.70861566
0.3165229
-0.3053178
-0.21222045
-0.66836834
0.97014046
0.20037653
-1.1484898
0.681266
-0.6597383
-0.63931566
0.3781658
0.39994696
-0.8368414
-0.77056223
0.9001121
1.3282516
-0.8818003
1.2664425
-0.58716375
-1.2240758
1.2414211
-0.22978
-0.9339115
0.25104508
0.41943792
0.44236863
-0.40158483
0.51913035
0.16716477
-0.0316992
-0.08038465
-0.17800185
0.042685304
0.3934724
-0.38041332
0.09292947
0.1792741
-0.31510824
0.23739193
0.3720428
0.15872388
0.21710579
0.27173695
0.25068867
0.44542187
0.14276832
0.15939504
0.36809587
-0.17551893
-0.19623032
-0.011720113
-0.4300791
0.4406739
0.20446819
0.3637578
0.021550417
0.22192717
0.32352287
-0.32258373
-0.24282226
-0.006754428
-0.21308386
-0.079934955
-0.38709033
-0.124408826
-0.40954775
0.2344979
-0.006552851
-0.40784308
-0.009381324
0.1228954
0.33509117
-0.38690555
-1.0014546
0.25648338
0.58514154
-0.6664054
0.6942458
-0.76591605
-0.23152271
0.6431053
0.04541769
-0.65635157
-1.097094
0.5335647
0.7112406
-0.54726195
0.7181118
-1.020913
-0.956628
0.7390001
-0.26855984
-1.1484913
-0.3711334
-0.39092475
-0.22582158
-0.29665247
0.25783587
0.43113023
-0.379901
0.3486802
0.2412988
-0.15534332
0.023641482
-0.21988612
0.030654982
0.6728744
0.08489581
0.5971515
0.4553706
-0.35356846
-0.1815668
0.47519085
0.1377145
0.13448638
-0.4440297
-0.019099236
-0.18688527
0.34534043
0.42111534
-0.42416862
0.21139139
-0.31575096
0.3878045
-0.38496807
0.2555073
-0.23669767
0.30191374
-0.17656887
0.1109938
0.36765498
0.031368047
-0.4029467
-0.64354944
0.3895859
-0.3160643
1.127617
0.9168541
-0.8686839
-0.5074338
-0.2727299
0.8094434
0.26997524
-0.46477026
0.12937187
-0.41788375
1.3364443
-0.5774446
1.4072012
0.8857387
-0.54707384
0.061349295
-0.91339856
0.11029343
0.6279163
-0.678251
0.73407346
-0.90254265
-0.0012964965
-0.6688988
0.94540817
0.8611959
0.22724023
-0.60755277
-0.33255938
0.024410237
-0.44908422
-0.56556356
-0.49184445
-0.13906151
0.86673456
-0.53586525
0.9870056
-1.2292687
1.9141799
0.9069779
1.3690917
