0.137914 
0.022730 
1.072775 
0.047421 
1.097399 
0.607987 
1.120809 
0.199163 
0.975732 
0.560158 
0.333937 
0.650068 
0.592988 
0.720617 
0.760919 
0.298065 
0.080133 
0.641552 
0.547396 
0.539606 
0.814072 
0.860573 
0.713792 
0.601472 
0.923491 
0.994317 
-0.100632 
0.256742 
1.163902 
0.778388 
0.684910 
1.123932 
0.579743 
-0.065150 
0.121910 
0.897766 
1.037623 
0.573091 
0.584943 
0.652020 
0.914796 
0.116888 
0.290671 
0.210435 
1.053032 
1.037185 
0.191255 
0.216051 
0.800382 
0.821696 
0.514642 
0.437792 
0.281599 
-0.063281 
-0.198849 
0.679564 
0.468048 
0.586952 
1.333170 
0.131133 
1.266273 
0.678769 
-0.015424 
-0.003867 
1.225374 
0.024186 
0.877344 
0.576205 
0.279396 
0.794513 
0.539585 
0.469006 
0.823677 
-0.245949 
1.012224 
0.463756 
0.759624 
-0.005966 
0.781131 
1.083059 
1.128703 
0.739668 
0.093023 
-0.345560 
0.416177 
-0.061114 
0.376284 
0.244590 
0.185964 
0.979673 
0.754049 
0.445966 
0.156886 
-0.428096 
0.476130 
-0.220545 
1.110653 
0.709362 
0.497095 
0.348764 
0.651009 
1.127101 
0.369050 
-0.738052 
0.869929 
-0.250872 
1.281999 
0.974209 
-0.077783 
1.032370 
1.221400 
1.129038 
0.357007 
-0.806045 
0.878082 
0.154553 
0.571635 
0.476047 
0.536227 
0.762355 
0.681688 
0.329690 
0.862956 
-0.167223 
1.002097 
0.722261 
1.102133 
0.341492 
0.508152 
0.693948 
0.952584 
1.121969 
0.444517 
-0.678107 
0.419997 
0.631317 
0.635956 
0.027338 
0.737696 
0.631057 
1.288908 
0.965829 
0.314808 
-0.448141 
1.218497 
0.528344 
1.174199 
0.014481 
0.164547 
0.724021 
1.006775 
0.913073 
0.597303 
-0.349490 
0.794842 
-0.018817 
0.826279 
0.207694 
0.501092 
0.235695 
1.323313 
0.145801 
0.416430 
-0.762404 
1.084394 
-1.288786 
-0.492650 
0.359746 
0.782465 
-1.459705 
-0.510390 
0.209097 
0.832969 
0.959365 
0.645051 
0.779907 
0.049657 
0.654728 
-0.600400 
1.354281 
1.405033 
0.137244 
1.022417 
-0.457166 
1.421061 
-1.372885 
0.136067 
-0.134049 
0.875768 
-1.039734 
-0.369519 
1.119849 
0.839565 
0.717581 
0.387253 
0.501947 
0.062998 
0.754581 
-1.097622 
1.134534 
1.045108 
0.305462 
1.120096 
-0.665007 
0.734446 
-1.220300 
0.317571 
0.266239 
1.073431 
-0.878251 
-0.206987 
0.420371 
-0.015109 
0.516169 
1.001508 
0.990717 
-0.248683 
0.950416 
-1.092543 
0.923797 
0.146677 
0.480760 
0.366062 
0.252270 
0.179670 
-0.262052 
-0.422931 
0.301665 
1.118396 
-0.356322 
-0.489827 
0.389813 
0.075848 
0.179314 
0.674509 
0.075954 
-0.168485 
0.643421 
0.220002 
0.656215 
1.001807 
0.367814 
1.365410 
-0.590037 
1.325612 
-0.689034 
-0.436944 
-0.451296 
0.970536 
-1.078692 
-0.248462 
0.601882 
0.113392 
1.189461 
0.593981 
0.282232 
0.134902 
1.178175 
-0.545287 
1.035251 
0.679998 
-0.259776 
0.491573 
-0.512497 
0.495470 
-0.392947 
-0.081401 
-0.132355 
1.068609 
-0.782165 
0.294421 
0.944724 
-0.040440 
1.123612 
0.599930 
1.023566 
0.117659 
1.028914 
-0.520028 
1.328582 
0.681170 
0.181042 
0.670449 
-0.774858 
0.907953 
-0.726965 
-0.322644 
0.451950 
1.055807 
-1.424090 
-0.331078 
0.847661 
0.166168 
0.774175 
0.260079 
0.429094 
-0.213284 
0.991262 
-0.684276 
1.262467 
0.710919 
0.366509 
1.132347 
-0.784812 
1.019262 
-1.301752 
-0.652759 
0.553060 
1.374013 
-0.677673 
0.038197 
0.955478 
0.210874 
0.426008 
0.237897 
0.727358 
0.290849 
0.729436 
-0.787635 
0.664615 
1.055945 
0.759631 
1.302547 
-0.301860 
1.021393 
-0.447370 
0.295992 
0.275179 
1.198487 
-0.975918 
-0.255323 
0.821934 
0.113662 
0.550320 
1.043562 
0.684995 
-0.117295 
1.221489 
-0.748108 
0.532252 
1.279295 
0.193224 
1.301810 
-0.012517 
1.111574 
-0.470972 
-0.136323 
-0.129687 
0.899729 
-1.523198 
-0.290815 
0.880293 
0.950712 
0.698909 
0.626110 
0.569668 
-0.137100 
0.764053 
-1.121089 
1.353679 
1.396677 
-0.813717 
-0.961594 
0.783254 
1.393105 
0.898357 
-0.850697 
-0.122082 
-0.478954 
-1.320186 
0.909270 
-0.567908 
-0.898423 
1.012566 
1.316367 
0.669528 
-1.237111 
-0.079906 
-0.240764 
-1.003174 
0.927715 
-0.503152 
-1.254862 
1.068596 
0.848957 
1.192349 
-0.579979 
0.235418 
-0.675749 
-1.420203 
0.476031 
-0.031489 
-0.222596 
0.629136 
-0.118282 
0.477787 
-0.294694 
0.467427 
-0.743133 
-0.032261 
1.362637 
-0.959242 
-0.701002 
1.279098 
1.302213 
1.227473 
-0.813745 
-0.292984 
-0.526583 
-1.356512 
0.496241 
-0.186482 
-0.678143 
1.215616 
-0.113001 
0.194290 
-0.323200 
0.669673 
-0.411784 
-0.256303 
0.945016 
-1.295443 
-0.752223 
1.247936 
0.279926 
0.775584 
-0.752891 
0.299666 
-0.670577 
-0.525635 
1.343369 
-1.151432 
-1.271034 
1.448855 
1.329450 
0.633664 
-0.958631 
0.111451 
-0.393532 
-0.783721 
1.309577 
-1.459604 
-1.150059 
0.724343 
1.383981 
0.946918 
-0.817056 
0.037162 
-0.334701 
-1.451240 
-0.039245 
-0.375567 
-0.583107 
0.997188 
-0.041493 
0.028751 
-0.295087 
0.495415 
-0.182891 
0.120895 
0.784930 
-1.123927 
-1.277662 
1.253761 
0.538463 
0.488486 
-0.667079 
0.068778 
-0.029702 
-1.305003 
0.848152 
-0.859570 
-1.289294 
1.431064 
1.111507 
0.707154 
-1.285183 
-0.135069 
0.027415 
-0.923616 
0.943150 
-0.586867 
-0.512423 
1.152729 
1.087595 
0.686366 
-1.413881 
-0.525729 
0.090120 
-0.971426 
0.836911 
-1.175610 
-0.471331 
0.648429 
0.683777 
1.347550 
-1.066362 
0.269815 
0.023865 
-0.247830 
1.091770 
-1.516998 
-0.920250 
1.609349 
1.149901 
0.836400 
-1.379925 
0.487613 
-0.049384 
-0.645185 
1.016219 
-1.395957 
-0.788827 
1.222918 
1.088823 
0.861652 
-0.860242 
0.217639 
-0.319838 
-1.100190 
0.656192 
-1.223960 
-0.946242 
0.679615 
0.756737 
0.782533 
-1.446671 
0.000980 
0.095049 
-0.816597 
0.998441 
-0.977725 
-0.799316 
0.808973 
0.874350 
1.029037 
-0.966264 
0.042875 
-0.214874 
-1.279980 
0.839227 
-1.184385 
-0.978936 
0.790448 
0.984204 
0.366511 
-0.823050 
-0.055701 
0.280889 
-0.506187 
1.111069 
-0.580013 
-1.306820 
0.895839 
1.368061 
1.048045 
-0.998704 
0.483298 
-0.634504 
-1.204413 
0.267459 
1.069824 
-4.194706 
-0.657740 
0.370171 
0.158830 
0.432965 
-0.372865 
0.327037 
0.187260 
0.044609 
-0.528884 
0.036426 
1.278990 
-4.586816 
-0.979847 
0.467801 
1.461172 
-4.780910 
-0.410894 
0.345896 
1.052249 
-0.682613 
-0.991672 
-0.287563 
0.292071 
0.324704 
-0.036860 
0.013307 
1.034985 
-0.507464 
-0.805671 
-0.001297 
1.096556 
-0.416556 
-0.692415 
-0.445670 
-0.016533 
0.071258 
0.171712 
0.178660 
0.719468 
0.026686 
0.176682 
