-6.185411 
-5.043024 
-5.773068 
-5.747715 
-2.430439 
1.207844 
0.163741 
0.682516 
8.410933 
-11.082863 
23.978534 
0.844352 
-8.387496 
2.430161 
0.239659 
17.168037 
10.924008 
9.520553 
13.608979 
9.677597 
22.440104 
-3.473666 
-6.479607 
-2.081825 
-6.249380 
10.811453 
8.781781 
5.690520 
12.425475 
7.836710 
24.654196 
-0.025521 
-7.311263 
0.488392 
-1.889808 
14.600833 
11.553664 
7.606910 
13.728689 
10.182633 
3.382105 
8.338571 
-2.423936 
5.237609 
10.547933 
14.956232 
-1.847462 
7.443255 
-1.934110 
-1.928891 
9.398255 
-23.695510 
-1.883276 
-14.762827 
-37.903993 
-6.304957 
4.456992 
-3.706639 
-2.532560 
4.056086 
-2.798979 
-0.821346 
-0.456686 
17.552963 
3.499266 
-2.450079 
3.265166 
4.200675 
2.857840 
0.182195 
4.817405 
-2.769528 
5.936229 
-2.931809 
-3.120450 
4.815323 
-19.483060 
3.789460 
-4.140795 
-21.989350 
-5.992905 
11.150913 
-11.855525 
-1.531415 
-6.363829 
-7.357297 
-5.034292 
-6.483705 
-14.158206 
-5.434712 
1.826385 
2.757210 
4.485475 
0.015469 
-2.387695 
1.145228 
-11.247813 
-0.107724 
1.528919 
-17.513756 
10.363994 
-2.666768 
9.248421 
-4.153709 
-12.228911 
10.759790 
-35.475477 
-6.967354 
-2.670403 
-7.147948 
-1.598376 
-2.520329 
-0.611325 
5.793572 
9.672547 
-0.691188 
-0.270613 
9.194059 
0.305929 
-13.156426 
-2.303490 
-0.548904 
0.027525 
15.733338 
-1.588294 
0.386199 
6.140624 
-3.539995 
7.212313 
4.950844 
-0.472313 
-3.294903 
4.001362 
-2.777798 
12.327017 
0.358389 
-4.259554 
10.940460 
-0.732043 
-11.856589 
0.258873 
-2.707912 
0.653176 
10.390770 
3.610217 
3.240284 
1.714638 
5.442380 
2.682467 
-3.514169 
-3.840918 
0.039499 
0.030949 
11.653057 
-2.276640 
-1.578946 
4.994826 
-2.170951 
5.938037 
4.313858 
-3.379152 
-9.990123 
-4.850245 
-10.112329 
6.732866 
-26.330822 
-6.490637 
-0.754225 
9.345571 
19.536735 
3.517698 
-4.469099 
-44.813644 
1.708714 
5.007156 
-0.060054 
2.215579 
-12.630153 
-8.599559 
-14.110288 
2.542882 
7.579995 
10.774668 
0.850749 
-9.600782 
15.782778 
12.293356 
6.724075 
-8.860118 
-8.080707 
6.343901 
-9.062797 
-1.661905 
1.446395 
12.691422 
-0.776242 
12.138865 
9.012854 
-9.070045 
9.590337 
-4.368955 
-2.753906 
-6.519447 
-4.479297 
14.332564 
-10.752100 
-4.318883 
-3.296250 
9.882340 
8.596882 
-9.753695 
1.459747 
-18.962603 
7.594328 
2.368368 
-3.398538 
-3.207323 
-3.327634 
2.336156 
-38.364074 
-10.410718 
0.553385 
0.735020 
2.380613 
0.567906 
12.474412 
-2.784055 
-6.011953 
-0.316546 
2.689273 
-1.470489 
3.721338 
-2.730667 
16.856266 
-6.356020 
27.963357 
-0.716668 
7.398667 
8.498382 
-9.998872 
-6.141033 
0.213224 
0.309360 
-2.820737 
7.737677 
1.807477 
2.090563 
-1.983270 
0.794711 
1.283771 
-17.205851 
6.814394 
-9.624694 
2.722233 
-0.607390 
3.201352 
-1.974310 
4.612024 
-0.436493 
-6.972872 
-3.690236 
-10.757776 
-9.070552 
-12.597130 
8.956585 
-27.317172 
-7.124630 
-1.313134 
8.998108 
15.863163 
0.012455 
-5.755451 
-27.590947 
4.812177 
3.726562 
-2.008775 
-0.763416 
-10.774974 
-6.623928 
-27.520099 
5.294371 
-7.597557 
-2.364228 
35.860413 
3.003991 
8.549621 
-5.495877 
3.615095 
-1.063329 
3.977868 
1.263422 
-0.913680 
8.875061 
11.226224 
-33.176206 
13.462661 
-2.836653 
-6.256995 
14.489703 
6.654174 
-5.193806 
0.432308 
0.057707 
-2.233421 
8.753862 
0.836164 
0.242999 
-1.968176 
0.154618 
4.161371 
-20.006344 
5.086224 
-13.798674 
3.598204 
-4.890654 
3.227109 
-4.066390 
4.153936 
-1.646515 
-7.967846 
10.547801 
-14.344010 
-19.832433 
4.643044 
0.446289 
11.124287 
-14.761089 
-18.351759 
8.962680 
6.332635 
18.250600 
-6.457930 
3.678194 
15.051801 
-8.757569 
27.907609 
-13.584394 
-14.270380 
3.972550 
-0.832961 
-2.920818 
-0.478514 
-11.902324 
45.395134 
-14.380523 
-1.131273 
4.525740 
-4.165383 
-9.082136 
-5.821120 
0.995278 
-2.869725 
6.044447 
-14.615527 
0.603499 
-15.285792 
0.217728 
-2.155064 
11.810267 
47.113189 
-16.882078 
14.784305 
-5.414116 
3.545634 
4.467315 
-3.671635 
-0.728901 
-12.633927 
-7.023121 
14.346203 
-3.332406 
-6.655574 
10.717217 
2.905202 
-0.190191 
-2.968304 
3.953754 
-2.896820 
4.498329 
-2.472370 
-2.186075 
-10.619508 
5.666762 
-3.971221 
1.133314 
-1.601315 
5.585638 
-3.535893 
3.985092 
-2.011865 
-15.537015 
-5.149073 
3.868600 
0.666692 
-7.510144 
-24.783008 
-1.478038 
-12.118495 
-1.991197 
-3.738819 
0.059646 
3.265472 
-4.052110 
-26.340240 
5.067623 
1.185786 
-2.182152 
1.789269 
3.079720 
-4.839672 
-46.107910 
1.220053 
10.878685 
0.683941 
-6.211084 
-25.030492 
3.266986 
-67.847289 
-6.559226 
-7.418468 
-6.561487 
-8.662760 
1.210639 
2.741184 
-6.874020 
-8.103021 
2.963718 
-9.401484 
2.204325 
-1.382403 
-9.135907 
-1.394582 
-4.628162 
0.867841 
9.339244 
-5.513666 
2.765972 
-26.348074 
5.099756 
5.036467 
0.889701 
-0.762856 
0.844406 
-9.038753 
1.313914 
0.556699 
0.797921 
2.418630 
0.889225 
0.159814 
-0.430502 
-2.167743 
-7.537289 
-9.569581 
2.668904 
-0.428732 
-3.113035 
1.737980 
0.508253 
3.268698 
-9.119866 
32.319645 
11.816515 
-4.760583 
3.091495 
-6.469735 
0.629646 
-1.669012 
-9.496749 
-11.971775 
0.505285 
5.161363 
-9.237831 
-5.172264 
-0.804597 
-2.722982 
-2.406663 
1.761310 
2.560883 
-5.264710 
-9.953905 
22.436308 
14.721773 
16.079960 
-5.230292 
-7.494890 
11.093085 
-5.780874 
-7.116702 
-46.036989 
-0.278208 
-9.337972 
-4.431208 
1.080303 
-3.586410 
-0.768643 
-7.235649 
0.525056 
2.881138 
-5.644039 
8.655941 
-2.132274 
-4.657110 
17.778837 
10.168309 
3.846446 
9.461171 
-3.751244 
7.196833 
2.135179 
-1.546892 
-9.690746 
0.715920 
-0.699560 
-5.526266 
-0.400690 
-11.142480 
1.255613 
2.636623 
-11.983683 
-3.143157 
-14.911885 
2.028759 
-0.310993 
0.422038 
2.808646 
4.343935 
1.332867 
2.436486 
-2.165133 
-2.234533 
-14.523195 
6.428742 
1.881564 
-1.185762 
-1.569165 
3.557753 
-2.712071 
3.817894 
-2.813713 
-0.933951 
-1.117676 
-2.299692 
-0.842580 
-29.998330 
-5.826184 
-11.771075 
-11.409422 
-10.892318 
-65.982132 
-10.888523 
3.064811 
-1.376944 
3.682529 
7.270921 
-6.113376 
3.328764 
-1.734337 
4.601211 
6.787433 
-41.325734 
-6.913486 
-5.638118 
7.820861 
-15.545880 
-1.122923 
-1.208089 
-21.641742 
19.854143 
0.669858 
3.675656 
3.364334 
-25.349587 
-0.764924 
-16.986928 
-2.862171 
-13.509436 
-1.836983 
-10.769780 
1.757267 
-31.721500 
-13.940468 
-26.773499 
-14.256628 
-30.964318 
-2.263860 
0.952201 
-4.850254 
-37.223198 
-1.374657 
-10.916220 
-31.096762 
49.944219 
1.798398 
17.915492 
1.650947 
-29.486258 
-5.629156 
44.866316 
-5.894543 
2.318600 
7.424723 
1.976079 
1.611923 
